{"learner":{"attributes":{},"feature_names":["x-coordinate","y-coordinate","shot_distance","angle","coor_y_last_event","time_last_event","distance_last_event","Change in shot angle","Speed","power_play_time","game_second"],"feature_types":["float","float","float","float","float","float","float","float","float","float","float"],"gradient_booster":{"model":{"gbtree_model_param":{"num_parallel_tree":"1","num_trees":"145"},"iteration_indptr":[0,1,2,3,4,5,6,7,8,9,10,11,12,13,14,15,16,17,18,19,20,21,22,23,24,25,26,27,28,29,30,31,32,33,34,35,36,37,38,39,40,41,42,43,44,45,46,47,48,49,50,51,52,53,54,55,56,57,58,59,60,61,62,63,64,65,66,67,68,69,70,71,72,73,74,75,76,77,78,79,80,81,82,83,84,85,86,87,88,89,90,91,92,93,94,95,96,97,98,99,100,101,102,103,104,105,106,107,108,109,110,111,112,113,114,115,116,117,118,119,120,121,122,123,124,125,126,127,128,129,130,131,132,133,134,135,136,137,138,139,140,141,142,143,144,145],"tree_info":[0,0,0,0,0,0,0,0,0,0,0,0,0,0,0,0,0,0,0,0,0,0,0,0,0,0,0,0,0,0,0,0,0,0,0,0,0,0,0,0,0,0,0,0,0,0,0,0,0,0,0,0,0,0,0,0,0,0,0,0,0,0,0,0,0,0,0,0,0,0,0,0,0,0,0,0,0,0,0,0,0,0,0,0,0,0,0,0,0,0,0,0,0,0,0,0,0,0,0,0,0,0,0,0,0,0,0,0,0,0,0,0,0,0,0,0,0,0,0,0,0,0,0,0,0,0,0,0,0,0,0,0,0,0,0,0,0,0,0,0,0,0,0,0,0],"trees":[{"base_weights":[-5.196092E-1,-5.4362938E-2,-8.320987E-1,4.336234E-1,-2.0718189E-1,-8.736085E-1,-1.3020618E-1,-2.722557E-1,4.872675E-1,-4.9568385E-1,-1.02991186E-1,-6.332722E-1,-9.7265667E-1,-4.139122E-1,1.9742912E0,-6.211E-1,1.5481216E-1,-2.4252884E-1,5.316638E-1,-7.4264073E-1,-3.865169E-1,8.8555895E-2,-4.1527608E-1,-6.985294E-1,-2.7948844E-1,-1.008815E0,-7.286513E-1,-5.41374E-1,6.0611886E-1,3.5408616E0,1.4537419E0,2.2059534E-1,-6.906374E-2,6.1317112E-2,-8.780266E-3,-5.359875E-2,1.6835295E-2,6.29988E-2,1.5716007E-2,-5.9817847E-2,-8.969933E-2,-4.4696596E-2,-1.3633369E-3,2.948324E-3,7.651323E-2,-2.9725362E-2,-6.347241E-2,-1.0354244E-1,-6.527763E-2,3.3737328E-2,-3.2836333E-2,-9.160579E-2,-1.0370419E-1,-6.420013E-2,-8.151941E-2,-6.161349E-2,-2.5895981E-2,9.26683E-3,1.0310208E-1,3.94658E-1,-3.0329868E-2,8.403854E-2,2.2872384E-1],"categories":[],"categories_nodes":[],"categories_segments":[],"categories_sizes":[],"default_left":[0,0,0,0,0,0,0,0,0,0,0,0,0,0,0,0,0,0,0,0,0,0,0,0,0,0,0,0,0,0,0,0,0,0,0,0,0,0,0,0,0,0,0,0,0,0,0,0,0,0,0,0,0,0,0,0,0,0,0,0,0,0,0],"id":0,"left_children":[1,3,5,7,9,11,13,15,17,19,21,23,25,27,29,31,33,35,37,39,41,43,45,47,49,51,53,55,57,59,61,-1,-1,-1,-1,-1,-1,-1,-1,-1,-1,-1,-1,-1,-1,-1,-1,-1,-1,-1,-1,-1,-1,-1,-1,-1,-1,-1,-1,-1,-1,-1,-1],"loss_changes":[5.8961826E3,1.21536E3,7.067363E2,1.4730554E2,3.7300177E2,5.446543E2,8.1033325E2,4.1088333E1,1.1717511E2,8.8477905E1,5.4551355E2,1.5420728E2,1.423623E2,1.5577448E2,1.2633496E2,3.1333183E1,1.389979E1,2.515191E1,1.25305725E2,2.194336E1,5.1506165E1,2.2591049E2,8.960663E1,8.634546E1,3.1561554E1,3.602539E1,1.5199463E1,2.22901E1,2.8979809E1,6.2834503E1,6.0813965E1,0E0,0E0,0E0,0E0,0E0,0E0,0E0,0E0,0E0,0E0,0E0,0E0,0E0,0E0,0E0,0E0,0E0,0E0,0E0,0E0,0E0,0E0,0E0,0E0,0E0,0E0,0E0,0E0,0E0,0E0,0E0,0E0],"parents":[2147483647,0,0,1,1,2,2,3,3,4,4,5,5,6,6,7,7,8,8,9,9,10,10,11,11,12,12,13,13,14,14,15,15,16,16,17,17,18,18,19,19,20,20,21,21,22,22,23,23,24,24,25,25,26,26,27,27,28,28,29,29,30,30],"right_children":[2,4,6,8,10,12,14,16,18,20,22,24,26,28,30,32,34,36,38,40,42,44,46,48,50,52,54,56,58,60,62,-1,-1,-1,-1,-1,-1,-1,-1,-1,-1,-1,-1,-1,-1,-1,-1,-1,-1,-1,-1,-1,-1,-1,-1,-1,-1,-1,-1,-1,-1,-1,-1],"split_conditions":[1.3869849E-1,2.0618556E-2,8.833333E-1,1.118034E-2,4.2857143E-1,1.9654329E-1,3.928155E-1,5.154639E-3,1.4758362E-1,1.6809131E-1,5.714286E-1,5.425039E-1,5.425039E-1,7.598844E-2,3.0927835E-2,2.120273E-2,3.8122283E-3,4.642857E-1,5.833333E-1,8.496669E-2,5.5641425E-1,8.7268434E-2,7.951672E-1,2.1626413E-1,2.0618556E-2,2.3110025E-1,2.5658736E-1,4.3200114E-1,3.6503425E-1,9.228205E-1,5.8247787E-1,2.2059534E-1,-6.906374E-2,6.1317112E-2,-8.780266E-3,-5.359875E-2,1.6835295E-2,6.29988E-2,1.5716007E-2,-5.9817847E-2,-8.969933E-2,-4.4696596E-2,-1.3633369E-3,2.948324E-3,7.651323E-2,-2.9725362E-2,-6.347241E-2,-1.0354244E-1,-6.527763E-2,3.3737328E-2,-3.2836333E-2,-9.160579E-2,-1.0370419E-1,-6.420013E-2,-8.151941E-2,-6.161349E-2,-2.5895981E-2,9.26683E-3,1.0310208E-1,3.94658E-1,-3.0329868E-2,8.403854E-2,2.2872384E-1],"split_indices":[2,5,10,6,1,2,2,5,3,3,1,9,9,8,5,2,8,4,1,2,9,8,3,3,5,2,2,6,6,10,2,0,0,0,0,0,0,0,0,0,0,0,0,0,0,0,0,0,0,0,0,0,0,0,0,0,0,0,0,0,0,0,0],"split_type":[0,0,0,0,0,0,0,0,0,0,0,0,0,0,0,0,0,0,0,0,0,0,0,0,0,0,0,0,0,0,0,0,0,0,0,0,0,0,0,0,0,0,0,0,0,0,0,0,0,0,0,0,0,0,0,0,0,0,0,0,0,0,0],"sum_hessian":[4.055509E4,1.6295262E4,2.425983E4,3.8856467E3,1.2409615E4,2.2904986E4,1.3548429E3,2.741487E2,3.611498E3,3.2915664E3,9.118049E3,6.686898E3,1.6218089E4,1.194603E3,1.6023991E2,1.5064471E2,1.2350399E2,2.068452E2,3.4046528E3,1.00722235E3,2.284344E3,5.651987E3,3.466062E3,5.6447217E3,1.0421763E3,1.4122222E4,2.095867E3,1.0623262E3,1.3227675E2,3.851789E1,1.2172202E2,2.8785615E0,1.4776614E2,4.22189E1,8.128509E1,1.2048836E2,8.635684E1,2.6961155E3,7.085373E2,5.228016E2,4.8442075E2,1.9655092E3,3.1883493E2,5.1990933E3,4.5289365E2,2.2554214E3,1.2106406E3,6.723497E2,4.972372E3,7.607626E1,9.6610004E2,3.3026694E3,1.0819553E4,1.0514973E3,1.0443695E3,8.390321E2,2.2329411E2,6.0449787E1,7.182696E1,3.4816887E1,3.7010074E0,7.127866E1,5.044336E1],"tree_param":{"num_deleted":"0","num_feature":"11","num_nodes":"63","size_leaf_vector":"1"}},{"base_weights":[-4.8625562E-1,-8.1667446E-2,-8.2186836E-1,3.561164E-1,-2.1780334E-1,-8.6532307E-1,-1.2122992E-1,-4.926634E-1,3.972215E-1,-5.281121E-1,-1.3371952E-1,-6.7096376E-1,-9.5330065E-1,-4.075927E-1,1.5557278E0,-8.424902E-1,-7.395043E-2,-2.9865196E-1,4.4197553E-1,-5.975565E-1,-9.991239E-2,1.1947505E-3,-4.6822676E-1,-7.305587E-1,-3.6116493E-1,-9.892005E-1,-7.0944667E-1,-5.4521346E-1,3.6891565E-1,1.7888644E0,-5.324089E-1,-9.486758E-2,-4.4507213E-2,-5.262732E-2,1.6941337E-2,-4.4432357E-2,6.841611E-2,4.9400873E-2,-1.02681955E-2,-7.616349E-2,-4.4109818E-2,-4.147306E-2,1.6948754E-3,-4.891384E-3,5.9389055E-2,-5.3418826E-2,-8.278401E-3,-9.781707E-2,-6.834797E-2,-1.0159534E-2,-4.545605E-2,-8.915826E-2,-1.0127868E-1,-6.2330015E-2,-7.780672E-2,-9.589365E-2,-5.022191E-2,-2.2902186E-3,7.2383836E-2,9.1205284E-2,2.2512977E-1,-7.231915E-2,4.2544294E-2],"categories":[],"categories_nodes":[],"categories_segments":[],"categories_sizes":[],"default_left":[0,0,0,0,0,0,0,0,0,0,0,0,0,0,0,0,0,0,0,0,0,0,0,0,0,0,0,0,0,0,0,0,0,0,0,0,0,0,0,0,0,0,0,0,0,0,0,0,0,0,0,0,0,0,0,0,0,0,0,0,0,0,0],"id":1,"left_children":[1,3,5,7,9,11,13,15,17,19,21,23,25,27,29,31,33,35,37,39,41,43,45,47,49,51,53,55,57,59,61,-1,-1,-1,-1,-1,-1,-1,-1,-1,-1,-1,-1,-1,-1,-1,-1,-1,-1,-1,-1,-1,-1,-1,-1,-1,-1,-1,-1,-1,-1,-1,-1],"loss_changes":[5.3174004E3,1.05836E3,6.515918E2,1.4716284E2,3.5335944E2,3.4399023E2,6.01485E2,2.8503063E1,1.252771E2,8.580408E1,4.810409E2,1.1574756E2,1.20737305E2,1.14492294E2,8.989752E1,4.056076E0,9.982147E0,3.515295E1,1.0706299E2,6.344104E1,1.48761215E1,2.2564107E2,7.784192E1,6.0751953E1,2.4577515E1,2.6930664E1,1.0057861E1,1.5684143E1,2.2491203E1,6.46767E1,3.80199E0,0E0,0E0,0E0,0E0,0E0,0E0,0E0,0E0,0E0,0E0,0E0,0E0,0E0,0E0,0E0,0E0,0E0,0E0,0E0,0E0,0E0,0E0,0E0,0E0,0E0,0E0,0E0,0E0,0E0,0E0,0E0,0E0],"parents":[2147483647,0,0,1,1,2,2,3,3,4,4,5,5,6,6,7,7,8,8,9,9,10,10,11,11,12,12,13,13,14,14,15,15,16,16,17,17,18,18,19,19,20,20,21,21,22,22,23,23,24,24,25,25,26,26,27,27,28,28,29,29,30,30],"right_children":[2,4,6,8,10,12,14,16,18,20,22,24,26,28,30,32,34,36,38,40,42,44,46,48,50,52,54,56,58,60,62,-1,-1,-1,-1,-1,-1,-1,-1,-1,-1,-1,-1,-1,-1,-1,-1,-1,-1,-1,-1,-1,-1,-1,-1,-1,-1,-1,-1,-1,-1,-1,-1],"split_conditions":[1.5203229E-1,2.0618556E-2,8.833333E-1,3.2142857E-1,4.047619E-1,2.0837666E-1,3.928155E-1,4.1666666E-1,1E-2,5.5641425E-1,5.952381E-1,5.425039E-1,5.425039E-1,6.51869E-2,9.228205E-1,6.920513E-1,2.6190478E-1,1.0309278E-2,6.4285713E-1,2.1626413E-1,1.7559724E-1,8.8922456E-2,5.425039E-1,2.1428572E-1,1.6727704E-1,2.5773196E-2,2.5658736E-1,2.6870257E-1,3.800329E-1,4.745209E-1,7.133828E-2,-9.486758E-2,-4.4507213E-2,-5.262732E-2,1.6941337E-2,-4.4432357E-2,6.841611E-2,4.9400873E-2,-1.02681955E-2,-7.616349E-2,-4.4109818E-2,-4.147306E-2,1.6948754E-3,-4.891384E-3,5.9389055E-2,-5.3418826E-2,-8.278401E-3,-9.781707E-2,-6.834797E-2,-1.0159534E-2,-4.545605E-2,-8.915826E-2,-1.0127868E-1,-6.2330015E-2,-7.780672E-2,-9.589365E-2,-5.022191E-2,-2.2902186E-3,7.2383836E-2,9.1205284E-2,2.2512977E-1,-7.231915E-2,4.2544294E-2],"split_indices":[2,5,10,1,1,2,2,4,6,9,1,9,9,8,10,10,1,5,1,3,3,8,9,1,2,5,2,3,6,2,8,0,0,0,0,0,0,0,0,0,0,0,0,0,0,0,0,0,0,0,0,0,0,0,0,0,0,0,0,0,0,0,0],"split_type":[0,0,0,0,0,0,0,0,0,0,0,0,0,0,0,0,0,0,0,0,0,0,0,0,0,0,0,0,0,0,0,0,0,0,0,0,0,0,0,0,0,0,0,0,0,0,0,0,0,0,0,0,0,0,0,0,0,0,0,0,0,0,0],"sum_hessian":[3.9159953E4,1.7755984E4,2.1403967E4,4.211401E3,1.3544584E4,2.0153762E4,1.250206E3,1.9402226E2,4.0173787E3,2.8865542E3,1.065803E4,6.282703E3,1.3871058E4,1.0685026E3,1.8170346E2,1.05153786E2,8.8868484E1,2.4241476E2,3.7749639E3,2.483404E3,4.0315024E2,7.595563E3,3.0624673E3,5.267962E3,1.01474115E3,1.2088366E4,1.7826915E3,9.0789526E2,1.6060733E2,1.6358348E2,1.811999E1,8.188534E1,2.3268448E1,3.0682587E1,5.8185898E1,2.1160046E2,3.0814297E1,3.4458623E3,3.291014E2,1.2102917E3,1.2731123E3,1.0845023E2,2.947E2,7.0043096E3,5.9125323E2,2.614632E3,4.4783514E2,8.3843304E2,4.429529E3,2.6905862E2,7.456825E2,2.3599504E3,9.728416E3,7.948856E2,9.878059E2,8.345962E1,8.2443567E2,7.677928E1,8.382804E1,5.7511463E1,1.06072014E2,1.5315513E1,2.8044775E0],"tree_param":{"num_deleted":"0","num_feature":"11","num_nodes":"63","size_leaf_vector":"1"}},{"base_weights":[-4.545747E-1,-7.4501015E-2,-7.8679854E-1,3.1235334E-1,-1.9948427E-1,-8.308068E-1,-1.12406895E-1,-1.1984615E-1,3.7919754E-1,-5.395619E-1,-1.3123281E-1,-6.346324E-1,-9.214707E-1,-4.1168606E-1,1.1486717E0,-4.672485E-1,3.8457167E-1,4.868999E-1,8.765906E-2,-6.1453617E-1,-9.6807264E-2,-2.0260427E-2,-4.36117E-1,-6.940572E-1,-3.337874E-1,-9.588237E-1,-6.7293996E-1,-5.28106E-1,3.0886683E-1,2.2671242E0,8.715604E-1,-7.31258E-2,-3.3035744E-2,2.5186395E-2,1.1622E-1,2.6054857E-2,6.674427E-2,5.310219E-2,-3.382989E-2,-8.262678E-2,-4.918706E-2,-6.398419E-2,-2.6028107E-3,-6.4534782E-3,4.8290502E-2,-3.090612E-2,-6.4765655E-2,-6.521823E-2,-9.823766E-2,-9.214093E-3,-4.2287853E-2,-8.5782215E-2,-9.834429E-2,-5.8732834E-2,-7.419106E-2,-2.7006371E-2,-6.1069984E-2,-5.7006176E-3,6.269308E-2,2.421038E-1,7.682877E-3,1.097155E-1,-6.020954E-3],"categories":[],"categories_nodes":[],"categories_segments":[],"categories_sizes":[],"default_left":[0,0,0,0,0,0,0,0,0,0,0,0,0,0,0,0,0,0,0,0,0,0,0,0,0,0,0,0,0,0,0,0,0,0,0,0,0,0,0,0,0,0,0,0,0,0,0,0,0,0,0,0,0,0,0,0,0,0,0,0,0,0,0],"id":2,"left_children":[1,3,5,7,9,11,13,15,17,19,21,23,25,27,29,31,33,35,37,39,41,43,45,47,49,51,53,55,57,59,61,-1,-1,-1,-1,-1,-1,-1,-1,-1,-1,-1,-1,-1,-1,-1,-1,-1,-1,-1,-1,-1,-1,-1,-1,-1,-1,-1,-1,-1,-1,-1,-1],"loss_changes":[4.779305E3,8.53688E2,5.993154E2,1.24604675E2,3.0966583E2,3.3661914E2,4.6785095E2,1.01511375E2,1.1720917E2,7.3971375E1,3.7606415E2,1.0695825E2,1.1970508E2,8.4183014E1,7.17189E1,1.21491165E1,2.4099785E1,1.1125195E2,1.9065727E2,4.9122253E1,1.244159E1,1.8159624E2,7.951996E1,5.9795654E1,2.1293411E1,2.7172852E1,9.584595E0,1.821939E1,1.6322048E1,1.5517929E1,4.046669E1,0E0,0E0,0E0,0E0,0E0,0E0,0E0,0E0,0E0,0E0,0E0,0E0,0E0,0E0,0E0,0E0,0E0,0E0,0E0,0E0,0E0,0E0,0E0,0E0,0E0,0E0,0E0,0E0,0E0,0E0,0E0,0E0],"parents":[2147483647,0,0,1,1,2,2,3,3,4,4,5,5,6,6,7,7,8,8,9,9,10,10,11,11,12,12,13,13,14,14,15,15,16,16,17,17,18,18,19,19,20,20,21,21,22,22,23,23,24,24,25,25,26,26,27,27,28,28,29,29,30,30],"right_children":[2,4,6,8,10,12,14,16,18,20,22,24,26,28,30,32,34,36,38,40,42,44,46,48,50,52,54,56,58,60,62,-1,-1,-1,-1,-1,-1,-1,-1,-1,-1,-1,-1,-1,-1,-1,-1,-1,-1,-1,-1,-1,-1,-1,-1,-1,-1,-1,-1,-1,-1,-1,-1],"split_conditions":[1.5203229E-1,2.0618556E-2,8.833333E-1,4.047619E-1,3.809524E-1,2.0837666E-1,3.4490559E-1,4.7619048E-1,5.714286E-1,5.5641425E-1,5.952381E-1,5.425039E-1,5.425039E-1,7.0228435E-2,2.5773196E-2,3.2142857E-1,5.4868627E-1,1.0309278E-2,5.714286E-1,1.6809131E-1,2.5E-1,8.8922456E-2,7.951672E-1,7.7885795E-1,1.6727704E-1,2.5773196E-2,2.5658736E-1,1.8764707E-1,3.800329E-1,9.228205E-1,9.205128E-1,-7.31258E-2,-3.3035744E-2,2.5186395E-2,1.1622E-1,2.6054857E-2,6.674427E-2,5.310219E-2,-3.382989E-2,-8.262678E-2,-4.918706E-2,-6.398419E-2,-2.6028107E-3,-6.4534782E-3,4.8290502E-2,-3.090612E-2,-6.4765655E-2,-6.521823E-2,-9.823766E-2,-9.214093E-3,-4.2287853E-2,-8.5782215E-2,-9.834429E-2,-5.8732834E-2,-7.419106E-2,-2.7006371E-2,-6.1069984E-2,-5.7006176E-3,6.269308E-2,2.421038E-1,7.682877E-3,1.097155E-1,-6.020954E-3],"split_indices":[2,5,10,1,1,2,2,4,1,9,1,9,9,8,5,1,9,5,4,3,1,8,3,3,2,5,2,2,6,10,10,0,0,0,0,0,0,0,0,0,0,0,0,0,0,0,0,0,0,0,0,0,0,0,0,0,0,0,0,0,0,0,0],"split_type":[0,0,0,0,0,0,0,0,0,0,0,0,0,0,0,0,0,0,0,0,0,0,0,0,0,0,0,0,0,0,0,0,0,0,0,0,0,0,0,0,0,0,0,0,0,0,0,0,0,0,0,0,0,0,0,0,0,0,0,0,0,0,0],"sum_hessian":[3.7849508E4,1.765402E4,2.0195486E4,4.3104854E3,1.3343535E4,1.8958115E4,1.2373699E3,5.7725806E2,3.7332273E3,2.2291902E3,1.1114345E4,5.994816E3,1.29633E4,1.0005853E3,2.3678456E2,3.4187665E2,2.3538142E2,2.7256306E3,1.0075966E3,1.9060393E3,3.2315088E2,8.149238E3,2.9651072E3,5.0049053E3,9.89911E2,1.1267053E4,1.6962466E3,8.616386E2,1.3894667E2,4.5590652E1,1.9119391E2,1.15251755E2,2.266249E2,2.0219978E2,3.318164E1,1.2104747E3,1.515156E3,4.9359195E2,5.140047E2,6.9707745E2,1.2089618E3,3.6333958E1,2.8681693E2,7.4909688E3,6.58269E2,1.8540096E3,1.1110975E3,4.37304E3,6.31865E2,2.672043E2,7.2270667E2,2.2151504E3,9.051902E3,7.610743E2,9.351723E2,2.099594E2,6.5167926E2,6.49972E1,7.394947E1,4.2498455E1,3.0921998E0,1.5378416E2,3.7409737E1],"tree_param":{"num_deleted":"0","num_feature":"11","num_nodes":"63","size_leaf_vector":"1"}},{"base_weights":[-4.2445543E-1,-8.6443715E-2,-7.7094626E-1,2.2286369E-1,-2.1549475E-1,-8.163145E-1,-1.0725416E-1,3.0927476E-1,-7.572677E-2,4.74813E-2,-3.032351E-1,-6.375427E-1,-8.949899E-1,-4.072037E-1,9.702945E-1,-6.5027684E-2,3.6201888E-1,-5.667691E-1,8.452844E-3,-3.6770642E-1,1.3963453E-1,-6.712052E-1,-2.5199887E-1,-6.962485E-1,-3.4778416E-1,-9.322358E-1,-6.4977527E-1,-5.1783335E-1,2.5085512E-1,1.7239095E0,6.9377023E-1,5.945086E-2,-1.4981675E-2,-8.231231E-3,4.0463705E-2,-8.185183E-2,-1.6481722E-2,-8.806516E-2,5.1335E-3,-4.7719426E-2,-1.4228709E-2,2.3776837E-2,-2.6587486E-2,-7.294919E-2,-1.4538479E-2,-1.9951468E-2,-6.937411E-2,-9.835442E-2,-6.554111E-2,-4.0845014E-2,-3.1119143E-3,-8.2911685E-2,-9.576141E-2,-4.5140993E-2,-6.841309E-2,-9.738654E-2,-4.718865E-2,-1.4204021E-2,5.9338886E-2,1.8536852E-1,-1.8820925E-2,3.482182E-2,1.2798923E-1],"categories":[],"categories_nodes":[],"categories_segments":[],"categories_sizes":[],"default_left":[0,0,0,0,0,0,0,0,0,0,0,0,0,0,0,0,0,0,0,0,0,0,0,0,0,0,0,0,0,0,0,0,0,0,0,0,0,0,0,0,0,0,0,0,0,0,0,0,0,0,0,0,0,0,0,0,0,0,0,0,0,0,0],"id":3,"left_children":[1,3,5,7,9,11,13,15,17,19,21,23,25,27,29,31,33,35,37,39,41,43,45,47,49,51,53,55,57,59,61,-1,-1,-1,-1,-1,-1,-1,-1,-1,-1,-1,-1,-1,-1,-1,-1,-1,-1,-1,-1,-1,-1,-1,-1,-1,-1,-1,-1,-1,-1,-1,-1],"loss_changes":[4.289432E3,7.401269E2,5.444834E2,1.4086908E2,3.0188452E2,2.3752441E2,3.747832E2,8.36087E1,5.0682686E1,1.2531242E2,1.8478223E2,8.781616E1,1.067334E2,6.614743E1,5.1425735E1,2.9377995E1,7.030817E1,1.8020992E1,3.9984447E1,1.4614967E1,1.06709015E2,3.662201E1,1.9954022E2,4.984546E1,1.6779594E1,2.5898438E1,1.0273926E1,1.5812088E1,1.773919E1,1.7004028E1,3.730783E1,0E0,0E0,0E0,0E0,0E0,0E0,0E0,0E0,0E0,0E0,0E0,0E0,0E0,0E0,0E0,0E0,0E0,0E0,0E0,0E0,0E0,0E0,0E0,0E0,0E0,0E0,0E0,0E0,0E0,0E0,0E0,0E0],"parents":[2147483647,0,0,1,1,2,2,3,3,4,4,5,5,6,6,7,7,8,8,9,9,10,10,11,11,12,12,13,13,14,14,15,15,16,16,17,17,18,18,19,19,20,20,21,21,22,22,23,23,24,24,25,25,26,26,27,27,28,28,29,29,30,30],"right_children":[2,4,6,8,10,12,14,16,18,20,22,24,26,28,30,32,34,36,38,40,42,44,46,48,50,52,54,56,58,60,62,-1,-1,-1,-1,-1,-1,-1,-1,-1,-1,-1,-1,-1,-1,-1,-1,-1,-1,-1,-1,-1,-1,-1,-1,-1,-1,-1,-1,-1,-1,-1,-1],"split_conditions":[1.6063693E-1,2.5773196E-2,8.833333E-1,1.07143775E-1,5.4669693E-2,2.1222115E-1,3.4490559E-1,2.236068E-2,2.6514617E-1,4.4047618E-1,2.2114207E-1,5.425039E-1,5.425039E-1,7.0228435E-2,3.0927835E-2,2.8640246E-2,1.8716705E-1,4.7619048E-1,1E-2,4.2526463E-1,5.714286E-1,5.935085E-1,7.951672E-1,1.7857143E-1,3.300053E-2,2.5773196E-2,3.0927835E-2,2.6870257E-1,3.800329E-1,9.228205E-1,5.8247787E-1,5.945086E-2,-1.4981675E-2,-8.231231E-3,4.0463705E-2,-8.185183E-2,-1.6481722E-2,-8.806516E-2,5.1335E-3,-4.7719426E-2,-1.4228709E-2,2.3776837E-2,-2.6587486E-2,-7.294919E-2,-1.4538479E-2,-1.9951468E-2,-6.937411E-2,-9.835442E-2,-6.554111E-2,-4.0845014E-2,-3.1119143E-3,-8.2911685E-2,-9.576141E-2,-4.5140993E-2,-6.841309E-2,-9.738654E-2,-4.718865E-2,-1.4204021E-2,5.9338886E-2,1.8536852E-1,-1.8820925E-2,3.482182E-2,1.2798923E-1],"split_indices":[2,5,10,2,2,2,2,6,3,1,3,9,9,8,5,2,3,4,6,6,1,9,3,1,8,5,5,3,6,10,2,0,0,0,0,0,0,0,0,0,0,0,0,0,0,0,0,0,0,0,0,0,0,0,0,0,0,0,0,0,0,0,0],"split_type":[0,0,0,0,0,0,0,0,0,0,0,0,0,0,0,0,0,0,0,0,0,0,0,0,0,0,0,0,0,0,0,0,0,0,0,0,0,0,0,0,0,0,0,0,0,0,0,0,0,0,0,0,0,0,0,0,0,0,0,0,0,0,0],"sum_hessian":[3.662446E4,1.8539705E4,1.8084758E4,5.4578013E3,1.3081903E4,1.6927414E4,1.1573441E3,4.232808E3,1.2249929E3,3.2728733E3,9.80903E3,5.1757744E3,1.175164E4,9.058204E2,2.5152374E2,5.2275903E2,3.710049E3,1.7843172E2,1.0465612E3,5.939385E2,2.6789348E3,1.1973981E3,8.611633E3,4.3026426E3,8.731318E2,1.0199607E4,1.5520315E3,7.756385E2,1.3018195E2,6.611147E1,1.8541228E2,5.8863415E1,4.6389563E2,3.2462253E2,3.3854265E3,1.0907646E2,6.9355255E1,4.725393E1,9.9930725E2,3.9901337E2,1.9492511E2,2.157285E3,5.216498E2,1.077562E3,1.1983606E2,7.6984224E3,9.132101E2,5.3260297E2,3.7700398E3,7.3250684E2,1.4062497E2,2.021088E3,8.17852E3,2.312117E2,1.3208198E3,6.9144745E1,7.064937E2,6.0904854E1,6.9277084E1,6.1938763E1,4.172709E0,1.17647964E2,6.7764305E1],"tree_param":{"num_deleted":"0","num_feature":"11","num_nodes":"63","size_leaf_vector":"1"}},{"base_weights":[-3.9575928E-1,-8.1174664E-2,-7.406966E-1,2.3852792E-1,-1.8704675E-1,-7.863179E-1,-1.0524772E-1,1.7985117E-1,6.189869E-1,-6.898452E-2,-3.7672126E-1,-6.412691E-1,-8.860744E-1,-3.893266E-1,8.3413225E-1,-1.9858153E-1,2.4169058E-1,4.8651788E-1,1.2142783E0,-3.8051888E-1,-2.6307565E-3,-4.4726792E-1,-1.1769656E-2,-6.970829E-1,-3.7447596E-1,-9.216164E-1,-6.432516E-1,-5.0534743E-1,1.7258576E-1,5.753973E-1,1.483333E0,-5.4034483E-2,1.648535E-2,3.449801E-2,-8.902264E-3,1.03450656E-1,3.2640688E-2,1.3829403E-1,-1.4155927E-2,-4.340544E-2,1.0733583E-3,9.848229E-3,-2.6826954E-2,-8.26391E-2,-3.9509498E-2,-4.7593504E-2,2.3140586E-3,-6.528333E-2,-9.124621E-2,-7.207168E-3,-4.2144116E-2,-8.1192724E-2,-9.4911195E-2,-6.4939596E-2,3.1163812E-2,-9.542223E-2,-4.615557E-2,4.0251907E-2,-2.710903E-2,-7.2728256E-3,1.0295135E-1,1.6265883E-1,-7.889225E-3],"categories":[],"categories_nodes":[],"categories_segments":[],"categories_sizes":[],"default_left":[0,0,0,0,0,0,0,0,0,0,0,0,0,0,0,0,0,0,0,0,0,0,0,0,0,0,0,0,0,0,0,0,0,0,0,0,0,0,0,0,0,0,0,0,0,0,0,0,0,0,0,0,0,0,0,0,0,0,0,0,0,0,0],"id":4,"left_children":[1,3,5,7,9,11,13,15,17,19,21,23,25,27,29,31,33,35,37,39,41,43,45,47,49,51,53,55,57,59,61,-1,-1,-1,-1,-1,-1,-1,-1,-1,-1,-1,-1,-1,-1,-1,-1,-1,-1,-1,-1,-1,-1,-1,-1,-1,-1,-1,-1,-1,-1,-1,-1],"loss_changes":[3.8507754E3,6.283087E2,4.906328E2,1.029823E2,3.1223798E2,2.2794922E2,3.0321136E2,9.3713104E1,4.8035156E1,1.7768976E2,1.3772388E2,9.562207E1,8.01416E1,5.694629E1,4.346515E1,6.998381E1,1.1756302E2,4.4063522E1,2.571167E1,3.1620026E1,1.903961E2,8.834442E1,1.4070219E1,5.0142822E1,1.582196E1,2.383252E1,7.2301636E0,1.3773102E1,1.5411976E1,5.6086395E1,1.6815582E1,0E0,0E0,0E0,0E0,0E0,0E0,0E0,0E0,0E0,0E0,0E0,0E0,0E0,0E0,0E0,0E0,0E0,0E0,0E0,0E0,0E0,0E0,0E0,0E0,0E0,0E0,0E0,0E0,0E0,0E0,0E0,0E0],"parents":[2147483647,0,0,1,1,2,2,3,3,4,4,5,5,6,6,7,7,8,8,9,9,10,10,11,11,12,12,13,13,14,14,15,15,16,16,17,17,18,18,19,19,20,20,21,21,22,22,23,23,24,24,25,25,26,26,27,27,28,28,29,29,30,30],"right_children":[2,4,6,8,10,12,14,16,18,20,22,24,26,28,30,32,34,36,38,40,42,44,46,48,50,52,54,56,58,60,62,-1,-1,-1,-1,-1,-1,-1,-1,-1,-1,-1,-1,-1,-1,-1,-1,-1,-1,-1,-1,-1,-1,-1,-1,-1,-1,-1,-1,-1,-1,-1,-1],"split_conditions":[1.6206999E-1,2.0618556E-2,8.833333E-1,5.4868627E-1,1.0346023E-1,2.3110025E-1,3.4490559E-1,4.047619E-1,6.1056876E-1,2.7443725E-1,5.425039E-1,5.425039E-1,5.425039E-1,6.4399116E-2,4.2791396E-2,4.1666666E-1,5.833333E-1,3.8804212E-1,6.547619E-1,5.703246E-1,5.714286E-1,2.1626413E-1,2.5E-1,8.095238E-1,3.0927835E-2,2.5773196E-2,8.367741E-1,2.6870257E-1,7.0238096E-1,4.745209E-1,9.228205E-1,-5.4034483E-2,1.648535E-2,3.449801E-2,-8.902264E-3,1.03450656E-1,3.2640688E-2,1.3829403E-1,-1.4155927E-2,-4.340544E-2,1.0733583E-3,9.848229E-3,-2.6826954E-2,-8.26391E-2,-3.9509498E-2,-4.7593504E-2,2.3140586E-3,-6.528333E-2,-9.124621E-2,-7.207168E-3,-4.2144116E-2,-8.1192724E-2,-9.4911195E-2,-6.4939596E-2,3.1163812E-2,-9.542223E-2,-4.615557E-2,4.0251907E-2,-2.710903E-2,-7.2728256E-3,1.0295135E-1,1.6265883E-1,-7.889225E-3],"split_indices":[2,5,10,9,2,2,2,1,7,3,9,9,9,8,8,4,1,7,4,9,1,3,1,1,5,5,2,3,1,2,10,0,0,0,0,0,0,0,0,0,0,0,0,0,0,0,0,0,0,0,0,0,0,0,0,0,0,0,0,0,0,0,0],"split_type":[0,0,0,0,0,0,0,0,0,0,0,0,0,0,0,0,0,0,0,0,0,0,0,0,0,0,0,0,0,0,0,0,0,0,0,0,0,0,0,0,0,0,0,0,0,0,0,0,0,0,0,0,0,0,0,0,0,0,0,0,0,0,0],"sum_hessian":[3.548666E4,1.8560566E4,1.6926096E4,4.6170796E3,1.3943486E4,1.5792083E4,1.1340121E3,4.0014297E3,6.1565E2,8.594956E3,5.3485303E3,6.4382007E3,9.353882E3,8.711526E2,2.6285953E2,5.6171686E2,3.439713E3,5.0507547E2,1.1057451E2,1.5083632E3,7.0865933E3,4.4819272E3,8.666033E2,5.323E3,1.1152009E3,8.157124E3,1.1967579E3,7.2214923E2,1.4900333E2,1.8930219E2,7.3557365E1,2.8924017E2,2.7247668E2,2.6210554E3,8.186574E2,1.129682E2,3.9210727E2,9.832406E1,1.2250455E1,1.32672E3,1.8164328E2,5.133281E3,1.9533123E3,5.403718E2,3.9415554E3,5.9737045E1,8.068662E2,4.4191274E3,9.038722E2,1.5025832E2,9.6494257E2,1.6410367E3,6.5160874E3,1.1894254E3,7.332516E0,6.2339874E1,6.598094E2,9.8204346E1,5.0798985E1,7.8336334E1,1.1096584E2,6.734161E1,6.2157483E0],"tree_param":{"num_deleted":"0","num_feature":"11","num_nodes":"63","size_leaf_vector":"1"}},{"base_weights":[-3.684898E-1,-8.1921354E-2,-7.1900225E-1,1.7164357E-1,-1.9125614E-1,-7.667438E-1,-8.676375E-2,2.4158837E-1,-9.046184E-2,-9.021448E-2,-3.9181778E-1,-6.271354E-1,-8.5718966E-1,-3.528522E-1,7.4059254E-1,-1.1796722E-1,2.8313825E-1,-1.5856268E-1,5.0709546E-1,-3.381921E-1,-1.961714E-2,-4.591551E-1,-6.7141294E-2,-6.818768E-1,-3.7215668E-1,-8.943477E-1,-6.091607E-1,-4.705502E-1,1.8911222E-1,8.538883E-1,-5.158369E-1,5.1060952E-2,-1.8517025E-2,-2.6738992E-2,3.0889645E-2,-6.278532E-2,-8.293278E-3,-7.82571E-2,6.2246915E-2,-5.6107093E-2,-2.562314E-2,8.844743E-3,-2.6168156E-2,-3.948922E-2,-7.862522E-2,-4.2566946E-3,-6.301575E-2,-9.3002364E-2,-6.447424E-2,-3.3803437E-2,-7.914878E-2,-7.8040324E-2,-9.232386E-2,-6.152792E-2,2.7816907E-2,-6.563212E-2,-3.7287652E-2,-1.5196149E-2,5.0023135E-2,4.0926922E-2,1.1685578E-1,6.0188424E-2,-6.473632E-2],"categories":[],"categories_nodes":[],"categories_segments":[],"categories_sizes":[],"default_left":[0,0,0,0,0,0,0,0,0,0,0,0,0,0,0,0,0,0,0,0,0,0,0,0,0,0,0,0,0,0,0,0,0,0,0,0,0,0,0,0,0,0,0,0,0,0,0,0,0,0,0,0,0,0,0,0,0,0,0,0,0,0,0],"id":5,"left_children":[1,3,5,7,9,11,13,15,17,19,21,23,25,27,29,31,33,35,37,39,41,43,45,47,49,51,53,55,57,59,61,-1,-1,-1,-1,-1,-1,-1,-1,-1,-1,-1,-1,-1,-1,-1,-1,-1,-1,-1,-1,-1,-1,-1,-1,-1,-1,-1,-1,-1,-1,-1,-1],"loss_changes":[3.4584766E3,5.252547E2,4.6741797E2,1.0467178E2,2.6822778E2,1.8129297E2,2.3990149E2,6.735318E1,4.9041267E1,1.5412413E2,9.692023E1,7.881958E1,7.996826E1,5.2670982E1,3.819368E1,1.9841993E1,5.7367523E1,3.830828E1,1.8837118E1,3.549446E1,1.7931992E2,7.688776E1,1.0527895E1,4.2364258E1,1.4089935E1,2.4282227E1,6.368286E0,1.2047989E1,1.5758814E1,3.3609512E1,3.7061815E0,0E0,0E0,0E0,0E0,0E0,0E0,0E0,0E0,0E0,0E0,0E0,0E0,0E0,0E0,0E0,0E0,0E0,0E0,0E0,0E0,0E0,0E0,0E0,0E0,0E0,0E0,0E0,0E0,0E0,0E0,0E0,0E0],"parents":[2147483647,0,0,1,1,2,2,3,3,4,4,5,5,6,6,7,7,8,8,9,9,10,10,11,11,12,12,13,13,14,14,15,15,16,16,17,17,18,18,19,19,20,20,21,21,22,22,23,23,24,24,25,25,26,26,27,27,28,28,29,29,30,30],"right_children":[2,4,6,8,10,12,14,16,18,20,22,24,26,28,30,32,34,36,38,40,42,44,46,48,50,52,54,56,58,60,62,-1,-1,-1,-1,-1,-1,-1,-1,-1,-1,-1,-1,-1,-1,-1,-1,-1,-1,-1,-1,-1,-1,-1,-1,-1,-1,-1,-1,-1,-1,-1,-1],"split_conditions":[1.6727704E-1,2.5773196E-2,8.833333E-1,1.1239357E-1,1.14288166E-1,2.3110025E-1,3.510692E-1,2E-2,5.425039E-1,4.2857143E-1,5.4868627E-1,5.425039E-1,5.425039E-1,6.4399116E-2,9.228205E-1,2.6942112E-2,1.279194E-1,2.6514617E-1,1E-2,1.5226431E-1,5.714286E-1,8.5353535E-1,7.9761904E-1,1.6666667E-1,8.452381E-1,2.5773196E-2,8.367741E-1,3.2142857E-1,3.800329E-1,4.745209E-1,2.0618556E-2,5.1060952E-2,-1.8517025E-2,-2.6738992E-2,3.0889645E-2,-6.278532E-2,-8.293278E-3,-7.82571E-2,6.2246915E-2,-5.6107093E-2,-2.562314E-2,8.844743E-3,-2.6168156E-2,-3.948922E-2,-7.862522E-2,-4.2566946E-3,-6.301575E-2,-9.3002364E-2,-6.447424E-2,-3.3803437E-2,-7.914878E-2,-7.8040324E-2,-9.232386E-2,-6.152792E-2,2.7816907E-2,-6.563212E-2,-3.7287652E-2,-1.5196149E-2,5.0023135E-2,4.0926922E-2,1.1685578E-1,6.0188424E-2,-6.473632E-2],"split_indices":[2,5,10,2,2,2,2,6,9,1,9,9,9,8,10,2,3,3,6,3,1,0,1,1,1,5,2,1,6,2,5,0,0,0,0,0,0,0,0,0,0,0,0,0,0,0,0,0,0,0,0,0,0,0,0,0,0,0,0,0,0,0,0],"split_type":[0,0,0,0,0,0,0,0,0,0,0,0,0,0,0,0,0,0,0,0,0,0,0,0,0,0,0,0,0,0,0,0,0,0,0,0,0,0,0,0,0,0,0,0,0,0,0,0,0,0,0,0,0,0,0,0,0,0,0,0,0,0,0],"sum_hessian":[3.4430863E4,1.894403E4,1.5486833E4,5.7073013E3,1.3236728E4,1.43993E4,1.0875333E3,4.50515E3,1.202151E3,8.803191E3,4.433536E3,5.6642095E3,8.735091E3,8.233183E2,2.6421506E2,4.6648846E2,4.0386616E3,1.0798247E3,1.2232629E2,1.9499753E3,6.8532163E3,3.6716294E3,7.6190674E2,4.6617095E3,1.00249976E3,7.594693E3,1.1403978E3,6.7653033E2,1.4678795E2,2.4265532E2,2.1559725E1,4.4417835E1,4.2207062E2,1.800945E2,3.8585671E3,1.488544E2,9.3097034E2,9.569145E0,1.1275714E2,5.227053E2,1.42727E3,4.738461E3,2.1147556E3,3.0705803E3,6.010491E2,7.3107446E2,3.0832314E1,6.0367084E2,4.0580388E3,9.2873425E2,7.376555E1,1.5418293E3,6.0528633E3,1.1328938E3,7.5040174E0,2.3115465E2,4.4537567E2,7.026556E1,7.652239E1,1.0151762E2,1.4113771E2,1.8925896E0,1.9667135E1],"tree_param":{"num_deleted":"0","num_feature":"11","num_nodes":"63","size_leaf_vector":"1"}},{"base_weights":[-3.4258196E-1,-8.246332E-2,-6.979148E-1,3.428198E-2,-2.8268322E-1,-7.4667215E-1,-8.189018E-2,2.4678254E-1,-5.7688486E-2,-7.502491E-1,-2.3740721E-1,-7.938771E-1,-4.8062286E-1,-3.4659842E-1,6.356303E-1,1.2477328E0,2.2879075E-1,-8.756014E-2,4.8243302E-1,-7.9460293E-1,-1.7959437E-1,-1.812738E-1,-6.631385E-1,-6.6529685E-1,-8.673891E-1,-3.4815013E-1,-5.654546E-1,-4.4980413E-1,1.8760914E-1,4.1907823E-1,1.1669806E0,-7.0610054E-2,1.4327607E-1,-7.7900956E-3,2.7986009E-2,-2.9757166E-2,-2.169602E-3,3.571273E-2,1.7173733E-1,-8.516267E-2,-4.60598E-2,1.0841079E-1,-2.6625639E-2,5.060118E-3,-2.474179E-2,-7.442146E-2,-7.2730146E-3,-4.924233E-2,-7.1940914E-2,-7.491704E-2,-8.977338E-2,-3.1823244E-2,-7.197353E-2,-3.4988705E-2,-6.046561E-2,-5.1041644E-2,-1.3194374E-2,-1.6223805E-2,4.7514476E-2,4.9447594E-3,8.964424E-2,1.3250592E-1,2.1733115E-3],"categories":[],"categories_nodes":[],"categories_segments":[],"categories_sizes":[],"default_left":[0,0,0,0,0,0,0,0,0,0,0,0,0,0,0,0,0,0,0,0,0,0,0,0,0,0,0,0,0,0,0,0,0,0,0,0,0,0,0,0,0,0,0,0,0,0,0,0,0,0,0,0,0,0,0,0,0,0,0,0,0,0,0],"id":6,"left_children":[1,3,5,7,9,11,13,15,17,19,21,23,25,27,29,31,33,35,37,39,41,43,45,47,49,51,53,55,57,59,61,-1,-1,-1,-1,-1,-1,-1,-1,-1,-1,-1,-1,-1,-1,-1,-1,-1,-1,-1,-1,-1,-1,-1,-1,-1,-1,-1,-1,-1,-1,-1,-1],"loss_changes":[3.0921887E3,4.5153418E2,4.2463525E2,2.3850443E2,1.5043994E2,1.6417041E2,1.974054E2,6.6098694E1,1.3746747E2,1.5743164E1,1.5493307E2,1.0459131E2,2.201941E1,4.193309E1,3.1743546E1,2.4461662E1,5.675801E1,1.116478E2,6.848354E1,1.069342E1,5.386926E0,8.795267E1,3.6106873E1,3.7545776E1,2.4708984E1,8.378761E0,9.958557E0,1.2193787E1,1.2511065E1,3.5348087E1,1.4552811E1,0E0,0E0,0E0,0E0,0E0,0E0,0E0,0E0,0E0,0E0,0E0,0E0,0E0,0E0,0E0,0E0,0E0,0E0,0E0,0E0,0E0,0E0,0E0,0E0,0E0,0E0,0E0,0E0,0E0,0E0,0E0,0E0],"parents":[2147483647,0,0,1,1,2,2,3,3,4,4,5,5,6,6,7,7,8,8,9,9,10,10,11,11,12,12,13,13,14,14,15,15,16,16,17,17,18,18,19,19,20,20,21,21,22,22,23,23,24,24,25,25,26,26,27,27,28,28,29,29,30,30],"right_children":[2,4,6,8,10,12,14,16,18,20,22,24,26,28,30,32,34,36,38,40,42,44,46,48,50,52,54,56,58,60,62,-1,-1,-1,-1,-1,-1,-1,-1,-1,-1,-1,-1,-1,-1,-1,-1,-1,-1,-1,-1,-1,-1,-1,-1,-1,-1,-1,-1,-1,-1,-1,-1],"split_conditions":[1.7248961E-1,1.0346023E-1,8.833333E-1,2.0618556E-2,1.9440012E-1,5.425039E-1,3.4490559E-1,2.120273E-2,1.0696548E-1,6.228748E-1,7.852233E-1,2.3110025E-1,2.226903E-1,7.0228435E-2,4.2791396E-2,8.475066E-2,2.5E-2,4.4047618E-1,8.6333334E-1,2.6190478E-1,6.275116E-1,2.5773196E-2,5.61051E-1,3.0927835E-2,2.5773196E-2,8.452381E-1,3.0927835E-2,5.172282E-1,3.6017358E-1,5.8247787E-1,5.3770345E-1,-7.0610054E-2,1.4327607E-1,-7.7900956E-3,2.7986009E-2,-2.9757166E-2,-2.169602E-3,3.571273E-2,1.7173733E-1,-8.516267E-2,-4.60598E-2,1.0841079E-1,-2.6625639E-2,5.060118E-3,-2.474179E-2,-7.442146E-2,-7.2730146E-3,-4.924233E-2,-7.1940914E-2,-7.491704E-2,-8.977338E-2,-3.1823244E-2,-7.197353E-2,-3.4988705E-2,-6.046561E-2,-5.1041644E-2,-1.3194374E-2,-1.6223805E-2,4.7514476E-2,4.9447594E-3,8.964424E-2,1.3250592E-1,2.1733115E-3],"split_indices":[2,2,10,5,3,9,2,2,8,9,3,2,2,8,8,3,6,1,10,1,9,5,9,5,5,1,5,6,6,2,6,0,0,0,0,0,0,0,0,0,0,0,0,0,0,0,0,0,0,0,0,0,0,0,0,0,0,0,0,0,0,0,0],"split_type":[0,0,0,0,0,0,0,0,0,0,0,0,0,0,0,0,0,0,0,0,0,0,0,0,0,0,0,0,0,0,0,0,0,0,0,0,0,0,0,0,0,0,0,0,0,0,0,0,0,0,0,0,0,0,0,0,0,0,0,0,0,0,0],"sum_hessian":[3.345449E4,1.9315766E4,1.4138723E4,1.2201862E4,7.1139033E3,1.3101542E4,1.0371807E3,3.685267E3,8.516595E3,6.266712E2,6.4872324E3,1.1125554E4,1.9759883E3,7.580416E2,2.7913898E2,6.3864147E1,3.621403E3,8.071061E3,4.455338E2,5.811105E2,4.556068E1,5.732783E3,7.5444904E2,4.05063E3,7.074924E3,7.7338727E2,1.202601E3,6.354386E2,1.2260305E2,1.9958757E2,7.955142E1,5.2806478E0,5.85835E1,5.168668E2,3.1045361E3,1.9260874E3,6.1449736E3,4.056624E2,3.9871376E1,4.950408E2,8.60697E1,2.1845481E0,4.3376133E1,1.2724161E3,4.460367E3,6.631252E2,9.132385E1,9.680614E2,3.0825686E3,1.4503373E3,5.6245864E3,7.1747943E2,5.5907833E1,1.8657605E2,1.0160249E3,5.331618E2,1.02276794E2,5.55036E1,6.709945E1,1.1311021E2,8.6477356E1,6.9764015E1,9.787406E0],"tree_param":{"num_deleted":"0","num_feature":"11","num_nodes":"63","size_leaf_vector":"1"}},{"base_weights":[-3.179794E-1,-7.502535E-2,-6.666535E-1,2.1631613E-2,-2.8008115E-1,-7.156447E-1,-7.539203E-2,2.1713766E-1,-6.1804987E-2,-7.591597E-1,-2.3645782E-1,-7.641056E-1,-4.4978195E-1,-3.211727E-1,5.599945E-1,8.093902E-2,3.1945094E-1,-9.242748E-2,4.2563134E-1,-8.136531E-1,-3.2037228E-1,-1.8175218E-1,-6.5986985E-1,-6.327346E-1,-8.4056956E-1,-3.6681268E-1,-5.8099604E-1,-4.2792034E-1,1.2997577E-1,6.5316105E-1,-5.3347147E-1,-3.452658E-2,1.317893E-2,4.4160627E-2,1.2826941E-2,-3.5012506E-2,-4.1665295E-3,1.1703134E-2,1.0353955E-1,-8.5890464E-2,-6.454584E-2,7.3322535E-2,-4.193127E-2,-2.6107911E-2,-1.9176227E-4,-7.299789E-2,-2.4408346E-2,-5.856633E-2,-8.509376E-2,-7.181491E-2,-8.724063E-2,9.064741E-3,-3.9850432E-2,-5.283726E-2,-7.8496486E-2,-4.7619045E-2,3.6658128E-3,-1.9411428E-2,4.014076E-2,3.567812E-2,9.6336015E-2,4.6571102E-2,-6.555651E-2],"categories":[],"categories_nodes":[],"categories_segments":[],"categories_sizes":[],"default_left":[0,0,0,0,0,0,0,0,0,0,0,0,0,0,0,0,0,0,0,0,0,0,0,0,0,0,0,0,0,0,0,0,0,0,0,0,0,0,0,0,0,0,0,0,0,0,0,0,0,0,0,0,0,0,0,0,0,0,0,0,0,0,0],"id":7,"left_children":[1,3,5,7,9,11,13,15,17,19,21,23,25,27,29,31,33,35,37,39,41,43,45,47,49,51,53,55,57,59,61,-1,-1,-1,-1,-1,-1,-1,-1,-1,-1,-1,-1,-1,-1,-1,-1,-1,-1,-1,-1,-1,-1,-1,-1,-1,-1,-1,-1,-1,-1,-1,-1],"loss_changes":[2.757856E3,3.8031592E2,3.8720605E2,2.1275793E2,1.282897E2,1.5872168E2,1.6011104E2,5.4337906E1,1.3649158E2,1.1994385E1,1.304172E2,1.043501E2,2.0534943E1,3.5650146E1,2.9486214E1,3.6343903E1,5.1961777E1,1.12511406E2,1.0159257E2,2.9094238E0,6.382058E0,7.121626E1,1.8606445E1,3.8997314E1,2.508252E1,1.7003342E1,7.490097E0,1.3426277E1,1.2585812E1,2.3927177E1,3.1120367E0,0E0,0E0,0E0,0E0,0E0,0E0,0E0,0E0,0E0,0E0,0E0,0E0,0E0,0E0,0E0,0E0,0E0,0E0,0E0,0E0,0E0,0E0,0E0,0E0,0E0,0E0,0E0,0E0,0E0,0E0,0E0,0E0],"parents":[2147483647,0,0,1,1,2,2,3,3,4,4,5,5,6,6,7,7,8,8,9,9,10,10,11,11,12,12,13,13,14,14,15,15,16,16,17,17,18,18,19,19,20,20,21,21,22,22,23,23,24,24,25,25,26,26,27,27,28,28,29,29,30,30],"right_children":[2,4,6,8,10,12,14,16,18,20,22,24,26,28,30,32,34,36,38,40,42,44,46,48,50,52,54,56,58,60,62,-1,-1,-1,-1,-1,-1,-1,-1,-1,-1,-1,-1,-1,-1,-1,-1,-1,-1,-1,-1,-1,-1,-1,-1,-1,-1,-1,-1,-1,-1,-1,-1],"split_conditions":[1.7248961E-1,1.1143474E-1,8.833333E-1,2.0618556E-2,1.9440012E-1,5.425039E-1,3.4490559E-1,1.0309278E-2,8.9153844E-1,5.656878E-1,7.619048E-1,2.3110025E-1,2.5658736E-1,6.4399116E-2,9.228205E-1,1E-2,1.54639175E-2,2.6870257E-1,4.642467E-1,2.3809524E-1,4.5E-2,4.603177E-2,5.5641425E-1,8.095238E-1,2.5773196E-2,2.0618556E-2,7.7380955E-1,5.981453E-1,4.4047618E-1,5.097664E-1,2.0618556E-2,-3.452658E-2,1.317893E-2,4.4160627E-2,1.2826941E-2,-3.5012506E-2,-4.1665295E-3,1.1703134E-2,1.0353955E-1,-8.5890464E-2,-6.454584E-2,7.3322535E-2,-4.193127E-2,-2.6107911E-2,-1.9176227E-4,-7.299789E-2,-2.4408346E-2,-5.856633E-2,-8.509376E-2,-7.181491E-2,-8.724063E-2,9.064741E-3,-3.9850432E-2,-5.283726E-2,-7.8496486E-2,-4.7619045E-2,3.6658128E-3,-1.9411428E-2,4.014076E-2,3.567812E-2,9.6336015E-2,4.6571102E-2,-6.555651E-2],"split_indices":[2,2,10,5,3,9,2,5,10,9,1,2,2,8,10,6,5,3,6,1,6,8,9,1,5,5,1,9,4,2,5,0,0,0,0,0,0,0,0,0,0,0,0,0,0,0,0,0,0,0,0,0,0,0,0,0,0,0,0,0,0,0,0],"split_type":[0,0,0,0,0,0,0,0,0,0,0,0,0,0,0,0,0,0,0,0,0,0,0,0,0,0,0,0,0,0,0,0,0,0,0,0,0,0,0,0,0,0,0,0,0,0,0,0,0,0,0,0,0,0,0,0,0,0,0,0,0,0,0],"sum_hessian":[3.2555346E4,1.9187104E4,1.336824E4,1.3040912E4,6.1461924E3,1.2345127E4,1.0231133E3,3.900288E3,9.140624E3,5.1157443E2,5.634618E3,1.0440227E4,1.9049008E3,7.3809784E2,2.8501544E2,1.6738599E3,2.2264282E3,8.601085E3,5.3953845E2,4.5429813E2,5.727632E1,4.9911797E3,6.4343835E2,3.8444502E3,6.5957764E3,1.1693197E3,7.355811E2,5.9691394E2,1.4118391E2,2.6300983E2,2.2005621E1,1.7780087E2,1.496059E3,1.3576461E3,8.6878204E2,1.4144779E3,7.1866074E3,3.590286E2,1.8050983E2,3.5474426E2,9.9553856E1,4.36572E0,5.2910603E1,3.4631086E3,1.528071E3,5.499491E2,9.3489235E1,3.16531E3,6.791402E2,1.3661533E3,5.229623E3,7.5636475E1,1.0936832E3,5.875817E2,1.4799933E2,5.4071075E2,5.620315E1,6.447811E1,7.67058E1,1.3560211E2,1.2740771E2,2.0888054E0,1.9916815E1],"tree_param":{"num_deleted":"0","num_feature":"11","num_nodes":"63","size_leaf_vector":"1"}},{"base_weights":[-2.9468352E-1,-6.823706E-2,-6.3573754E-1,1.0919512E-1,-1.6836539E-1,-6.808869E-1,-1.6288439E-2,9.567605E-1,9.195278E-2,-1.3289188E-1,-5.910248E-1,-7.2924596E-1,-4.2119867E-1,-2.6833203E-1,5.4432446E-1,-4.7099984E-1,1.1111474E0,-1.572086E-1,1.4523293E-1,-5.1449007E-1,-8.661546E-2,-6.6438097E-1,-1.9221546E-2,-6.036708E-1,-8.0798554E-1,-3.0736083E-1,-5.1613533E-1,-3.8308772E-1,2.0192733E-1,6.378588E-1,-4.7597528E-1,-9.009983E-2,7.1060956E-2,1.3171004E-1,-2.828571E-2,-3.5607755E-2,3.5788917E-3,2.1726608E-2,-1.3337048E-2,-7.502524E-2,-3.6779564E-2,8.3893975E-3,-1.6441718E-2,-4.7323596E-2,-7.0673786E-2,-1.3761327E-2,8.479876E-2,-8.638111E-2,-5.6304283E-2,-8.2365036E-2,-2.7123515E-2,-2.7521571E-2,-7.001072E-2,-7.994604E-2,-4.9050182E-2,-2.4901895E-2,-5.7304095E-2,3.7124015E-2,-3.5319585E-2,3.0345151E-2,9.172671E-2,6.626632E-2,-5.727147E-2],"categories":[],"categories_nodes":[],"categories_segments":[],"categories_sizes":[],"default_left":[0,0,0,0,0,0,0,0,0,0,0,0,0,0,0,0,0,0,0,0,0,0,0,0,0,0,0,0,0,0,0,0,0,0,0,0,0,0,0,0,0,0,0,0,0,0,0,0,0,0,0,0,0,0,0,0,0,0,0,0,0,0,0],"id":8,"left_children":[1,3,5,7,9,11,13,15,17,19,21,23,25,27,29,31,33,35,37,39,41,43,45,47,49,51,53,55,57,59,61,-1,-1,-1,-1,-1,-1,-1,-1,-1,-1,-1,-1,-1,-1,-1,-1,-1,-1,-1,-1,-1,-1,-1,-1,-1,-1,-1,-1,-1,-1,-1,-1],"loss_changes":[2.4505037E3,3.3882077E2,3.5408936E2,1.0045676E2,1.8270578E2,1.4789014E2,1.2182567E2,3.0737167E1,8.955219E1,1.9859213E2,3.9569458E1,9.786426E1,1.9887604E1,3.2172577E1,2.582386E1,7.792671E0,3.59709E1,4.5631073E1,1.1154024E2,4.1791046E1,1.331127E2,6.435669E0,1.12382555E1,4.006897E1,5.1153564E1,1.0486725E1,6.941498E0,1.2040375E1,1.1157626E1,2.2648323E1,2.9159737E0,0E0,0E0,0E0,0E0,0E0,0E0,0E0,0E0,0E0,0E0,0E0,0E0,0E0,0E0,0E0,0E0,0E0,0E0,0E0,0E0,0E0,0E0,0E0,0E0,0E0,0E0,0E0,0E0,0E0,0E0,0E0,0E0],"parents":[2147483647,0,0,1,1,2,2,3,3,4,4,5,5,6,6,7,7,8,8,9,9,10,10,11,11,12,12,13,13,14,14,15,15,16,16,17,17,18,18,19,19,20,20,21,21,22,22,23,23,24,24,25,25,26,26,27,27,28,28,29,29,30,30],"right_children":[2,4,6,8,10,12,14,16,18,20,22,24,26,28,30,32,34,36,38,40,42,44,46,48,50,52,54,56,58,60,62,-1,-1,-1,-1,-1,-1,-1,-1,-1,-1,-1,-1,-1,-1,-1,-1,-1,-1,-1,-1,-1,-1,-1,-1,-1,-1,-1,-1,-1,-1,-1,-1],"split_conditions":[1.7248961E-1,6.216599E-2,8.9153844E-1,2.120273E-2,8.072491E-1,5.425039E-1,3.290207E-1,8.475066E-2,2.719177E-1,2.1626413E-1,5.61051E-1,2.3417053E-1,2.3110025E-1,6.4399116E-2,9.228205E-1,9.793814E-2,5.4761904E-1,4.642857E-1,5.714286E-1,2.5E-1,3.0927835E-2,2.0618556E-2,6.2488336E-2,1.6666667E-1,8.7128204E-1,8.452381E-1,1.0205128E-1,2.535659E-1,9.228205E-1,4.745209E-1,3.6420026E-1,-9.009983E-2,7.1060956E-2,1.3171004E-1,-2.828571E-2,-3.5607755E-2,3.5788917E-3,2.1726608E-2,-1.3337048E-2,-7.502524E-2,-3.6779564E-2,8.3893975E-3,-1.6441718E-2,-4.7323596E-2,-7.0673786E-2,-1.3761327E-2,8.479876E-2,-8.638111E-2,-5.6304283E-2,-8.2365036E-2,-2.7123515E-2,-2.7521571E-2,-7.001072E-2,-7.994604E-2,-4.9050182E-2,-2.4901895E-2,-5.7304095E-2,3.7124015E-2,-3.5319585E-2,3.0345151E-2,9.172671E-2,6.626632E-2,-5.727147E-2],"split_indices":[2,2,10,2,3,9,2,3,3,3,9,2,2,8,10,5,1,4,1,1,5,5,8,1,10,1,10,2,10,2,3,0,0,0,0,0,0,0,0,0,0,0,0,0,0,0,0,0,0,0,0,0,0,0,0,0,0,0,0,0,0,0,0],"split_type":[0,0,0,0,0,0,0,0,0,0,0,0,0,0,0,0,0,0,0,0,0,0,0,0,0,0,0,0,0,0,0,0,0,0,0,0,0,0,0,0,0,0,0,0,0,0,0,0,0,0,0,0,0,0,0,0,0,0,0,0,0,0,0],"sum_hessian":[3.1729322E4,1.9069277E4,1.2660046E4,6.8790938E3,1.2190183E4,1.1799894E4,8.6015247E2,1.3606625E2,6.743028E3,1.1247504E4,9.426786E2,9.945952E3,1.8539417E3,5.9373895E2,2.6641348E2,1.3076682E1,1.2298958E2,1.1875505E3,5.555477E3,1.2153677E3,1.0032137E4,8.353487E2,1.07329895E2,3.836353E3,6.1095986E3,8.4498004E2,1.0089616E3,4.7742273E2,1.16316216E2,2.4438564E2,2.2027853E1,9.762388E0,3.3142934E0,1.0720656E2,1.5783016E1,5.84465E2,6.030856E2,4.4143633E3,1.1411136E3,4.6458365E2,7.5078406E2,3.1432756E3,6.888861E3,1.5374318E2,6.816055E2,9.517855E1,1.2151344E1,5.154764E2,3.3208767E3,5.9358276E3,1.7377109E2,7.826276E2,6.235243E1,8.12031E1,9.2775854E2,2.8124008E2,1.9618266E2,8.938638E1,2.6929834E1,1.12195335E2,1.321903E2,1.2660403E0,2.0761812E1],"tree_param":{"num_deleted":"0","num_feature":"11","num_nodes":"63","size_leaf_vector":"1"}},{"base_weights":[-2.72655E-1,-6.203808E-2,-6.051368E-1,1.7184313E-2,-2.499182E-1,-6.5673256E-1,-8.660573E-2,1.824497E-1,-5.4326426E-2,-3.1001747E-1,5.126429E-2,-7.078931E-1,-3.9164093E-1,-3.043728E-1,4.695832E-1,5.7507597E-2,2.7457586E-1,-8.4532544E-2,3.555341E-1,-2.533948E-1,-6.592112E-1,-2.4331345E-3,4.386121E-1,-5.6847966E-1,-7.922457E-1,-2.5378048E-1,-4.6679136E-1,-4.048904E-1,1.0562431E-1,9.7949785E-1,2.2932185E-1,-3.9072465E-2,9.915756E-3,3.7710134E-2,1.1203649E-2,-1.3292581E-2,1.7166374E-2,7.1392395E-3,8.1188016E-2,-6.487945E-2,-1.9425318E-2,-5.6650925E-2,-8.136742E-2,-6.590127E-2,2.205823E-3,6.760844E-2,7.4793696E-3,-5.185451E-2,-8.040195E-2,-6.591334E-2,-8.274399E-2,-2.2690354E-2,-6.3759506E-2,-2.4980623E-2,-5.072516E-2,-4.519669E-2,2.1921543E-3,-1.9927414E-2,3.820193E-2,3.3267522E-1,8.501564E-2,3.3540092E-2,-3.0906457E-2],"categories":[],"categories_nodes":[],"categories_segments":[],"categories_sizes":[],"default_left":[0,0,0,0,0,0,0,0,0,0,0,0,0,0,0,0,0,0,0,0,0,0,0,0,0,0,0,0,0,0,0,0,0,0,0,0,0,0,0,0,0,0,0,0,0,0,0,0,0,0,0,0,0,0,0,0,0,0,0,0,0,0,0],"id":9,"left_children":[1,3,5,7,9,11,13,15,17,19,21,23,25,27,29,31,33,35,37,39,41,43,45,47,49,51,53,55,57,59,61,-1,-1,-1,-1,-1,-1,-1,-1,-1,-1,-1,-1,-1,-1,-1,-1,-1,-1,-1,-1,-1,-1,-1,-1,-1,-1,-1,-1,-1,-1,-1,-1],"loss_changes":[2.1689448E3,2.822574E2,3.213042E2,1.5766075E2,1.01824615E2,1.4788232E2,1.3194499E2,4.6359848E1,1.1530967E2,9.254462E1,1.9480183E1,1.0722217E2,1.821347E1,3.2296402E1,3.7333786E1,3.1985298E1,3.859874E1,1.0755496E2,8.284166E1,9.42626E1,8.896881E0,1.32569685E1,9.80018E0,4.021875E1,2.6165283E1,6.317112E0,9.91629E0,1.2643425E1,1.312885E1,2.6884117E1,1.2079722E1,0E0,0E0,0E0,0E0,0E0,0E0,0E0,0E0,0E0,0E0,0E0,0E0,0E0,0E0,0E0,0E0,0E0,0E0,0E0,0E0,0E0,0E0,0E0,0E0,0E0,0E0,0E0,0E0,0E0,0E0,0E0,0E0],"parents":[2147483647,0,0,1,1,2,2,3,3,4,4,5,5,6,6,7,7,8,8,9,9,10,10,11,11,12,12,13,13,14,14,15,15,16,16,17,17,18,18,19,19,20,20,21,21,22,22,23,23,24,24,25,25,26,26,27,27,28,28,29,29,30,30],"right_children":[2,4,6,8,10,12,14,16,18,20,22,24,26,28,30,32,34,36,38,40,42,44,46,48,50,52,54,56,58,60,62,-1,-1,-1,-1,-1,-1,-1,-1,-1,-1,-1,-1,-1,-1,-1,-1,-1,-1,-1,-1,-1,-1,-1,-1,-1,-1,-1,-1,-1,-1,-1,-1],"split_conditions":[1.7248961E-1,1.14288166E-1,8.751282E-1,2.0618556E-2,5.425039E-1,5.425039E-1,3.4490559E-1,1.0309278E-2,8.833333E-1,8.5353535E-1,4.2791396E-2,2.3110025E-1,2.1606232E-1,6.4399116E-2,3.6082473E-2,2.0238096E-1,1.54639175E-2,5.425039E-1,4.0635577E-1,1.4141414E-1,8.939394E-1,1.6141447E-1,2.5223997E-1,8.095238E-1,2.5773196E-2,8.2828283E-1,3.0927835E-2,5.981453E-1,3.748333E-1,8.833333E-1,9.205128E-1,-3.9072465E-2,9.915756E-3,3.7710134E-2,1.1203649E-2,-1.3292581E-2,1.7166374E-2,7.1392395E-3,8.1188016E-2,-6.487945E-2,-1.9425318E-2,-5.6650925E-2,-8.136742E-2,-6.590127E-2,2.205823E-3,6.760844E-2,7.4793696E-3,-5.185451E-2,-8.040195E-2,-6.591334E-2,-8.274399E-2,-2.2690354E-2,-6.3759506E-2,-2.4980623E-2,-5.072516E-2,-4.519669E-2,2.1921543E-3,-1.9927414E-2,3.820193E-2,3.3267522E-1,8.501564E-2,3.3540092E-2,-3.0906457E-2],"split_indices":[2,2,10,5,9,9,2,5,10,0,8,2,2,8,5,4,5,9,6,0,0,3,6,1,5,0,5,9,6,10,10,0,0,0,0,0,0,0,0,0,0,0,0,0,0,0,0,0,0,0,0,0,0,0,0,0,0,0,0,0,0,0,0],"split_type":[0,0,0,0,0,0,0,0,0,0,0,0,0,0,0,0,0,0,0,0,0,0,0,0,0,0,0,0,0,0,0,0,0,0,0,0,0,0,0,0,0,0,0,0,0,0,0,0,0,0,0,0,0,0,0,0,0,0,0,0,0,0,0],"sum_hessian":[3.0972832E4,1.8962111E4,1.201072E4,1.33386E4,5.623512E3,1.0923521E4,1.0871986E3,4.0280378E3,9.310562E3,4.688018E3,9.354939E2,9.155006E3,1.7685155E3,7.816215E2,3.0557712E2,1.7102377E3,2.3178003E3,8.672228E3,6.3833417E2,4.035397E3,6.526213E2,8.224676E2,1.1302627E2,3.454064E3,5.7009414E3,6.254828E2,1.1430327E3,6.2773645E2,1.538851E2,9.6881454E1,2.0869566E2,1.446904E2,1.5655472E3,1.4204758E3,8.9732434E2,7.2947896E3,1.3774376E3,3.9410513E2,2.4422905E2,5.2375745E2,3.5116396E3,4.1076926E2,2.41852E2,2.8645817E1,7.938218E2,6.786697E1,4.51593E1,2.8525315E3,6.015324E2,1.1962416E3,4.5047E3,5.860387E2,3.9444073E1,1.8077081E2,9.6226196E2,5.6532556E2,6.2410854E1,7.330066E1,8.058445E1,3.7682283E0,9.311323E1,1.7466087E2,3.4034798E1],"tree_param":{"num_deleted":"0","num_feature":"11","num_nodes":"63","size_leaf_vector":"1"}},{"base_weights":[-2.518819E-1,-6.53742E-2,-5.918791E-1,1.11282595E-1,-1.452421E-1,-6.4549196E-1,-8.200184E-2,-3.7197155E-1,1.349347E-1,-6.015329E-2,-3.0997396E-1,-6.977322E-1,-3.8013226E-1,-2.7610177E-1,4.871396E-1,-4.9353164E-2,-7.690932E-1,9.411048E-2,3.9940488E-1,-8.930896E-2,3.176382E-1,-3.7272626E-1,-3.5582967E-2,-5.858058E-1,-7.782099E-1,-3.471397E-1,-6.627756E-1,-4.3825677E-1,1.0517863E-1,9.4214815E-1,2.6317763E-1,-9.432695E-3,1.901503E-1,-8.479891E-2,2.6072047E-3,1.3715764E-2,-2.4483519E-2,2.9640142E-2,8.2717426E-2,-1.37726655E-2,1.5283666E-2,2.2003176E-2,1.230649E-1,-3.1746726E-2,-6.857697E-2,-2.3659376E-2,1.9955342E-3,-8.47604E-2,-5.471268E-2,-6.422712E-2,-8.150796E-2,-6.263193E-2,-3.0631457E-2,-6.9726996E-2,2.9307911E-2,-3.1306237E-2,-5.6319058E-2,6.641229E-2,-7.0994473E-3,2.7356806E-1,8.278879E-2,-5.406524E-2,3.5275668E-2],"categories":[],"categories_nodes":[],"categories_segments":[],"categories_sizes":[],"default_left":[0,0,0,0,0,0,0,0,0,0,0,0,0,0,0,0,0,0,0,0,0,0,0,0,0,0,0,0,0,0,0,0,0,0,0,0,0,0,0,0,0,0,0,0,0,0,0,0,0,0,0,0,0,0,0,0,0,0,0,0,0,0,0],"id":10,"left_children":[1,3,5,7,9,11,13,15,17,19,21,23,25,27,29,31,33,35,37,39,41,43,45,47,49,51,53,55,57,59,61,-1,-1,-1,-1,-1,-1,-1,-1,-1,-1,-1,-1,-1,-1,-1,-1,-1,-1,-1,-1,-1,-1,-1,-1,-1,-1,-1,-1,-1,-1,-1,-1],"loss_changes":[1.9200392E3,2.759135E2,2.9315112E2,6.96442E1,1.8874106E2,1.3427222E2,1.1299739E2,3.6393528E1,6.2641426E1,9.785216E1,7.895975E1,7.257422E1,1.46757965E1,4.718799E1,2.6264256E1,1.403739E1,8.015022E0,7.343018E1,3.394512E1,9.669427E1,5.6450577E1,6.435138E1,9.547653E0,3.3916016E1,2.3098389E1,1.61465E1,5.677765E0,8.193275E0,2.2530666E1,1.5239189E1,1.284539E1,0E0,0E0,0E0,0E0,0E0,0E0,0E0,0E0,0E0,0E0,0E0,0E0,0E0,0E0,0E0,0E0,0E0,0E0,0E0,0E0,0E0,0E0,0E0,0E0,0E0,0E0,0E0,0E0,0E0,0E0,0E0,0E0],"parents":[2147483647,0,0,1,1,2,2,3,3,4,4,5,5,6,6,7,7,8,8,9,9,10,10,11,11,12,12,13,13,14,14,15,15,16,16,17,17,18,18,19,19,20,20,21,21,22,22,23,23,24,24,25,25,26,26,27,27,28,28,29,29,30,30],"right_children":[2,4,6,8,10,12,14,16,18,20,22,24,26,28,30,32,34,36,38,40,42,44,46,48,50,52,54,56,58,60,62,-1,-1,-1,-1,-1,-1,-1,-1,-1,-1,-1,-1,-1,-1,-1,-1,-1,-1,-1,-1,-1,-1,-1,-1,-1,-1,-1,-1,-1,-1,-1,-1],"split_conditions":[1.8143086E-1,2.5773196E-2,8.751282E-1,1E-2,1.18444994E-1,5.425039E-1,3.928155E-1,6.3811764E-2,5.425039E-1,8.833333E-1,5.4868627E-1,2.4607688E-1,8.333333E-1,3.6503425E-1,3.6082473E-2,9.228205E-1,1.0309278E-2,7.555838E-1,6.1056876E-1,5.425039E-1,8.5900575E-2,8.484849E-1,2.3179488E-1,1.5476191E-1,2.5773196E-2,1.904762E-1,5.917136E-1,2.5792503E-1,4.1237112E-2,8.833333E-1,5.394127E-1,-9.432695E-3,1.901503E-1,-8.479891E-2,2.6072047E-3,1.3715764E-2,-2.4483519E-2,2.9640142E-2,8.2717426E-2,-1.37726655E-2,1.5283666E-2,2.2003176E-2,1.230649E-1,-3.1746726E-2,-6.857697E-2,-2.3659376E-2,1.9955342E-3,-8.47604E-2,-5.471268E-2,-6.422712E-2,-8.150796E-2,-6.263193E-2,-3.0631457E-2,-6.9726996E-2,2.9307911E-2,-3.1306237E-2,-5.6319058E-2,6.641229E-2,-7.0994473E-3,2.7356806E-1,8.278879E-2,-5.406524E-2,3.5275668E-2],"split_indices":[2,5,10,6,2,9,2,2,9,10,9,2,1,6,5,10,5,3,7,9,8,0,10,1,5,1,6,2,5,10,9,0,0,0,0,0,0,0,0,0,0,0,0,0,0,0,0,0,0,0,0,0,0,0,0,0,0,0,0,0,0,0,0],"split_type":[0,0,0,0,0,0,0,0,0,0,0,0,0,0,0,0,0,0,0,0,0,0,0,0,0,0,0,0,0,0,0,0,0,0,0,0,0,0,0,0,0,0,0,0,0,0,0,0,0,0,0,0,0,0,0,0,0,0,0,0,0,0,0],"sum_hessian":[3.0278375E4,1.9553416E4,1.0724959E4,6.0877485E3,1.3465668E4,9.704299E3,1.02066E3,2.833635E2,5.8043853E3,8.880171E3,4.5854966E3,8.1067285E3,1.5975708E3,7.614812E2,2.5917877E2,1.5696953E2,1.26393974E2,5.029396E3,7.7498914E2,8.244664E3,6.3550726E2,3.7317056E3,8.53791E2,3.3943042E3,4.712424E3,1.4325795E3,1.649914E2,5.3416077E2,2.273204E2,8.443226E1,1.7474652E2,1.543631E2,2.6064272E0,1.1492591E2,1.1468058E1,4.463159E3,5.662367E2,6.2595856E2,1.4903062E2,6.8711865E3,1.3734774E3,5.7525146E2,6.025582E1,3.173526E3,5.581796E2,1.8412871E2,6.696623E2,4.342371E2,2.9600671E3,1.0093579E3,3.7030662E3,1.8093083E2,1.2516486E3,1.5950677E2,5.484626E0,2.6855728E2,2.656035E2,5.3815617E1,1.7350479E2,3.682177E0,8.0750084E1,1.701522E1,1.5773131E2],"tree_param":{"num_deleted":"0","num_feature":"11","num_nodes":"63","size_leaf_vector":"1"}},{"base_weights":[-2.3232774E-1,-6.2070247E-2,-5.6770355E-1,9.00528E-2,-1.4735913E-1,-6.23211E-1,-8.3830915E-2,-1.7042924E-1,1.3305236E-1,-1.1528668E-1,-5.4394555E-1,-6.756764E-1,-3.633153E-1,-2.3032425E-1,5.975463E-1,-2.3094209E-1,2.5024366E-1,2.0881318E-1,-6.9629975E-2,-4.2888623E-1,-6.544068E-2,-6.1006045E-1,-6.966134E-2,-5.627542E-1,-7.5422275E-1,-2.9346952E-1,-4.8279473E-1,-4.160954E-1,1.743017E-1,1.0438656E0,3.440297E-1,-4.304051E-2,-1.1710833E-2,-3.865489E-2,4.5536105E-2,6.2309932E-2,1.5527785E-2,7.1053687E-3,-2.3465361E-2,-5.2334215E-2,-3.7497227E-4,-9.55622E-3,3.4948964E-2,-4.1921075E-2,-6.527374E-2,-1.0592918E-2,1.6144226E-1,-5.2438315E-2,-8.5053094E-2,-7.076933E-2,-8.817012E-2,-2.753777E-3,-3.3745643E-2,-4.240605E-2,-8.1497274E-2,-4.872063E-2,-1.7340494E-2,3.1666372E-2,-4.7689777E-2,2.7913603E-1,8.6592235E-2,-4.6795376E-2,4.7810636E-2],"categories":[],"categories_nodes":[],"categories_segments":[],"categories_sizes":[],"default_left":[0,0,0,0,0,0,0,0,0,0,0,0,0,0,0,0,0,0,0,0,0,0,0,0,0,0,0,0,0,0,0,0,0,0,0,0,0,0,0,0,0,0,0,0,0,0,0,0,0,0,0,0,0,0,0,0,0,0,0,0,0,0,0],"id":11,"left_children":[1,3,5,7,9,11,13,15,17,19,21,23,25,27,29,31,33,35,37,39,41,43,45,47,49,51,53,55,57,59,61,-1,-1,-1,-1,-1,-1,-1,-1,-1,-1,-1,-1,-1,-1,-1,-1,-1,-1,-1,-1,-1,-1,-1,-1,-1,-1,-1,-1,-1,-1,-1,-1],"loss_changes":[1.6926376E3,2.5513272E2,2.6803833E2,7.914983E1,1.601991E2,1.21849365E2,1.0278549E2,2.5549335E1,9.313195E1,1.8221025E2,2.95094E1,6.564502E1,1.2426605E1,6.3748516E1,2.0260696E1,1.983876E1,1.6687511E1,9.780974E1,3.834023E1,6.419733E1,1.2577342E2,6.4612427E0,7.2810698E0,3.3339783E1,2.5415527E1,1.1138794E1,1.0463699E1,9.939346E0,2.492669E1,1.795501E1,1.3039815E1,0E0,0E0,0E0,0E0,0E0,0E0,0E0,0E0,0E0,0E0,0E0,0E0,0E0,0E0,0E0,0E0,0E0,0E0,0E0,0E0,0E0,0E0,0E0,0E0,0E0,0E0,0E0,0E0,0E0,0E0,0E0,0E0],"parents":[2147483647,0,0,1,1,2,2,3,3,4,4,5,5,6,6,7,7,8,8,9,9,10,10,11,11,12,12,13,13,14,14,15,15,16,16,17,17,18,18,19,19,20,20,21,21,22,22,23,23,24,24,25,25,26,26,27,27,28,28,29,29,30,30],"right_children":[2,4,6,8,10,12,14,16,18,20,22,24,26,28,30,32,34,36,38,40,42,44,46,48,50,52,54,56,58,60,62,-1,-1,-1,-1,-1,-1,-1,-1,-1,-1,-1,-1,-1,-1,-1,-1,-1,-1,-1,-1,-1,-1,-1,-1,-1,-1,-1,-1,-1,-1,-1,-1],"split_conditions":[1.843423E-1,6.360819E-2,8.7128204E-1,2.3435801E-1,8.072491E-1,5.425039E-1,4.745209E-1,5.703246E-1,5.595238E-1,3.0952382E-1,5.61051E-1,2.4607688E-1,2.646701E-1,3.6503425E-1,3.6082473E-2,2.0192724E-2,2.9761904E-1,3.1804096E-2,5.595238E-1,5.4868627E-1,8.833333E-1,2.0618556E-2,1.8032673E-1,8.6904764E-1,3.3199105E-1,3.0927835E-2,8.095238E-1,4.118323E-2,9.228205E-1,8.833333E-1,5.394127E-1,-4.304051E-2,-1.1710833E-2,-3.865489E-2,4.5536105E-2,6.2309932E-2,1.5527785E-2,7.1053687E-3,-2.3465361E-2,-5.2334215E-2,-3.7497227E-4,-9.55622E-3,3.4948964E-2,-4.1921075E-2,-6.527374E-2,-1.0592918E-2,1.6144226E-1,-5.2438315E-2,-8.5053094E-2,-7.076933E-2,-8.817012E-2,-2.753777E-3,-3.3745643E-2,-4.240605E-2,-8.1497274E-2,-4.872063E-2,-1.7340494E-2,3.1666372E-2,-4.7689777E-2,2.7913603E-1,8.6592235E-2,-4.6795376E-2,4.7810636E-2],"split_indices":[2,2,10,3,3,9,2,9,1,1,9,2,2,6,5,8,4,2,4,9,10,5,8,1,2,5,1,8,10,10,9,0,0,0,0,0,0,0,0,0,0,0,0,0,0,0,0,0,0,0,0,0,0,0,0,0,0,0,0,0,0,0,0],"split_type":[0,0,0,0,0,0,0,0,0,0,0,0,0,0,0,0,0,0,0,0,0,0,0,0,0,0,0,0,0,0,0,0,0,0,0,0,0,0,0,0,0,0,0,0,0,0,0,0,0,0,0,0,0,0,0,0,0,0,0,0,0,0,0],"sum_hessian":[2.9642889E4,1.9662285E4,9.980604E3,7.0635396E3,1.2598745E4,8.953242E3,1.0273619E3,1.00039264E3,6.063147E3,1.1657298E4,9.4144745E2,7.448086E3,1.505156E3,8.4611426E2,1.812477E2,8.749819E2,1.2541077E2,4.413424E3,1.6497228E3,1.5977347E3,1.0059563E4,8.260134E2,1.15434006E2,3.0587898E3,4.389296E3,9.520608E2,5.530952E2,5.798628E2,2.662515E2,6.452649E1,1.167212E2,3.169037E2,5.580782E2,3.0337563E1,9.5073204E1,5.0383224E2,3.9095918E3,8.908398E2,7.58883E2,1.3070941E3,2.9064066E2,9.379442E3,6.801207E2,1.5293605E2,6.7307733E2,1.13918396E2,1.5156122E0,2.7014182E3,3.573717E2,3.2204114E3,1.1688845E3,1.3536047E2,8.167003E2,4.7193018E2,8.1165016E1,4.47677E2,1.3218579E2,2.1890977E2,4.7341713E1,4.605514E0,5.9920975E1,1.6187885E1,1.0053332E2],"tree_param":{"num_deleted":"0","num_feature":"11","num_nodes":"63","size_leaf_vector":"1"}},{"base_weights":[-2.1398523E-1,-5.638939E-2,-5.382564E-1,-1.591636E-2,-3.3656508E-1,-5.8546007E-1,1.5661977E-3,-2.2597945E-1,7.072391E-2,-4.199724E-1,2.6982782E-2,-6.359079E-1,-3.3945584E-1,-2.1258596E-1,3.8587326E-1,-4.7763848E-1,-1.5964618E-1,2.6558759E-2,2.6213318E-1,-3.2622182E-1,-6.1027986E-1,4.4000268E-1,-8.5455514E-2,-5.162168E-1,-7.000726E-1,-7.028943E-1,-3.158434E-1,-3.480959E-1,1.1618466E-1,4.6293673E-1,-4.7796616E-1,-3.5400406E-2,-7.5650945E-2,-2.2902435E-2,4.058433E-3,8.40692E-3,-9.928031E-3,2.1421066E-2,9.2732415E-2,-4.2683724E-2,-1.4542301E-2,6.349063E-2,-6.170069E-2,-8.99696E-2,5.0079595E-2,-3.5913568E-2,-2.222094E-3,-4.788116E-2,-8.2753465E-2,-7.1692996E-2,-2.3157783E-2,-8.1496984E-2,-3.0880352E-2,-2.8185505E-2,-5.946337E-2,-1.9976282E-2,-5.2939504E-2,3.8346976E-2,-5.3488005E-2,1.401596E-1,3.8752045E-2,6.762334E-2,-5.7555377E-2],"categories":[],"categories_nodes":[],"categories_segments":[],"categories_sizes":[],"default_left":[0,0,0,0,0,0,0,0,0,0,0,0,0,0,0,0,0,0,0,0,0,0,0,0,0,0,0,0,0,0,0,0,0,0,0,0,0,0,0,0,0,0,0,0,0,0,0,0,0,0,0,0,0,0,0,0,0,0,0,0,0,0,0],"id":12,"left_children":[1,3,5,7,9,11,13,15,17,19,21,23,25,27,29,31,33,35,37,39,41,43,45,47,49,51,53,55,57,59,61,-1,-1,-1,-1,-1,-1,-1,-1,-1,-1,-1,-1,-1,-1,-1,-1,-1,-1,-1,-1,-1,-1,-1,-1,-1,-1,-1,-1,-1,-1,-1,-1],"loss_changes":[1.4853267E3,2.2180382E2,2.4222559E2,3.1110272E2,7.487634E1,1.0826807E2,6.307261E1,8.324786E1,1.0230058E2,3.56304E1,2.147768E1,5.533789E1,1.2561081E1,2.196617E1,1.8477379E1,3.5613068E1,5.490596E1,7.118088E1,7.212407E1,2.4451965E1,5.9340515E0,8.50943E0,6.286169E0,2.9122253E1,3.7100098E1,3.725071E0,1.3103439E1,9.272289E0,2.5331306E1,1.7314407E1,2.9743257E0,0E0,0E0,0E0,0E0,0E0,0E0,0E0,0E0,0E0,0E0,0E0,0E0,0E0,0E0,0E0,0E0,0E0,0E0,0E0,0E0,0E0,0E0,0E0,0E0,0E0,0E0,0E0,0E0,0E0,0E0,0E0,0E0],"parents":[2147483647,0,0,1,1,2,2,3,3,4,4,5,5,6,6,7,7,8,8,9,9,10,10,11,11,12,12,13,13,14,14,15,15,16,16,17,17,18,18,19,19,20,20,21,21,22,22,23,23,24,24,25,25,26,26,27,27,28,28,29,29,30,30],"right_children":[2,4,6,8,10,12,14,16,18,20,22,24,26,28,30,32,34,36,38,40,42,44,46,48,50,52,54,56,58,60,62,-1,-1,-1,-1,-1,-1,-1,-1,-1,-1,-1,-1,-1,-1,-1,-1,-1,-1,-1,-1,-1,-1,-1,-1,-1,-1,-1,-1,-1,-1,-1,-1],"split_conditions":[1.843423E-1,6.547619E-1,8.9153844E-1,4.2857143E-1,5.425039E-1,5.425039E-1,3.290207E-1,1.6141447E-1,7.999002E-2,8.221923E-1,3.6082473E-2,2.3417053E-1,1.5476191E-1,3.800329E-1,9.228205E-1,1.1707508E-1,5.902111E-2,5.595238E-1,8.833333E-1,4.7188476E-2,4.064915E-1,1E-2,2.0923077E-1,7.7443725E-1,8.7128204E-1,1.4432989E-1,8.333333E-1,2.5792503E-1,9.228205E-1,8.3333336E-2,3.6420026E-1,-3.5400406E-2,-7.5650945E-2,-2.2902435E-2,4.058433E-3,8.40692E-3,-9.928031E-3,2.1421066E-2,9.2732415E-2,-4.2683724E-2,-1.4542301E-2,6.349063E-2,-6.170069E-2,-8.99696E-2,5.0079595E-2,-3.5913568E-2,-2.222094E-3,-4.788116E-2,-8.2753465E-2,-7.1692996E-2,-2.3157783E-2,-8.1496984E-2,-3.0880352E-2,-2.8185505E-2,-5.946337E-2,-1.9976282E-2,-5.2939504E-2,3.8346976E-2,-5.3488005E-2,1.401596E-1,3.8752045E-2,6.762334E-2,-5.7555377E-2],"split_indices":[2,1,10,1,9,9,2,3,8,3,5,2,1,6,10,2,8,1,10,8,9,6,10,3,10,5,1,2,10,1,3,0,0,0,0,0,0,0,0,0,0,0,0,0,0,0,0,0,0,0,0,0,0,0,0,0,0,0,0,0,0,0,0],"split_type":[0,0,0,0,0,0,0,0,0,0,0,0,0,0,0,0,0,0,0,0,0,0,0,0,0,0,0,0,0,0,0,0,0,0,0,0,0,0,0,0,0,0,0,0,0,0,0,0,0,0,0,0,0,0,0,0,0,0,0,0,0,0,0],"sum_hessian":[2.9064516E4,1.9559684E4,9.504833E3,1.709174E4,2.4679426E3,8.740459E3,7.643738E2,4.9904883E3,1.2101252E4,2.0072701E3,4.6067245E2,7.2517593E3,1.4886996E3,4.9113617E2,2.7323764E2,1.0397205E3,3.950768E3,9.833456E3,2.267796E3,1.3466123E3,6.6065784E2,9.7953865E1,3.627186E2,2.5339897E3,4.7177695E3,8.90621E1,1.3996375E3,3.477484E2,1.4338777E2,2.5128558E2,2.1952038E1,7.2193243E2,3.17788E2,2.9340173E3,1.01675073E3,6.749272E3,3.0841838E3,2.1166304E3,1.5116548E2,8.642736E2,4.8233865E2,3.0474153E0,6.576105E2,3.6523116E0,9.430155E1,6.7196396E1,2.955222E2,2.2644539E3,2.6953583E2,4.5533975E3,1.6437184E2,6.850845E1,2.0553652E1,1.2493403E3,1.5029707E2,1.9242218E2,1.5532622E2,1.01947334E2,4.1440445E1,1.7379215E1,2.3390637E2,1.2482964E0,2.0703741E1],"tree_param":{"num_deleted":"0","num_feature":"11","num_nodes":"63","size_leaf_vector":"1"}},{"base_weights":[-1.9684435E-1,-5.123624E-2,-5.092032E-1,9.6021585E-2,-1.1932945E-1,-5.637289E-1,-7.0498206E-2,-1.9362187E-1,1.2922318E-1,8.149045E-2,-1.6804631E-1,-6.174276E-1,-3.1258112E-1,-1.998824E-1,5.052921E-1,-5.371104E-1,-6.0439885E-2,-4.716214E-2,1.8767501E-1,1.2709981E-1,-2.6704407E-1,-2.1395503E-1,4.7293395E-2,-5.3887385E-1,-7.4400413E-1,-2.3688574E-1,-4.206469E-1,-3.65112E-1,1.6436818E-1,9.0568817E-1,2.787637E-1,7.5852714E-4,-7.40112E-2,2.8504445E-3,-3.655956E-2,-3.439584E-2,2.531277E-2,2.6334947E-2,-1.3140758E-3,-1.2793069E-2,2.1755759E-2,1.2888917E-1,-2.9561305E-2,-1.8172104E-2,-5.6315698E-2,6.5044723E-3,-2.3641892E-2,-3.6808398E-2,-5.9683688E-2,-6.882266E-2,-8.682791E-2,1.8108578E-2,-2.6760424E-2,-4.2931244E-2,1.00874856E-1,-4.1861326E-2,-9.928205E-4,6.9437146E-2,-8.613928E-4,2.2096513E-1,7.51217E-2,4.129645E-2,-3.804318E-2],"categories":[],"categories_nodes":[],"categories_segments":[],"categories_sizes":[],"default_left":[0,0,0,0,0,0,0,0,0,0,0,0,0,0,0,0,0,0,0,0,0,0,0,0,0,0,0,0,0,0,0,0,0,0,0,0,0,0,0,0,0,0,0,0,0,0,0,0,0,0,0,0,0,0,0,0,0,0,0,0,0,0,0],"id":13,"left_children":[1,3,5,7,9,11,13,15,17,19,21,23,25,27,29,31,33,35,37,39,41,43,45,47,49,51,53,55,57,59,61,-1,-1,-1,-1,-1,-1,-1,-1,-1,-1,-1,-1,-1,-1,-1,-1,-1,-1,-1,-1,-1,-1,-1,-1,-1,-1,-1,-1,-1,-1,-1,-1],"loss_changes":[1.2977255E3,1.9516628E2,2.1696631E2,5.9210457E1,1.3021922E2,1.08625244E2,7.489888E1,2.8939554E1,5.694281E1,4.1348022E1,1.0589859E2,6.568457E1,1.1542908E1,4.944367E1,1.6480625E1,1.955848E1,1.2428326E1,1.2265913E2,6.303755E1,5.3062267E1,1.3762831E1,9.927698E1,9.498678E0,4.041577E1,1.7025757E1,1.0825226E1,7.6788177E0,1.0727928E1,2.3545021E1,1.1675331E1,1.0709172E1,0E0,0E0,0E0,0E0,0E0,0E0,0E0,0E0,0E0,0E0,0E0,0E0,0E0,0E0,0E0,0E0,0E0,0E0,0E0,0E0,0E0,0E0,0E0,0E0,0E0,0E0,0E0,0E0,0E0,0E0,0E0,0E0],"parents":[2147483647,0,0,1,1,2,2,3,3,4,4,5,5,6,6,7,7,8,8,9,9,10,10,11,11,12,12,13,13,14,14,15,15,16,16,17,17,18,18,19,19,20,20,21,21,22,22,23,23,24,24,25,25,26,26,27,27,28,28,29,29,30,30],"right_children":[2,4,6,8,10,12,14,16,18,20,22,24,26,28,30,32,34,36,38,40,42,44,46,48,50,52,54,56,58,60,62,-1,-1,-1,-1,-1,-1,-1,-1,-1,-1,-1,-1,-1,-1,-1,-1,-1,-1,-1,-1,-1,-1,-1,-1,-1,-1,-1,-1,-1,-1,-1,-1],"split_conditions":[1.843423E-1,2.5773196E-2,8.7128204E-1,2.236068E-2,5.0040066E-2,5.425039E-1,4.745209E-1,5.154639E-3,3.0952382E-1,7.8958344E-1,5.425039E-1,2.8396314E-1,2.5658736E-1,3.800329E-1,3.6082473E-2,4.8755884E-2,5.595238E-1,4.8809522E-1,6.431629E-1,4.5238096E-1,5.4761904E-1,7.8958344E-1,7.619048E-1,3.0927835E-2,3.510692E-1,2.0618556E-2,8.484849E-1,6.624422E-2,4.1237112E-2,8.833333E-1,9.205128E-1,7.5852714E-4,-7.40112E-2,2.8504445E-3,-3.655956E-2,-3.439584E-2,2.531277E-2,2.6334947E-2,-1.3140758E-3,-1.2793069E-2,2.1755759E-2,1.2888917E-1,-2.9561305E-2,-1.8172104E-2,-5.6315698E-2,6.5044723E-3,-2.3641892E-2,-3.6808398E-2,-5.9683688E-2,-6.882266E-2,-8.682791E-2,1.8108578E-2,-2.6760424E-2,-4.2931244E-2,1.00874856E-1,-4.1861326E-2,-9.928205E-4,6.9437146E-2,-8.613928E-4,2.2096513E-1,7.51217E-2,4.129645E-2,-3.804318E-2],"split_indices":[2,5,10,6,2,9,2,5,4,3,9,2,2,6,5,2,4,1,3,1,1,3,1,5,2,5,0,8,5,10,10,0,0,0,0,0,0,0,0,0,0,0,0,0,0,0,0,0,0,0,0,0,0,0,0,0,0,0,0,0,0,0,0],"split_type":[0,0,0,0,0,0,0,0,0,0,0,0,0,0,0,0,0,0,0,0,0,0,0,0,0,0,0,0,0,0,0,0,0,0,0,0,0,0,0,0,0,0,0,0,0,0,0,0,0,0,0,0,0,0,0,0,0,0,0,0,0,0,0],"sum_hessian":[2.853233E4,1.9461426E4,9.070904E3,6.153498E3,1.3307929E4,8.067877E3,1.00302716E3,6.3232983E2,5.5211685E3,2.5979607E3,1.0709968E4,6.6455166E3,1.4223605E3,8.1952795E2,1.834992E2,1.7582379E2,4.5650604E2,1.3742831E3,4.1468853E3,2.2978953E3,3.000653E2,8.827934E3,1.8820344E3,4.1038936E3,2.541623E3,8.383407E2,5.840197E2,5.637863E2,2.5574165E2,6.5219376E1,1.1827983E2,4.799659E1,1.278272E2,3.5417676E2,1.02329285E2,6.910906E2,6.831925E2,3.011674E3,1.135211E3,6.0153705E2,1.6963583E3,4.6142135E0,2.954511E2,8.0833057E3,7.446277E2,1.7719418E3,1.10092705E2,1.0417396E3,3.0621538E3,1.7587852E3,7.8283795E2,5.705765E1,7.812831E2,5.8119666E2,2.8230808E0,4.89823E2,7.3963326E1,6.2189545E1,1.9355211E2,5.4979053E0,5.9721474E1,9.858474E1,1.9695095E1],"tree_param":{"num_deleted":"0","num_feature":"11","num_nodes":"63","size_leaf_vector":"1"}},{"base_weights":[-1.8081431E-1,-3.180855E-2,-4.513083E-1,-2.2349149E-1,9.991585E-3,-4.9433312E-1,2.2505611E-2,-2.8249696E-1,9.4647124E-2,7.002546E-2,-2.1515512E-1,-3.627619E-1,-5.9697306E-1,-1.2949574E-1,3.2887563E-1,-5.7415134E-1,-2.2522992E-1,6.0616076E-1,3.819716E-2,4.642994E-2,3.9342207E-1,-2.7797773E-1,8.7131076E-2,-7.3160505E-1,-3.1896E-1,-6.4279974E-1,-3.5763144E-1,-2.226171E-1,1.9635406E-1,4.4265512E-1,-1.2243994E-1,-6.7307234E-2,-3.1714436E-2,-2.937083E-2,-3.527378E-3,-3.7053984E-2,8.2152136E-2,-2.0611292E-2,1.0540877E-2,9.556029E-4,2.0094948E-2,1.9536601E-2,8.412126E-2,-1.9566689E-2,-4.9722377E-2,2.5468051E-2,-5.0720195E-3,-8.730105E-2,-6.310778E-2,-2.5383232E-2,-6.385187E-2,-4.7405805E-2,-6.892006E-2,-6.816229E-2,-3.268908E-2,-7.814342E-2,-1.727493E-2,3.0447293E-2,-7.108747E-2,1.24618106E-1,3.7709113E-2,1.8981537E-2,-6.857534E-2],"categories":[],"categories_nodes":[],"categories_segments":[],"categories_sizes":[],"default_left":[0,0,0,0,0,0,0,0,0,0,0,0,0,0,0,0,0,0,0,0,0,0,0,0,0,0,0,0,0,0,0,0,0,0,0,0,0,0,0,0,0,0,0,0,0,0,0,0,0,0,0,0,0,0,0,0,0,0,0,0,0,0,0],"id":14,"left_children":[1,3,5,7,9,11,13,15,17,19,21,23,25,27,29,31,33,35,37,39,41,43,45,47,49,51,53,55,57,59,61,-1,-1,-1,-1,-1,-1,-1,-1,-1,-1,-1,-1,-1,-1,-1,-1,-1,-1,-1,-1,-1,-1,-1,-1,-1,-1,-1,-1,-1,-1,-1,-1],"loss_changes":[1.1304055E3,1.4491039E2,2.0309436E2,6.0807983E1,2.0071565E2,1.2311572E2,3.870659E1,4.5492737E1,1.4625101E1,8.944063E1,5.938951E1,6.446826E1,5.6024048E1,1.690406E1,1.4207041E1,1.116684E1,2.971077E1,1.0896418E1,7.541686E0,6.2260056E1,7.0524796E1,4.6613342E1,1.2454157E1,5.479553E0,7.437619E1,3.3367065E1,8.007622E0,1.1919844E1,1.2381781E1,1.1136108E1,1.0029083E1,0E0,0E0,0E0,0E0,0E0,0E0,0E0,0E0,0E0,0E0,0E0,0E0,0E0,0E0,0E0,0E0,0E0,0E0,0E0,0E0,0E0,0E0,0E0,0E0,0E0,0E0,0E0,0E0,0E0,0E0,0E0,0E0],"parents":[2147483647,0,0,1,1,2,2,3,3,4,4,5,5,6,6,7,7,8,8,9,9,10,10,11,11,12,12,13,13,14,14,15,15,16,16,17,17,18,18,19,19,20,20,21,21,22,22,23,23,24,24,25,25,26,26,27,27,28,28,29,29,30,30],"right_children":[2,4,6,8,10,12,14,16,18,20,22,24,26,28,30,32,34,36,38,40,42,44,46,48,50,52,54,56,58,60,62,-1,-1,-1,-1,-1,-1,-1,-1,-1,-1,-1,-1,-1,-1,-1,-1,-1,-1,-1,-1,-1,-1,-1,-1,-1,-1,-1,-1,-1,-1,-1,-1],"split_conditions":[1.6727704E-1,4.047619E-1,8.9153844E-1,5.61051E-1,6.0714287E-1,2.3110025E-1,3.290207E-1,2.6190478E-1,1.54639175E-2,8.833333E-1,5.425039E-1,1.6666667E-1,5.425039E-1,6.4399116E-2,9.205128E-1,2.0483276E-1,6.4399116E-2,3.3333334E-1,1.7559724E-1,7.999002E-2,4.0635577E-1,8.221923E-1,6.185567E-2,1.6141447E-1,8.095238E-1,2.5773196E-2,3.3339325E-3,2.6870257E-1,7.150175E-1,8.3333336E-2,7.2164945E-2,-6.7307234E-2,-3.1714436E-2,-2.937083E-2,-3.527378E-3,-3.7053984E-2,8.2152136E-2,-2.0611292E-2,1.0540877E-2,9.556029E-4,2.0094948E-2,1.9536601E-2,8.412126E-2,-1.9566689E-2,-4.9722377E-2,2.5468051E-2,-5.0720195E-3,-8.730105E-2,-6.310778E-2,-2.5383232E-2,-6.385187E-2,-4.7405805E-2,-6.892006E-2,-6.816229E-2,-3.268908E-2,-7.814342E-2,-1.727493E-2,3.0447293E-2,-7.108747E-2,1.24618106E-1,3.7709113E-2,1.8981537E-2,-6.857534E-2],"split_indices":[2,1,10,9,1,2,2,1,5,10,9,1,9,8,10,3,8,4,3,8,6,3,5,3,1,5,8,3,6,1,5,0,0,0,0,0,0,0,0,0,0,0,0,0,0,0,0,0,0,0,0,0,0,0,0,0,0,0,0,0,0,0,0],"split_type":[0,0,0,0,0,0,0,0,0,0,0,0,0,0,0,0,0,0,0,0,0,0,0,0,0,0,0,0,0,0,0,0,0,0,0,0,0,0,0,0,0,0,0,0,0,0,0,0,0,0,0,0,0,0,0,0,0,0,0,0,0,0,0],"sum_hessian":[2.8045537E4,1.8084521E4,9.961015E3,3.236872E3,1.4847649E4,9.131762E3,8.292537E2,2.7305496E3,5.063225E2,1.1722592E4,3.1250579E3,4.003864E3,5.1278975E3,5.546471E2,2.746066E2,4.4666965E2,2.28388E3,4.935382E1,4.569687E2,1.0926522E4,7.9606934E2,2.5874126E3,5.3764514E2,4.2333728E2,3.5805266E3,4.302423E3,8.254746E2,4.316189E2,1.2302819E2,2.1933284E2,5.527377E1,3.2135757E2,1.2531209E2,1.6783062E3,6.055737E2,8.785361E0,4.0568462E1,9.814308E1,3.588256E2,8.822278E3,2.1042441E3,5.529432E2,2.4312617E2,1.8825499E3,7.0486273E2,2.423021E2,2.9534302E2,1.7270686E2,2.506304E2,2.975834E3,6.0469275E2,9.30348E2,3.3720747E3,6.969692E1,7.557777E2,3.4157795E1,3.9746112E2,1.1052222E2,1.2505976E1,1.518683E1,2.0414601E2,3.5986843E1,1.9286926E1],"tree_param":{"num_deleted":"0","num_feature":"11","num_nodes":"63","size_leaf_vector":"1"}},{"base_weights":[-1.6589797E-1,-4.1809175E-2,-4.533634E-1,1.0387453E-1,-9.507788E-2,-5.063651E-1,-5.5131454E-2,-3.7353285E-2,1.9972E-1,-4.4514132E-1,-7.1551025E-2,-5.611707E-1,-2.622275E-1,-2.2389159E-1,2.9136437E-1,-3.6703044E-1,2.1075489E-2,-3.8338337E-2,2.4667762E-1,-3.404114E-1,-7.032647E-1,-3.0834004E-2,-3.0986926E-1,-5.133583E-1,-7.8674966E-1,-6.286783E-1,-2.3942675E-1,-3.425232E-1,3.036987E-2,8.0524826E-1,1.6048318E-1,-6.8629615E-2,-8.437122E-3,-3.9087363E-2,7.7709407E-3,-4.056264E-2,2.1184547E-2,2.9042665E-2,-5.3014443E-3,-5.7532877E-2,-2.6033131E-2,9.048966E-2,-7.135161E-2,-4.9353275E-3,4.4394847E-2,-3.8748007E-2,-1.944539E-3,-7.1449034E-2,-4.6189725E-2,-5.9721507E-2,-8.630689E-2,-7.526367E-2,-2.1761967E-2,-2.0593746E-2,-5.256396E-2,-2.1429734E-2,-4.6796724E-2,1.4932796E-2,-4.518379E-2,1.1357381E-1,4.1272197E-2,2.940294E-3,5.670417E-2],"categories":[],"categories_nodes":[],"categories_segments":[],"categories_sizes":[],"default_left":[0,0,0,0,0,0,0,0,0,0,0,0,0,0,0,0,0,0,0,0,0,0,0,0,0,0,0,0,0,0,0,0,0,0,0,0,0,0,0,0,0,0,0,0,0,0,0,0,0,0,0,0,0,0,0,0,0,0,0,0,0,0,0],"id":15,"left_children":[1,3,5,7,9,11,13,15,17,19,21,23,25,27,29,31,33,35,37,39,41,43,45,47,49,51,53,55,57,59,61,-1,-1,-1,-1,-1,-1,-1,-1,-1,-1,-1,-1,-1,-1,-1,-1,-1,-1,-1,-1,-1,-1,-1,-1,-1,-1,-1,-1,-1,-1,-1,-1],"loss_changes":[9.8457825E2,1.496359E2,1.7562878E2,6.9891754E1,1.162497E2,9.812366E1,5.7291534E1,4.023027E1,3.4392105E1,2.3790665E1,1.2837845E2,6.427759E1,1.1114746E1,1.987891E1,2.145734E1,2.831533E1,4.1433815E1,4.6729324E1,3.3699997E1,1.1782188E1,4.8598404E0,9.939074E1,4.3506973E1,5.0916748E1,1.462738E1,3.8282394E0,1.207373E1,7.124748E0,1.2140185E1,7.949295E0,1.3682158E1,0E0,0E0,0E0,0E0,0E0,0E0,0E0,0E0,0E0,0E0,0E0,0E0,0E0,0E0,0E0,0E0,0E0,0E0,0E0,0E0,0E0,0E0,0E0,0E0,0E0,0E0,0E0,0E0,0E0,0E0,0E0,0E0],"parents":[2147483647,0,0,1,1,2,2,3,3,4,4,5,5,6,6,7,7,8,8,9,9,10,10,11,11,12,12,13,13,14,14,15,15,16,16,17,17,18,18,19,19,20,20,21,21,22,22,23,23,24,24,25,25,26,26,27,27,28,28,29,29,30,30],"right_children":[2,4,6,8,10,12,14,16,18,20,22,24,26,28,30,32,34,36,38,40,42,44,46,48,50,52,54,56,58,60,62,-1,-1,-1,-1,-1,-1,-1,-1,-1,-1,-1,-1,-1,-1,-1,-1,-1,-1,-1,-1,-1,-1,-1,-1,-1,-1,-1,-1,-1,-1,-1,-1],"split_conditions":[1.843423E-1,2.0618556E-2,8.7128204E-1,1.0309278E-2,1.6809131E-1,5.425039E-1,3.4490559E-1,2.857143E-1,2.8522328E-1,1.1707508E-1,6.547619E-1,3.2423812E-1,1.5476191E-1,3.6503425E-1,2.5773196E-2,4.642857E-1,1E-2,4.1666666E-1,7.6097184E-1,7.069086E-2,4.5454547E-2,1.2130436E-1,5.425039E-1,2.0238096E-1,3.5858586E-1,1.4432989E-1,8.333333E-1,2.535659E-1,9.228205E-1,5.072331E-1,3.8805924E-2,-6.8629615E-2,-8.437122E-3,-3.9087363E-2,7.7709407E-3,-4.056264E-2,2.1184547E-2,2.9042665E-2,-5.3014443E-3,-5.7532877E-2,-2.6033131E-2,9.048966E-2,-7.135161E-2,-4.9353275E-3,4.4394847E-2,-3.8748007E-2,-1.944539E-3,-7.1449034E-2,-4.6189725E-2,-5.9721507E-2,-8.630689E-2,-7.526367E-2,-2.1761967E-2,-2.0593746E-2,-5.256396E-2,-2.1429734E-2,-4.6796724E-2,1.4932796E-2,-4.518379E-2,1.1357381E-1,4.1272197E-2,2.940294E-3,5.670417E-2],"split_indices":[2,5,10,5,3,9,2,4,3,2,1,2,1,6,5,1,6,4,3,3,0,8,9,1,0,5,1,2,10,3,8,0,0,0,0,0,0,0,0,0,0,0,0,0,0,0,0,0,0,0,0,0,0,0,0,0,0,0,0,0,0,0,0],"split_type":[0,0,0,0,0,0,0,0,0,0,0,0,0,0,0,0,0,0,0,0,0,0,0,0,0,0,0,0,0,0,0,0,0,0,0,0,0,0,0,0,0,0,0,0,0,0,0,0,0,0,0,0,0,0,0,0,0,0,0,0,0,0,0],"sum_hessian":[2.7601002E4,1.9279754E4,8.321247E3,5.1618174E3,1.4117937E4,7.3435957E3,9.77652E2,2.0870942E3,3.074723E3,8.8794617E2,1.322999E4,5.9962217E3,1.3473735E3,6.5768463E2,3.1996735E2,3.1341638E2,1.7736779E3,5.066009E2,2.568122E3,6.333116E2,2.546346E2,1.1300429E4,1.929561E3,4.950271E3,1.0459508E3,7.736455E1,1.270009E3,4.482159E2,2.0946873E2,6.390287E1,2.5606448E2,1.4650563E2,1.6691075E2,2.1365497E2,1.560023E3,2.0501161E2,3.015893E2,2.2410134E3,3.271086E2,1.5942796E2,4.7388364E2,1.059504E0,2.535751E2,1.0877059E4,4.233702E2,1.5223905E3,4.071705E2,1.0058943E3,3.944377E3,3.0280057E2,7.4315027E2,5.87996E1,1.8564947E1,1.1385161E3,1.3149295E2,2.2299359E2,2.2522232E2,1.6857466E2,4.0894073E1,3.3663624E1,3.0239246E1,1.9444684E2,6.1617645E1],"tree_param":{"num_deleted":"0","num_feature":"11","num_nodes":"63","size_leaf_vector":"1"}},{"base_weights":[-1.5202956E-1,-3.7955597E-2,-4.260941E-1,1.602141E-2,-1.7013896E-1,-4.7782195E-1,-5.036146E-2,-3.2170513E-1,3.323218E-2,-5.697828E-1,-1.3525808E-1,-5.3235286E-1,-2.4164374E-1,-1.5891176E-1,4.0964413E-1,-3.866646E-1,1.297943E-1,4.092988E-1,1.5722336E-2,-6.280899E-1,-2.4396794E-1,-9.20419E-2,-4.515729E-1,-4.5118523E-1,-6.692306E-1,-7.415927E-1,-2.2466034E-1,-3.090189E-1,1.5149735E-1,5.7505417E-1,-4.9021594E-2,-5.0505407E-2,-2.477696E-2,5.4758773E-3,9.486175E-2,5.676676E-2,-6.856363E-3,3.780232E-3,-2.408478E-2,7.720136E-2,-6.346085E-2,-3.2516845E-2,9.166559E-2,-1.1795115E-2,3.550606E-2,2.1098638E-1,-4.613085E-2,-2.728605E-2,-5.1343918E-2,-6.0831275E-2,-8.104833E-2,2.8298793E-2,-7.9782E-2,-1.7136956E-2,-3.7853304E-2,-4.80758E-2,-2.0669913E-2,-5.392903E-5,6.303833E-2,6.536479E-2,-5.7787515E-2,1.255831E-1,-1.2909794E-2],"categories":[],"categories_nodes":[],"categories_segments":[],"categories_sizes":[],"default_left":[0,0,0,0,0,0,0,0,0,0,0,0,0,0,0,0,0,0,0,0,0,0,0,0,0,0,0,0,0,0,0,0,0,0,0,0,0,0,0,0,0,0,0,0,0,0,0,0,0,0,0,0,0,0,0,0,0,0,0,0,0,0,0],"id":16,"left_children":[1,3,5,7,9,11,13,15,17,19,21,23,25,27,29,31,33,35,37,39,41,43,45,47,49,51,53,55,57,59,61,-1,-1,-1,-1,-1,-1,-1,-1,-1,-1,-1,-1,-1,-1,-1,-1,-1,-1,-1,-1,-1,-1,-1,-1,-1,-1,-1,-1,-1,-1,-1,-1],"loss_changes":[8.50212E2,1.3701941E2,1.5531921E2,7.927354E1,7.754277E1,9.0349976E1,4.841697E1,1.9446526E1,8.544014E1,8.331375E0,6.998269E1,6.309839E1,1.1037254E1,3.658519E1,1.4075909E1,9.385094E0,5.103604E0,4.3725548E1,7.025576E1,3.9417267E0,6.841611E0,5.226352E1,1.6319931E1,3.9662598E1,1.776709E1,2.6988277E0,1.0411865E1,9.193924E0,1.8659748E1,1.2715565E1,5.384798E0,0E0,0E0,0E0,0E0,0E0,0E0,0E0,0E0,0E0,0E0,0E0,0E0,0E0,0E0,0E0,0E0,0E0,0E0,0E0,0E0,0E0,0E0,0E0,0E0,0E0,0E0,0E0,0E0,0E0,0E0,0E0,0E0],"parents":[2147483647,0,0,1,1,2,2,3,3,4,4,5,5,6,6,7,7,8,8,9,9,10,10,11,11,12,12,13,13,14,14,15,15,16,16,17,17,18,18,19,19,20,20,21,21,22,22,23,23,24,24,25,25,26,26,27,27,28,28,29,29,30,30],"right_children":[2,4,6,8,10,12,14,16,18,20,22,24,26,28,30,32,34,36,38,40,42,44,46,48,50,52,54,56,58,60,62,-1,-1,-1,-1,-1,-1,-1,-1,-1,-1,-1,-1,-1,-1,-1,-1,-1,-1,-1,-1,-1,-1,-1,-1,-1,-1,-1,-1,-1,-1,-1,-1],"split_conditions":[1.843423E-1,1.18444994E-1,8.7128204E-1,1.4758362E-1,2.1626413E-1,5.425039E-1,4.745209E-1,5.4868627E-1,2.8640246E-2,5.425039E-1,7.619048E-1,2.8396314E-1,5.3076923E-2,3.800329E-1,3.4677082E-1,9.641125E-2,4.4047618E-1,5.4761904E-1,7.951672E-1,4.040404E-2,7.4803695E-2,8.992308E-1,4.040404E-2,3.0927835E-2,3.510692E-1,1.919192E-1,2.7847156E-1,3.452381E-1,3.290207E-1,9.228205E-1,3.0831963E-1,-5.0505407E-2,-2.477696E-2,5.4758773E-3,9.486175E-2,5.676676E-2,-6.856363E-3,3.780232E-3,-2.408478E-2,7.720136E-2,-6.346085E-2,-3.2516845E-2,9.166559E-2,-1.1795115E-2,3.550606E-2,2.1098638E-1,-4.613085E-2,-2.728605E-2,-5.1343918E-2,-6.0831275E-2,-8.104833E-2,2.8298793E-2,-7.9782E-2,-1.7136956E-2,-3.7853304E-2,-4.80758E-2,-2.0669913E-2,-5.392903E-5,6.303833E-2,6.536479E-2,-5.7787515E-2,1.255831E-1,-1.2909794E-2],"split_indices":[2,2,10,3,3,9,2,9,2,9,1,2,10,6,6,3,1,1,3,0,8,10,0,5,2,0,2,1,2,10,7,0,0,0,0,0,0,0,0,0,0,0,0,0,0,0,0,0,0,0,0,0,0,0,0,0,0,0,0,0,0,0,0],"split_type":[0,0,0,0,0,0,0,0,0,0,0,0,0,0,0,0,0,0,0,0,0,0,0,0,0,0,0,0,0,0,0,0,0,0,0,0,0,0,0,0,0,0,0,0,0,0,0,0,0,0,0,0,0,0,0,0,0,0,0,0,0,0,0],"sum_hessian":[2.7194455E4,1.9202809E4,7.9916475E3,1.3635593E4,5.567216E3,7.024322E3,9.6732556E2,6.603237E2,1.2975269E4,4.4566736E2,5.1215483E3,5.705684E3,1.3186375E3,7.8317236E2,1.841532E2,5.773966E2,8.2927124E1,5.7625934E2,1.239901E4,3.7722858E2,6.843879E1,4.5070693E3,6.144794E2,3.5844382E3,2.121246E3,4.1919086E1,1.2767184E3,5.2789935E2,2.5527304E2,1.3515886E2,4.8994335E1,3.1028046E2,2.6711612E2,7.694419E1,5.9829354E0,4.32679E2,1.4358034E2,1.1417312E4,9.816977E2,1.203223E0,3.7602536E2,6.463728E1,3.8015099E0,4.260892E3,2.4617703E2,1.5095061E0,6.1296985E2,9.289333E2,2.655505E3,1.485787E3,6.3545917E2,1.97004E0,3.9949047E1,9.498698E2,3.2684857E2,1.9570653E2,3.321928E2,1.9451517E2,6.075787E1,1.2693948E2,8.219381E0,1.983158E0,4.7011177E1],"tree_param":{"num_deleted":"0","num_feature":"11","num_nodes":"63","size_leaf_vector":"1"}},{"base_weights":[-1.3910946E-1,-4.1467946E-2,-4.2006993E-1,-3.2194382E-1,-1.6131803E-2,-4.756174E-1,-4.1169204E-2,-4.0719444E-1,8.709829E-3,1.6561681E-2,-2.7665046E-1,-5.3063613E-1,-2.3850319E-1,-2.095854E-1,2.2297809E-1,-6.246694E-1,-2.9977286E-1,4.212218E-1,-6.8206444E-2,-4.144517E-3,2.9317582E-1,-3.6087212E-1,3.466964E-2,-4.8267615E-1,-7.396036E-1,-2.6415873E-1,6.530184E-2,-2.9356185E-1,8.983845E-2,7.763359E-1,1.351279E-1,1.0679386E-1,-6.324511E-2,-4.46165E-2,-1.6174776E-2,2.9194815E-2,1.7409171E-1,-2.298851E-2,5.571547E-3,1.0578619E-2,-5.0507584E-3,1.6935026E-2,6.282813E-2,-2.9748876E-2,-6.1141737E-2,3.519251E-2,-4.649076E-3,-6.895252E-2,-4.341178E-2,-5.3398218E-2,-8.249365E-2,-5.404968E-2,-2.2905482E-2,4.5301255E-2,-2.0962954E-2,-1.536521E-2,-4.1491125E-2,2.4062917E-2,-5.236542E-2,-7.541014E-2,8.599723E-2,7.700211E-2,7.699778E-3],"categories":[],"categories_nodes":[],"categories_segments":[],"categories_sizes":[],"default_left":[0,0,0,0,0,0,0,0,0,0,0,0,0,0,0,0,0,0,0,0,0,0,0,0,0,0,0,0,0,0,0,0,0,0,0,0,0,0,0,0,0,0,0,0,0,0,0,0,0,0,0,0,0,0,0,0,0,0,0,0,0,0,0],"id":17,"left_children":[1,3,5,7,9,11,13,15,17,19,21,23,25,27,29,31,33,35,37,39,41,43,45,47,49,51,53,55,57,59,61,-1,-1,-1,-1,-1,-1,-1,-1,-1,-1,-1,-1,-1,-1,-1,-1,-1,-1,-1,-1,-1,-1,-1,-1,-1,-1,-1,-1,-1,-1,-1,-1],"loss_changes":[7.3594684E2,1.4147604E2,1.4559692E2,4.6498917E1,1.5554053E2,7.859009E1,3.944857E1,3.044722E1,1.0787462E1,9.2938095E1,5.3401978E1,4.8717285E1,8.889099E0,1.3639219E1,1.6681309E1,6.3736115E0,1.770243E1,8.604693E0,5.7560406E0,7.695043E1,4.6783447E1,2.5269226E1,1.1203755E1,3.9731445E1,1.5563477E1,1.0058945E1,9.628292E0,7.117939E0,1.1165829E1,6.677389E0,1.0983181E1,0E0,0E0,0E0,0E0,0E0,0E0,0E0,0E0,0E0,0E0,0E0,0E0,0E0,0E0,0E0,0E0,0E0,0E0,0E0,0E0,0E0,0E0,0E0,0E0,0E0,0E0,0E0,0E0,0E0,0E0,0E0,0E0],"parents":[2147483647,0,0,1,1,2,2,3,3,4,4,5,5,6,6,7,7,8,8,9,9,10,10,11,11,12,12,13,13,14,14,15,15,16,16,17,17,18,18,19,19,20,20,21,21,22,22,23,23,24,24,25,25,26,26,27,27,28,28,29,29,30,30],"right_children":[2,4,6,8,10,12,14,16,18,20,22,24,26,28,30,32,34,36,38,40,42,44,46,48,50,52,54,56,58,60,62,-1,-1,-1,-1,-1,-1,-1,-1,-1,-1,-1,-1,-1,-1,-1,-1,-1,-1,-1,-1,-1,-1,-1,-1,-1,-1,-1,-1,-1,-1,-1,-1],"split_conditions":[1.9654329E-1,3.0952382E-1,8.7128204E-1,5.425039E-1,6.785714E-1,5.425039E-1,3.290207E-1,1.6809131E-1,3.0927835E-2,8.833333E-1,5.4868627E-1,3.2423812E-1,5.6585595E-2,5.172282E-1,2.0618556E-2,3.0303031E-2,2.6006157E-2,1.9025068E-1,3.5649076E-1,2.0618556E-2,5.6585595E-2,8.095238E-1,3.6082473E-2,1.904762E-1,3.5858586E-1,1.904762E-1,4.8005834E-1,2.535659E-1,9.228205E-1,3.3580142E-1,8.3333336E-2,1.0679386E-1,-6.324511E-2,-4.46165E-2,-1.6174776E-2,2.9194815E-2,1.7409171E-1,-2.298851E-2,5.571547E-3,1.0578619E-2,-5.0507584E-3,1.6935026E-2,6.282813E-2,-2.9748876E-2,-6.1141737E-2,3.519251E-2,-4.649076E-3,-6.895252E-2,-4.341178E-2,-5.3398218E-2,-8.249365E-2,-5.404968E-2,-2.2905482E-2,4.5301255E-2,-2.0962954E-2,-1.536521E-2,-4.1491125E-2,2.4062917E-2,-5.236542E-2,-7.541014E-2,8.599723E-2,7.700211E-2,7.699778E-3],"split_indices":[2,1,10,9,1,9,2,3,5,10,9,2,8,6,5,0,8,2,7,5,8,1,5,1,0,1,7,2,10,2,1,0,0,0,0,0,0,0,0,0,0,0,0,0,0,0,0,0,0,0,0,0,0,0,0,0,0,0,0,0,0,0,0],"split_type":[0,0,0,0,0,0,0,0,0,0,0,0,0,0,0,0,0,0,0,0,0,0,0,0,0,0,0,0,0,0,0,0,0,0,0,0,0,0,0,0,0,0,0,0,0,0,0,0,0,0,0,0,0,0,0,0,0,0,0,0,0,0,0],"sum_hessian":[2.6826322E4,1.9908662E4,6.917659E3,1.6484347E3,1.8260229E4,6.032959E3,8.8469995E2,1.3103625E3,3.380721E2,1.62250205E4,2.0352073E3,4.895736E3,1.1372231E3,5.4037537E2,3.443246E2,4.316542E2,8.787083E2,5.2428402E1,2.856437E2,1.50959795E4,1.1290416E3,1.6017333E3,4.33474E2,3.9845571E3,9.111789E2,1.0487893E3,8.843373E1,4.2203445E2,1.183409E2,4.6099693E1,2.9822488E2,1.3513579E0,4.3030286E2,4.2534222E2,4.533661E2,4.8863823E1,3.5645816E0,1.2357311E2,1.620706E2,4.4776924E3,1.0618287E4,8.255129E2,3.0352872E2,1.2800863E3,3.2164706E2,8.762493E1,3.4584906E2,7.550353E2,3.229522E3,2.6936826E2,6.4181067E2,1.16587456E2,9.322019E2,3.6424076E1,5.200965E1,1.9708261E2,2.2495186E2,9.548177E1,2.285912E1,1.9727392E0,4.4126953E1,2.3986143E1,2.7423874E2],"tree_param":{"num_deleted":"0","num_feature":"11","num_nodes":"63","size_leaf_vector":"1"}},{"base_weights":[-1.2718488E-1,-3.760766E-2,-3.9384842E-1,-2.1885632E-1,-3.141939E-3,-4.4783697E-1,-3.765904E-2,-2.779782E-1,4.805325E-2,3.6122452E-2,-2.2847553E-1,-5.023467E-1,-2.1935537E-1,-1.396998E-1,3.438517E-1,-5.5974233E-1,-2.2345422E-1,2.511648E-1,-4.6220034E-2,1.982005E-2,3.1990355E-1,-2.9856983E-1,3.264765E-2,-4.5472896E-1,-7.149137E-1,-5.18684E-1,-1.9341916E-1,-2.8985864E-1,1.6581883E-1,4.8930204E-1,-5.974032E-2,-6.598512E-2,-3.4321997E-2,-3.4446012E-2,-7.2657256E-3,5.3287532E-2,8.7882895E-3,1.3371954E-3,-3.0004188E-2,-8.6403836E-4,1.6886236E-2,1.5233603E-2,5.569483E-2,-2.1748174E-2,-4.860815E-2,9.523194E-3,-2.5659492E-2,-6.626669E-2,-4.0704023E-2,-7.379254E-2,8.586579E-3,1.5558665E-2,-6.173562E-2,-2.2197925E-2,1.3632487E-2,-3.4669157E-2,1.5829103E-3,-1.5904265E-2,3.6430787E-2,5.5931997E-2,-5.5872023E-2,3.2352973E-2,-3.169707E-2],"categories":[],"categories_nodes":[],"categories_segments":[],"categories_sizes":[],"default_left":[0,0,0,0,0,0,0,0,0,0,0,0,0,0,0,0,0,0,0,0,0,0,0,0,0,0,0,0,0,0,0,0,0,0,0,0,0,0,0,0,0,0,0,0,0,0,0,0,0,0,0,0,0,0,0,0,0,0,0,0,0,0,0],"id":18,"left_children":[1,3,5,7,9,11,13,15,17,19,21,23,25,27,29,31,33,35,37,39,41,43,45,47,49,51,53,55,57,59,61,-1,-1,-1,-1,-1,-1,-1,-1,-1,-1,-1,-1,-1,-1,-1,-1,-1,-1,-1,-1,-1,-1,-1,-1,-1,-1,-1,-1,-1,-1,-1,-1],"loss_changes":[6.3270544E2,1.2386653E2,1.2806238E2,5.000705E1,1.4742358E2,7.19209E1,3.4218166E1,3.972191E1,1.1028589E1,6.564081E1,4.5266678E1,4.6931274E1,8.561554E0,3.1851212E1,1.0919693E1,8.873581E0,3.9660522E1,8.349467E0,5.9608192E0,5.692754E1,3.0532211E1,2.9534683E1,9.512751E0,3.7580566E1,1.577713E1,5.9763355E0,9.715706E0,8.087097E0,1.48292E1,1.0327263E1,5.0353813E0,0E0,0E0,0E0,0E0,0E0,0E0,0E0,0E0,0E0,0E0,0E0,0E0,0E0,0E0,0E0,0E0,0E0,0E0,0E0,0E0,0E0,0E0,0E0,0E0,0E0,0E0,0E0,0E0,0E0,0E0,0E0,0E0],"parents":[2147483647,0,0,1,1,2,2,3,3,4,4,5,5,6,6,7,7,8,8,9,9,10,10,11,11,12,12,13,13,14,14,15,15,16,16,17,17,18,18,19,19,20,20,21,21,22,22,23,23,24,24,25,25,26,26,27,27,28,28,29,29,30,30],"right_children":[2,4,6,8,10,12,14,16,18,20,22,24,26,28,30,32,34,36,38,40,42,44,46,48,50,52,54,56,58,60,62,-1,-1,-1,-1,-1,-1,-1,-1,-1,-1,-1,-1,-1,-1,-1,-1,-1,-1,-1,-1,-1,-1,-1,-1,-1,-1,-1,-1,-1,-1,-1,-1],"split_conditions":[1.9654329E-1,3.809524E-1,8.7128204E-1,5.5641425E-1,6.547619E-1,5.425039E-1,4.745209E-1,2.2619048E-1,5.154639E-2,8.992308E-1,5.425039E-1,3.2423812E-1,1.0205128E-1,3.800329E-1,3.4677082E-1,2.0483276E-1,3.493204E-2,1.2202608E-1,1.7601056E-1,5.425039E-1,3.300053E-2,7.619048E-1,2.6100767E-1,1.904762E-1,1.8032673E-1,2.3232323E-1,5.6585595E-2,1.5463917E-1,8.992308E-1,9.228205E-1,6.7010306E-2,-6.598512E-2,-3.4321997E-2,-3.4446012E-2,-7.2657256E-3,5.3287532E-2,8.7882895E-3,1.3371954E-3,-3.0004188E-2,-8.6403836E-4,1.6886236E-2,1.5233603E-2,5.569483E-2,-2.1748174E-2,-4.860815E-2,9.523194E-3,-2.5659492E-2,-6.626669E-2,-4.0704023E-2,-7.379254E-2,8.586579E-3,1.5558665E-2,-6.173562E-2,-2.2197925E-2,1.3632487E-2,-3.4669157E-2,1.5829103E-3,-1.5904265E-2,3.6430787E-2,5.5931997E-2,-5.5872023E-2,3.2352973E-2,-3.169707E-2],"split_indices":[2,1,10,9,1,9,2,1,5,10,9,2,10,6,6,3,8,2,2,9,8,1,6,1,8,0,8,5,10,10,5,0,0,0,0,0,0,0,0,0,0,0,0,0,0,0,0,0,0,0,0,0,0,0,0,0,0,0,0,0,0,0,0],"split_type":[0,0,0,0,0,0,0,0,0,0,0,0,0,0,0,0,0,0,0,0,0,0,0,0,0,0,0,0,0,0,0,0,0,0,0,0,0,0,0,0,0,0,0,0,0,0,0,0,0,0,0,0,0,0,0,0,0,0,0,0,0,0,0],"sum_hessian":[2.6487096E4,1.9827736E4,6.6593594E3,3.167113E3,1.6660623E4,5.782614E3,8.7674585E2,2.5927642E3,5.743488E2,1.41890205E4,2.4716025E3,4.667797E3,1.1148169E3,6.9223395E2,1.845119E2,4.1887195E2,2.173892E3,1.8154878E2,3.9280002E2,1.34192E4,7.6982074E2,1.9484364E3,5.23166E2,3.816088E3,8.517088E2,8.737614E1,1.0274408E3,4.6415952E2,2.2807446E2,1.3547739E2,4.9034527E1,2.850345E2,1.3383748E2,1.2053649E3,9.685272E2,6.578324E1,1.1576555E2,3.188777E2,7.392234E1,1.1268378E4,2.1508223E3,4.5196936E2,3.178514E2,1.3617307E3,5.867057E2,4.3065756E2,9.250848E1,7.095047E2,3.1065833E3,8.2799475E2,2.3714025E1,1.1079319E1,7.6296814E1,9.4584796E2,8.159278E1,3.9128214E2,7.287736E1,8.6574356E1,1.415001E2,1.2743103E2,8.046351E0,1.9587606E1,2.944692E1],"tree_param":{"num_deleted":"0","num_feature":"11","num_nodes":"63","size_leaf_vector":"1"}},{"base_weights":[-1.1616465E-1,-3.410963E-2,-3.6847898E-1,6.4310625E-2,-9.143378E-2,-4.215308E-1,-3.9618034E-2,-1.12935156E-1,1.0681353E-1,-2.739289E-1,-5.42186E-2,-3.706386E-1,-6.5583676E-1,-1.3365081E-1,3.1763527E-1,-3.0907478E-2,-3.3770192E-1,8.387977E-2,3.936096E-1,-3.3692354E-1,-2.863398E-2,-1.7805392E-2,-2.8545246E-1,-3.351113E-1,-6.8827236E-1,-4.6411332E-1,-7.55806E-1,-2.7483162E-1,1.267318E-1,3.849284E-1,-4.4375202E-1,-3.0552316E-2,6.391627E-3,-4.0067054E-2,-1.7983869E-3,-2.9633662E-3,1.4443531E-2,2.3982547E-2,9.430487E-2,-5.5056274E-2,-2.6822591E-2,9.493478E-3,-1.9267403E-2,1.09128365E-2,-5.63376E-3,-3.583032E-2,1.9747678E-3,-6.0591783E-2,-2.7565837E-2,-4.6232883E-2,-7.2670415E-2,-9.899675E-2,-3.9316054E-2,-9.320917E-2,-5.7651397E-2,-3.1702828E-2,1.2002783E-2,-3.2583028E-2,2.4186857E-2,2.3152111E-2,7.865542E-2,-1.2094319E-1,1.0086655E-2],"categories":[],"categories_nodes":[],"categories_segments":[],"categories_sizes":[],"default_left":[0,0,0,0,0,0,0,0,0,0,0,0,0,0,0,0,0,0,0,0,0,0,0,0,0,0,0,0,0,0,0,0,0,0,0,0,0,0,0,0,0,0,0,0,0,0,0,0,0,0,0,0,0,0,0,0,0,0,0,0,0,0,0],"id":19,"left_children":[1,3,5,7,9,11,13,15,17,19,21,23,25,27,29,31,33,35,37,39,41,43,45,47,49,51,53,55,57,59,61,-1,-1,-1,-1,-1,-1,-1,-1,-1,-1,-1,-1,-1,-1,-1,-1,-1,-1,-1,-1,-1,-1,-1,-1,-1,-1,-1,-1,-1,-1,-1,-1],"loss_changes":[5.420251E2,1.1147247E2,1.12072876E2,5.4798977E1,8.478182E1,6.5723206E1,3.0060429E1,2.5931932E1,3.8551537E1,3.2665268E1,8.732646E1,5.1082764E1,1.8543884E1,2.6064959E1,9.72546E0,2.6892714E1,7.5643234E0,3.7352062E1,3.6451828E1,2.4543411E1,8.799124E0,4.383939E1,3.1380402E1,6.57106E1,3.6267548E0,1.2312889E1,1.9891815E1,7.6936035E0,1.3086046E1,1.0406618E1,6.6311646E0,0E0,0E0,0E0,0E0,0E0,0E0,0E0,0E0,0E0,0E0,0E0,0E0,0E0,0E0,0E0,0E0,0E0,0E0,0E0,0E0,0E0,0E0,0E0,0E0,0E0,0E0,0E0,0E0,0E0,0E0,0E0,0E0],"parents":[2147483647,0,0,1,1,2,2,3,3,4,4,5,5,6,6,7,7,8,8,9,9,10,10,11,11,12,12,13,13,14,14,15,15,16,16,17,17,18,18,19,19,20,20,21,21,22,22,23,23,24,24,25,25,26,26,27,27,28,28,29,29,30,30],"right_children":[2,4,6,8,10,12,14,16,18,20,22,24,26,28,30,32,34,36,38,40,42,44,46,48,50,52,54,56,58,60,62,-1,-1,-1,-1,-1,-1,-1,-1,-1,-1,-1,-1,-1,-1,-1,-1,-1,-1,-1,-1,-1,-1,-1,-1,-1,-1,-1,-1,-1,-1,-1,-1],"split_conditions":[1.9654329E-1,3.0927835E-2,8.671795E-1,2.0403914E-2,3.690476E-1,3.1712726E-1,4.745209E-1,2.0618556E-2,8.6333334E-1,5.61051E-1,7.555838E-1,8.6904764E-1,3.6868685E-1,3.6503425E-1,5.242375E-1,1E-2,5.425039E-1,3.9285713E-1,2.8111386E-1,1.6809131E-1,5.714286E-1,5.0040066E-2,5.4868627E-1,1.904762E-1,2.0618556E-2,5.394127E-1,6.3131315E-1,5.981453E-1,2.3809524E-1,5.428501E-1,4.5238096E-1,-3.0552316E-2,6.391627E-3,-4.0067054E-2,-1.7983869E-3,-2.9633662E-3,1.4443531E-2,2.3982547E-2,9.430487E-2,-5.5056274E-2,-2.6822591E-2,9.493478E-3,-1.9267403E-2,1.09128365E-2,-5.63376E-3,-3.583032E-2,1.9747678E-3,-6.0591783E-2,-2.7565837E-2,-4.6232883E-2,-7.2670415E-2,-9.899675E-2,-3.9316054E-2,-9.320917E-2,-5.7651397E-2,-3.1702828E-2,1.2002783E-2,-3.2583028E-2,2.4186857E-2,2.3152111E-2,7.865542E-2,-1.2094319E-1,1.0086655E-2],"split_indices":[2,5,10,8,1,2,2,5,10,9,3,1,0,6,6,6,9,4,6,3,4,2,9,1,5,9,0,9,4,7,4,0,0,0,0,0,0,0,0,0,0,0,0,0,0,0,0,0,0,0,0,0,0,0,0,0,0,0,0,0,0,0,0],"split_type":[0,0,0,0,0,0,0,0,0,0,0,0,0,0,0,0,0,0,0,0,0,0,0,0,0,0,0,0,0,0,0,0,0,0,0,0,0,0,0,0,0,0,0,0,0,0,0,0,0,0,0,0,0,0,0,0,0,0,0,0,0,0,0],"sum_hessian":[2.6179791E4,1.9756068E4,6.4237217E3,7.271477E3,1.2484592E4,5.531152E3,8.9257E2,1.4060947E3,5.8653823E3,2.1135952E3,1.0370996E4,4.5462695E3,9.8488214E2,7.0708624E2,1.8548373E2,1.0309835E3,3.7511115E2,5.4322837E3,4.330987E2,1.6814113E3,4.321839E2,8.960963E3,1.4100331E3,4.0907751E3,4.5549457E2,3.394773E2,6.4540485E2,4.5845688E2,2.4862938E2,1.7087698E2,1.460674E1,2.6405417E2,7.669294E2,3.1317487E2,6.1936283E1,1.889968E3,3.5423157E3,3.395104E2,9.358829E1,4.0740738E2,1.2740039E3,2.4673643E2,1.8544746E2,2.0863147E3,6.8746484E3,1.1381807E3,2.718524E2,7.347589E2,3.3560164E3,6.811241E1,3.8738217E2,3.881798E1,3.006593E2,3.2331097E2,3.2209387E2,4.143744E2,4.4082493E1,5.00524E1,1.9857698E2,1.2479031E2,4.6086674E1,5.5646014E0,9.042139E0],"tree_param":{"num_deleted":"0","num_feature":"11","num_nodes":"63","size_leaf_vector":"1"}},{"base_weights":[-1.0601095E-1,-3.0930726E-2,-3.4394422E-1,-2.2055599E-1,-5.279512E-3,-3.8751957E-1,2.3653844E-2,-2.791425E-1,7.342426E-2,2.6323222E-2,-2.0155948E-1,-4.3923604E-1,-1.737696E-1,-8.737631E-2,2.4815992E-1,-4.8528448E-1,-2.0845087E-1,-2.412667E-1,1.7640506E-1,8.0576193E-1,2.0190466E-2,-1.5002157E-1,-5.0620496E-1,-2.4107474E-1,-4.9391136E-1,-9.774881E-2,-2.847483E-1,-1.8467751E-1,3.39044E-1,3.126876E-1,-6.6108435E-1,-5.855876E-2,-2.378396E-2,-4.4513907E-2,-1.5574696E-2,-3.8650136E-2,1.33513585E-2,2.0867376E-2,-7.134292E-2,1.0149657E-1,-1.813805E-2,-1.4054741E-3,1.4928484E-2,-2.160137E-2,7.742216E-3,-5.1578004E-2,1.2961595E-1,-6.135595E-2,-1.3069175E-2,-4.4116132E-2,-6.772377E-2,-1.6165443E-2,1.4638421E-2,-2.0384697E-2,-6.263781E-2,-4.324698E-2,-5.080852E-3,-6.319072E-2,5.4098554E-2,4.0710505E-2,-3.146872E-2,9.509923E-2,-8.924355E-2],"categories":[],"categories_nodes":[],"categories_segments":[],"categories_sizes":[],"default_left":[0,0,0,0,0,0,0,0,0,0,0,0,0,0,0,0,0,0,0,0,0,0,0,0,0,0,0,0,0,0,0,0,0,0,0,0,0,0,0,0,0,0,0,0,0,0,0,0,0,0,0,0,0,0,0,0,0,0,0,0,0,0,0],"id":20,"left_children":[1,3,5,7,9,11,13,15,17,19,21,23,25,27,29,31,33,35,37,39,41,43,45,47,49,51,53,55,57,59,61,-1,-1,-1,-1,-1,-1,-1,-1,-1,-1,-1,-1,-1,-1,-1,-1,-1,-1,-1,-1,-1,-1,-1,-1,-1,-1,-1,-1,-1,-1,-1,-1],"loss_changes":[4.6269666E2,9.577235E1,9.9526E1,4.04284E1,1.07594604E2,6.132318E1,1.6457449E1,2.8408752E1,1.2702183E1,7.139891E1,3.7691414E1,4.832831E1,9.114819E0,1.8397675E1,1.3022847E1,1.2240898E1,1.81255E1,5.3173623E0,8.6163E0,2.4266045E1,6.553996E1,3.0919132E1,6.6671906E0,3.975793E1,3.358258E1,1.008173E1,1.2033371E1,1.1934427E1,1.6508482E1,1.2250645E1,6.366706E0,0E0,0E0,0E0,0E0,0E0,0E0,0E0,0E0,0E0,0E0,0E0,0E0,0E0,0E0,0E0,0E0,0E0,0E0,0E0,0E0,0E0,0E0,0E0,0E0,0E0,0E0,0E0,0E0,0E0,0E0,0E0,0E0],"parents":[2147483647,0,0,1,1,2,2,3,3,4,4,5,5,6,6,7,7,8,8,9,9,10,10,11,11,12,12,13,13,14,14,15,15,16,16,17,17,18,18,19,19,20,20,21,21,22,22,23,23,24,24,25,25,26,26,27,27,28,28,29,29,30,30],"right_children":[2,4,6,8,10,12,14,16,18,20,22,24,26,28,30,32,34,36,38,40,42,44,46,48,50,52,54,56,58,60,62,-1,-1,-1,-1,-1,-1,-1,-1,-1,-1,-1,-1,-1,-1,-1,-1,-1,-1,-1,-1,-1,-1,-1,-1,-1,-1,-1,-1,-1,-1,-1,-1],"split_conditions":[1.9654329E-1,2.4421318E-1,8.9153844E-1,5.425039E-1,6.547619E-1,5.425039E-1,4.118323E-2,2.6190478E-1,2.5E-1,2.120273E-2,8.095238E-1,2.5773196E-2,2.646701E-1,5.8247787E-1,7.150175E-1,2.0483276E-1,9.641125E-2,4.2945907E-1,5.144771E-1,8.221923E-1,7.4803695E-2,5.425039E-1,9.69697E-1,1.0309278E-2,8.095238E-1,3.045712E-2,7.7380955E-1,7.2164945E-2,5.394127E-1,9.228205E-1,2.0088156E-1,-5.855876E-2,-2.378396E-2,-4.4513907E-2,-1.5574696E-2,-3.8650136E-2,1.33513585E-2,2.0867376E-2,-7.134292E-2,1.0149657E-1,-1.813805E-2,-1.4054741E-3,1.4928484E-2,-2.160137E-2,7.742216E-3,-5.1578004E-2,1.2961595E-1,-6.135595E-2,-1.3069175E-2,-4.4116132E-2,-6.772377E-2,-1.6165443E-2,1.4638421E-2,-2.0384697E-2,-6.263781E-2,-4.324698E-2,-5.080852E-3,-6.319072E-2,5.4098554E-2,4.0710505E-2,-3.146872E-2,9.509923E-2,-8.924355E-2],"split_indices":[2,3,10,9,1,9,8,1,1,2,1,5,2,2,6,3,3,7,7,3,8,9,0,5,1,8,1,5,9,10,2,0,0,0,0,0,0,0,0,0,0,0,0,0,0,0,0,0,0,0,0,0,0,0,0,0,0,0,0,0,0,0,0],"split_type":[0,0,0,0,0,0,0,0,0,0,0,0,0,0,0,0,0,0,0,0,0,0,0,0,0,0,0,0,0,0,0,0,0,0,0,0,0,0,0,0,0,0,0,0,0,0,0,0,0,0,0,0,0,0,0,0,0,0,0,0,0,0,0],"sum_hessian":[2.5900559E4,1.9688846E4,6.2117124E3,2.3451094E3,1.7343736E4,5.5533613E3,6.5835095E2,1.9554642E3,3.8964514E2,1.4939252E4,2.4044849E3,4.470638E3,1.0827233E3,4.4090594E2,2.1744502E2,4.9784186E2,1.4576224E3,9.57371E1,2.9390805E2,1.1560775E2,1.4823644E4,2.0578477E3,3.466374E2,9.6793866E2,3.5026995E3,6.4368604E2,4.3903732E2,3.5945438E2,8.145157E1,2.0364952E2,1.3795496E1,3.5327103E2,1.4457083E2,2.641018E2,1.1935206E3,6.897813E1,2.6758976E1,2.843626E2,9.545432E0,9.536913E1,2.0238617E1,1.1716469E4,3.1071753E3,1.5950912E3,4.6275644E2,3.455162E2,1.1211678E0,2.202255E2,7.477132E2,2.7226887E3,7.800107E2,5.1041806E2,1.3326793E2,3.5626892E2,8.2768394E1,1.2529487E2,2.3415952E2,1.3656399E1,6.779517E1,1.7731674E2,2.6332788E1,1.3404174E0,1.2455078E1],"tree_param":{"num_deleted":"0","num_feature":"11","num_nodes":"63","size_leaf_vector":"1"}},{"base_weights":[-9.663509E-2,-3.2535385E-2,-3.3710766E-1,-4.4442913E-1,-2.042652E-2,-3.9297694E-1,-1.3190045E-2,-6.421163E-1,-3.1245872E-1,3.548364E-3,-2.1170633E-1,-4.4776586E-1,-1.7233303E-1,-1.5496156E-1,1.7487669E-1,-6.611747E-1,1.3425164E-1,-1.7012507E-1,-5.165243E-1,-1.0394602E-1,4.8592858E-2,-2.7548558E-1,7.695919E-2,-2.6454672E-1,-5.006552E-1,-5.3496146E-1,-1.4193569E-1,-2.3698092E-1,1.3723916E-1,4.7773447E-2,4.9218473E-1,-5.224516E-2,-7.998665E-2,-2.981411E-2,1.597402E-2,3.3731382E-2,-5.348E-2,-1.7864052E-2,-7.175365E-5,2.2500806E-2,2.3031128E-3,-2.0339746E-2,-4.5831345E-2,2.4925988E-2,-2.4591122E-2,-2.875571E-2,1.0766476E-1,-4.5555647E-2,-7.93928E-2,-5.9025735E-2,7.680224E-2,-4.8301477E-2,-1.0597117E-2,9.9741526E-2,-2.4976721E-2,2.7200956E-2,-6.1293025E-2,5.996856E-2,-4.361771E-3,5.9007164E-2,-3.0139384E-3],"categories":[],"categories_nodes":[],"categories_segments":[],"categories_sizes":[],"default_left":[0,0,0,0,0,0,0,0,0,0,0,0,0,0,0,0,0,0,0,0,0,0,0,0,0,0,0,0,0,0,0,0,0,0,0,0,0,0,0,0,0,0,0,0,0,0,0,0,0,0,0,0,0,0,0,0,0,0,0,0,0],"id":21,"left_children":[1,3,5,7,9,11,13,15,17,19,21,23,25,27,29,31,-1,33,35,37,39,41,43,45,47,49,51,53,55,57,59,-1,-1,-1,-1,-1,-1,-1,-1,-1,-1,-1,-1,-1,-1,-1,-1,-1,-1,-1,-1,-1,-1,-1,-1,-1,-1,-1,-1,-1,-1],"loss_changes":[3.9534735E2,1.00998856E2,9.768085E1,1.4886032E1,9.0227486E1,5.5576904E1,2.1226679E1,9.60778E0,1.0041103E1,8.4664734E1,4.036653E1,3.5598877E1,1.003602E1,1.0910544E1,1.3778046E1,3.9874954E0,0E0,8.786686E0,2.4090118E0,3.981271E1,5.5560066E1,2.3564209E1,2.2165375E1,2.5865631E1,3.7467773E1,5.5392113E0,1.03482895E1,5.8479366E0,1.0287666E1,1.2407424E1,5.0170364E0,0E0,0E0,0E0,0E0,0E0,0E0,0E0,0E0,0E0,0E0,0E0,0E0,0E0,0E0,0E0,0E0,0E0,0E0,0E0,0E0,0E0,0E0,0E0,0E0,0E0,0E0,0E0,0E0,0E0,0E0],"parents":[2147483647,0,0,1,1,2,2,3,3,4,4,5,5,6,6,7,7,8,8,9,9,10,10,11,11,12,12,13,13,14,14,15,15,17,17,18,18,19,19,20,20,21,21,22,22,23,23,24,24,25,25,26,26,27,27,28,28,29,29,30,30],"right_children":[2,4,6,8,10,12,14,16,18,20,22,24,26,28,30,32,-1,34,36,38,40,42,44,46,48,50,52,54,56,58,60,-1,-1,-1,-1,-1,-1,-1,-1,-1,-1,-1,-1,-1,-1,-1,-1,-1,-1,-1,-1,-1,-1,-1,-1,-1,-1,-1,-1,-1,-1],"split_conditions":[2.0837666E-1,2.2619048E-1,8.7128204E-1,1.6141447E-1,7.555838E-1,5.425039E-1,3.290207E-1,9.59596E-1,3.315494E-1,4.4047618E-1,5.425039E-1,2.5773196E-2,1.0205128E-1,5.242375E-1,4.5492195E-2,1.6440396E-1,1.3425164E-1,2.5663424E-2,4.3431222E-1,3.4552217E-2,3.8409866E-2,7.619048E-1,1.2561652E-1,8.367741E-1,3.510692E-1,3.3580142E-1,3.4964134E-3,2.1411839E-1,7.150175E-1,2.3232323E-1,5.10343E-1,-5.224516E-2,-7.998665E-2,-2.981411E-2,1.597402E-2,3.3731382E-2,-5.348E-2,-1.7864052E-2,-7.175365E-5,2.2500806E-2,2.3031128E-3,-2.0339746E-2,-4.5831345E-2,2.4925988E-2,-2.4591122E-2,-2.875571E-2,1.0766476E-1,-4.5555647E-2,-7.93928E-2,-5.9025735E-2,7.680224E-2,-4.8301477E-2,-1.0597117E-2,9.9741526E-2,-2.4976721E-2,2.7200956E-2,-6.1293025E-2,5.996856E-2,-4.361771E-3,5.9007164E-2,-3.0139384E-3],"split_indices":[2,1,10,3,3,9,2,0,6,1,9,5,10,6,8,2,0,8,9,8,2,1,2,2,2,2,8,7,6,0,6,0,0,0,0,0,0,0,0,0,0,0,0,0,0,0,0,0,0,0,0,0,0,0,0,0,0,0,0,0,0],"split_type":[0,0,0,0,0,0,0,0,0,0,0,0,0,0,0,0,0,0,0,0,0,0,0,0,0,0,0,0,0,0,0,0,0,0,0,0,0,0,0,0,0,0,0,0,0,0,0,0,0,0,0,0,0,0,0,0,0,0,0,0,0],"sum_hessian":[2.564796E4,2.025104E4,5.3969214E3,5.773168E2,1.9673723E4,4.6028125E3,7.941091E2,2.295642E2,3.4775262E2,1.7483348E4,2.190375E3,3.6863958E3,9.1641656E2,4.5288748E2,3.4122162E2,2.2804167E2,1.5225197E0,2.05946E2,1.4180663E2,5.162413E3,1.2320936E4,1.7940396E3,3.9633527E2,8.27117E2,2.8592788E3,6.959102E1,8.4682556E2,3.537765E2,9.911099E1,2.4445474E2,9.676688E1,1.1639479E2,1.1164688E2,1.4843839E2,5.7507614E1,2.60467E0,1.3920195E2,2.994732E3,2.167681E3,1.5583167E3,1.0762619E4,1.2882191E3,5.058205E2,2.5857635E2,1.3775891E2,8.139389E2,1.3178099E1,2.4804058E3,3.7887308E2,6.728342E1,2.3076043E0,7.958663E1,7.672389E2,2.836684E0,3.509398E2,8.455852E1,1.455248E1,3.3939987E1,2.1051476E2,8.1386696E1,1.5380181E1],"tree_param":{"num_deleted":"0","num_feature":"11","num_nodes":"61","size_leaf_vector":"1"}},{"base_weights":[-8.8004306E-2,-2.9478863E-2,-3.1387308E-1,5.734552E-2,-7.9996325E-2,-3.6747286E-1,-1.1970723E-2,-6.444617E-2,1.07131764E-1,-1.16087645E-1,6.9756754E-2,-4.2096657E-1,-1.5767078E-1,-1.4152668E-1,1.5740466E-1,-3.475384E-1,-1.105021E-2,2.2810678E-1,3.7625052E-2,-3.978647E-1,-8.974167E-2,5.009046E-1,5.278775E-2,-3.7259766E-1,-6.233123E-1,-4.985201E-1,-1.288962E-1,-8.171556E-1,-1.1101798E-1,6.372119E-1,8.258415E-2,-6.352957E-2,-9.4413115E-3,9.497133E-3,-2.2882763E-2,2.7935434E-2,1.1054907E-3,-1.8711368E-3,2.7741566E-2,-5.9422113E-2,-3.1468656E-2,-6.0274987E-3,-3.2160778E-2,2.5434433E-2,1.0835097E-1,9.377371E-3,-3.608992E-3,-3.1288367E-2,-5.5414535E-2,-3.714869E-2,-7.274192E-2,-5.5036426E-2,5.9991486E-2,-2.5162918E-2,-3.328001E-3,2.740559E-2,-9.5631644E-2,9.559924E-2,-1.3647805E-2,-4.277691E-2,7.336467E-2,6.3731745E-2,3.1275654E-3],"categories":[],"categories_nodes":[],"categories_segments":[],"categories_sizes":[],"default_left":[0,0,0,0,0,0,0,0,0,0,0,0,0,0,0,0,0,0,0,0,0,0,0,0,0,0,0,0,0,0,0,0,0,0,0,0,0,0,0,0,0,0,0,0,0,0,0,0,0,0,0,0,0,0,0,0,0,0,0,0,0,0,0],"id":22,"left_children":[1,3,5,7,9,11,13,15,17,19,21,23,25,27,29,31,33,35,37,39,41,43,45,47,49,51,53,55,57,59,61,-1,-1,-1,-1,-1,-1,-1,-1,-1,-1,-1,-1,-1,-1,-1,-1,-1,-1,-1,-1,-1,-1,-1,-1,-1,-1,-1,-1,-1,-1,-1,-1],"loss_changes":[3.3600635E2,8.855728E1,8.464075E1,4.5038578E1,6.899244E1,4.978784E1,1.7351238E1,3.2579437E1,4.432146E1,7.631818E1,1.8112114E1,3.4404297E1,8.802496E0,9.142358E0,1.2250329E1,2.4851833E1,4.1918217E1,2.1393112E1,4.525331E1,1.4170731E1,6.425253E1,1.319223E1,8.697049E0,3.0817505E1,1.758957E1,4.318289E0,9.791262E0,3.177803E0,1.1805212E1,5.046999E0,8.451053E0,0E0,0E0,0E0,0E0,0E0,0E0,0E0,0E0,0E0,0E0,0E0,0E0,0E0,0E0,0E0,0E0,0E0,0E0,0E0,0E0,0E0,0E0,0E0,0E0,0E0,0E0,0E0,0E0,0E0,0E0,0E0,0E0],"parents":[2147483647,0,0,1,1,2,2,3,3,4,4,5,5,6,6,7,7,8,8,9,9,10,10,11,11,12,12,13,13,14,14,15,15,16,16,17,17,18,18,19,19,20,20,21,21,22,22,23,23,24,24,25,25,26,26,27,27,28,28,29,29,30,30],"right_children":[2,4,6,8,10,12,14,16,18,20,22,24,26,28,30,32,34,36,38,40,42,44,46,48,50,52,54,56,58,60,62,-1,-1,-1,-1,-1,-1,-1,-1,-1,-1,-1,-1,-1,-1,-1,-1,-1,-1,-1,-1,-1,-1,-1,-1,-1,-1,-1,-1,-1,-1,-1,-1],"split_conditions":[2.0837666E-1,3.0927835E-2,8.7128204E-1,1.0309278E-2,5.4868627E-1,5.425039E-1,3.290207E-1,2.9761904E-1,1.54639175E-2,2.9761904E-1,3.2923084E-2,3.2423812E-1,1.05897434E-1,2.5E-1,2.0618556E-2,4.642857E-1,5.952381E-1,7.380952E-1,3.952847E-1,1.6809131E-1,6.904762E-1,1.6467122E-2,1.4537303E-1,7.8571427E-1,3.5353535E-1,3.3580142E-1,1.1981592E-2,4.761905E-2,2.6708764E-1,3.7111893E-1,8.3333336E-2,-6.352957E-2,-9.4413115E-3,9.497133E-3,-2.2882763E-2,2.7935434E-2,1.1054907E-3,-1.8711368E-3,2.7741566E-2,-5.9422113E-2,-3.1468656E-2,-6.0274987E-3,-3.2160778E-2,2.5434433E-2,1.0835097E-1,9.377371E-3,-3.608992E-3,-3.1288367E-2,-5.5414535E-2,-3.714869E-2,-7.274192E-2,-5.5036426E-2,5.9991486E-2,-2.5162918E-2,-3.328001E-3,2.740559E-2,-9.5631644E-2,9.559924E-2,-1.3647805E-2,-4.277691E-2,7.336467E-2,6.3731745E-2,3.1275654E-3],"split_indices":[2,5,10,5,9,9,2,4,5,1,2,2,10,3,5,1,4,4,6,3,1,8,2,1,0,2,8,1,7,3,1,0,0,0,0,0,0,0,0,0,0,0,0,0,0,0,0,0,0,0,0,0,0,0,0,0,0,0,0,0,0,0,0],"split_type":[0,0,0,0,0,0,0,0,0,0,0,0,0,0,0,0,0,0,0,0,0,0,0,0,0,0,0,0,0,0,0,0,0,0,0,0,0,0,0,0,0,0,0,0,0,0,0,0,0,0,0,0,0,0,0,0,0,0,0,0,0,0,0],"sum_hessian":[2.5418037E4,2.0188166E4,5.2298726E3,7.4256104E3,1.2762555E4,4.441167E3,7.8870557E2,2.1545752E3,5.271035E3,1.02842295E4,2.4783252E3,3.538051E3,9.031159E2,4.4697943E2,3.4172617E2,3.410238E2,1.8135515E3,1.9225609E3,3.3484744E3,8.781413E2,9.406089E3,9.276544E1,2.3855598E3,2.857773E3,6.8027795E2,6.903241E1,8.340835E2,1.8196337E1,4.2878308E2,4.5083817E1,2.9664233E2,1.5888583E2,1.8213795E2,1.2201162E3,5.9343524E2,1.5550989E3,3.67462E2,2.71219E3,6.362843E2,2.5946756E2,6.1867377E2,8.346623E3,1.0594658E3,6.619134E1,2.6574102E1,1.6326288E3,7.5293085E2,2.1525068E3,7.052663E2,2.0031395E2,4.7996402E2,6.639839E1,2.634019E0,3.6453027E2,4.6955325E2,1.9476405E0,1.6248697E1,9.140127E0,4.1964294E2,3.457258E0,4.162656E1,2.4145634E1,2.724967E2],"tree_param":{"num_deleted":"0","num_feature":"11","num_nodes":"63","size_leaf_vector":"1"}},{"base_weights":[-8.010298E-2,-2.7820038E-2,-2.968646E-1,-4.3309145E-2,2.4145181E-1,-3.4991732E-1,-1.8260125E-2,-7.372834E-2,9.535119E-2,1.2896863E-1,4.3141714E-1,-5.7299036E-1,-2.9920965E-1,-1.0529127E-1,2.2535767E-1,-2.4567863E-1,-4.180984E-2,3.2012412E-1,6.309666E-2,3.5001558E-1,3.207286E-2,9.121931E-1,8.006718E-2,-5.292947E-1,-9.226398E-1,-2.0492607E-1,-5.191945E-1,-1.99748E-1,3.1630173E-1,2.742233E-1,-7.2007453E-1,-4.3535527E-2,-1.8235698E-2,-9.181897E-6,-2.22639E-2,9.5930286E-2,2.7475705E-2,3.9750095E-2,5.137091E-3,1.9076576E-2,7.180888E-2,1.09919594E-4,3.847536E-2,1.08177386E-1,-1.6692115E-3,-1.0170093E-2,5.0684877E-2,-5.4584783E-2,1.3789946E-4,-9.3301915E-2,-1.7010257E-2,-2.5181337E-3,-2.6868284E-2,-4.8680805E-2,-8.6542875E-2,-3.388579E-2,-1.8110753E-3,-3.969088E-2,4.6341408E-2,4.0259548E-2,-3.0417643E-3,7.041299E-3,-8.644359E-2],"categories":[],"categories_nodes":[],"categories_segments":[],"categories_sizes":[],"default_left":[0,0,0,0,0,0,0,0,0,0,0,0,0,0,0,0,0,0,0,0,0,0,0,0,0,0,0,0,0,0,0,0,0,0,0,0,0,0,0,0,0,0,0,0,0,0,0,0,0,0,0,0,0,0,0,0,0,0,0,0,0,0,0],"id":23,"left_children":[1,3,5,7,9,11,13,15,17,19,21,23,25,27,29,31,33,35,37,39,41,43,45,47,49,51,53,55,57,59,61,-1,-1,-1,-1,-1,-1,-1,-1,-1,-1,-1,-1,-1,-1,-1,-1,-1,-1,-1,-1,-1,-1,-1,-1,-1,-1,-1,-1,-1,-1,-1,-1],"loss_changes":[2.8566895E2,8.47199E1,7.239609E1,8.101822E1,2.3553032E1,4.637271E1,1.6659573E1,8.643996E1,2.50342E1,1.4882889E1,6.9266045E1,1.1137192E1,6.9474915E1,2.311176E1,9.752849E0,2.9537125E1,1.0023169E2,1.2303604E1,1.1834429E1,1.2278412E1,5.29262E0,2.7305573E1,1.8535427E1,5.9643555E0,4.8999023E-1,2.6923698E1,1.08559265E1,1.1956755E1,1.133989E1,7.732416E0,1.2530446E0,0E0,0E0,0E0,0E0,0E0,0E0,0E0,0E0,0E0,0E0,0E0,0E0,0E0,0E0,0E0,0E0,0E0,0E0,0E0,0E0,0E0,0E0,0E0,0E0,0E0,0E0,0E0,0E0,0E0,0E0,0E0,0E0],"parents":[2147483647,0,0,1,1,2,2,3,3,4,4,5,5,6,6,7,7,8,8,9,9,10,10,11,11,12,12,13,13,14,14,15,15,16,16,17,17,18,18,19,19,20,20,21,21,22,22,23,23,24,24,25,25,26,26,27,27,28,28,29,29,30,30],"right_children":[2,4,6,8,10,12,14,16,18,20,22,24,26,28,30,32,34,36,38,40,42,44,46,48,50,52,54,56,58,60,62,-1,-1,-1,-1,-1,-1,-1,-1,-1,-1,-1,-1,-1,-1,-1,-1,-1,-1,-1,-1,-1,-1,-1,-1,-1,-1,-1,-1,-1,-1,-1,-1],"split_conditions":[2.1222115E-1,8.992308E-1,8.671795E-1,5.425039E-1,3.6017358E-1,1.904762E-1,5.0833587E-2,2.7885795E-1,4.0297512E-2,2.0618556E-2,9.228205E-1,3.7553778E-1,7.8571427E-1,5.8247787E-1,7.150175E-1,2.6190478E-1,7.111041E-1,2.120273E-2,5.517774E-1,8.862765E-2,9.141414E-1,7.080588E-1,5.9736425E-1,6.800618E-1,6.4577496E-1,3.0927835E-2,3.928155E-1,2.8111386E-1,5.285935E-1,6.7171717E-1,8.874359E-1,-4.3535527E-2,-1.8235698E-2,-9.181897E-6,-2.22639E-2,9.5930286E-2,2.7475705E-2,3.9750095E-2,5.137091E-3,1.9076576E-2,7.180888E-2,1.09919594E-4,3.847536E-2,1.08177386E-1,-1.6692115E-3,-1.0170093E-2,5.0684877E-2,-5.4584783E-2,1.3789946E-4,-9.3301915E-2,-1.7010257E-2,-2.5181337E-3,-2.6868284E-2,-4.8680805E-2,-8.6542875E-2,-3.388579E-2,-1.8110753E-3,-3.969088E-2,4.6341408E-2,4.0259548E-2,-3.0417643E-3,7.041299E-3,-8.644359E-2],"split_indices":[2,10,10,9,6,1,8,3,2,5,10,2,1,2,6,1,3,2,9,2,0,3,3,9,7,5,2,6,9,0,10,0,0,0,0,0,0,0,0,0,0,0,0,0,0,0,0,0,0,0,0,0,0,0,0,0,0,0,0,0,0,0,0],"split_type":[0,0,0,0,0,0,0,0,0,0,0,0,0,0,0,0,0,0,0,0,0,0,0,0,0,0,0,0,0,0,0,0,0,0,0,0,0,0,0,0,0,0,0,0,0,0,0,0,0,0,0,0,0,0,0,0,0,0,0,0,0,0,0],"sum_hessian":[2.5206725E4,2.0309262E4,4.8974644E3,1.920537E4,1.1038921E3,4.1138354E3,7.8362885E2,1.5750511E4,3.454859E3,6.9440295E2,4.094891E2,7.600234E2,3.353812E3,5.777888E2,2.0584003E2,2.4649082E3,1.3285603E4,4.324284E2,3.0224304E3,