{"learner":{"attributes":{},"feature_names":["period","x-coordinate","y-coordinate","shot_distance","angle","isEmptyNet","coor_x_last_event","coor_y_last_event","time_last_event","distance_last_event","is_rebound","Change in shot angle","Speed","power_play_time","n_friend","n_oppose","period_second","game_second","last_event_type_Faceoff","last_event_type_Game Official","last_event_type_Giveaway","last_event_type_Goal","last_event_type_Hit","last_event_type_Missed Shot","last_event_type_Official Challenge","last_event_type_Penalty","last_event_type_Period End","last_event_type_Period Ready","last_event_type_Period Start","last_event_type_Shot","last_event_type_Stoppage","last_event_type_Takeaway","shotType_Deflected","shotType_Slap Shot","shotType_Snap Shot","shotType_Tip-In","shotType_Wrap-around","shotType_Wrist Shot"],"feature_types":["float","float","float","float","float","float","float","float","float","float","float","float","float","float","float","float","float","float","float","float","float","float","float","float","float","float","float","float","float","float","float","float","float","float","float","float","float","float"],"gradient_booster":{"model":{"gbtree_model_param":{"num_parallel_tree":"1","num_trees":"248"},"iteration_indptr":[0,1,2,3,4,5,6,7,8,9,10,11,12,13,14,15,16,17,18,19,20,21,22,23,24,25,26,27,28,29,30,31,32,33,34,35,36,37,38,39,40,41,42,43,44,45,46,47,48,49,50,51,52,53,54,55,56,57,58,59,60,61,62,63,64,65,66,67,68,69,70,71,72,73,74,75,76,77,78,79,80,81,82,83,84,85,86,87,88,89,90,91,92,93,94,95,96,97,98,99,100,101,102,103,104,105,106,107,108,109,110,111,112,113,114,115,116,117,118,119,120,121,122,123,124,125,126,127,128,129,130,131,132,133,134,135,136,137,138,139,140,141,142,143,144,145,146,147,148,149,150,151,152,153,154,155,156,157,158,159,160,161,162,163,164,165,166,167,168,169,170,171,172,173,174,175,176,177,178,179,180,181,182,183,184,185,186,187,188,189,190,191,192,193,194,195,196,197,198,199,200,201,202,203,204,205,206,207,208,209,210,211,212,213,214,215,216,217,218,219,220,221,222,223,224,225,226,227,228,229,230,231,232,233,234,235,236,237,238,239,240,241,242,243,244,245,246,247,248],"tree_info":[0,0,0,0,0,0,0,0,0,0,0,0,0,0,0,0,0,0,0,0,0,0,0,0,0,0,0,0,0,0,0,0,0,0,0,0,0,0,0,0,0,0,0,0,0,0,0,0,0,0,0,0,0,0,0,0,0,0,0,0,0,0,0,0,0,0,0,0,0,0,0,0,0,0,0,0,0,0,0,0,0,0,0,0,0,0,0,0,0,0,0,0,0,0,0,0,0,0,0,0,0,0,0,0,0,0,0,0,0,0,0,0,0,0,0,0,0,0,0,0,0,0,0,0,0,0,0,0,0,0,0,0,0,0,0,0,0,0,0,0,0,0,0,0,0,0,0,0,0,0,0,0,0,0,0,0,0,0,0,0,0,0,0,0,0,0,0,0,0,0,0,0,0,0,0,0,0,0,0,0,0,0,0,0,0,0,0,0,0,0,0,0,0,0,0,0,0,0,0,0,0,0,0,0,0,0,0,0,0,0,0,0,0,0,0,0,0,0,0,0,0,0,0,0,0,0,0,0,0,0,0,0,0,0,0,0,0,0,0,0,0,0,0,0,0,0,0,0],"trees":[{"base_weights":[-5.196092E-1,-5.4965466E-1,6.0660964E-1,-1.0946714E-1,-8.976273E-1,3.895414E-1,-2.5832888E-1,-6.985621E-1,-9.865669E-1,4.7693533E-1,-3.073655E-1,-5.7451266E-1,-1.7025425E-1,-7.576688E-1,-3.8059562E-1,-1.021644E0,-7.427668E-1,5.33411E-2,-7.6140985E-2,-7.4299924E-2,-1.9863833E-2,-6.452035E-2,-1.284844E-2,-2.9393402E-3,-5.0890118E-2,-1.014295E-1,-7.0852995E-2,-1.3282433E-2,-4.7010418E-2,-1.0506753E-1,-9.4911866E-2,-7.494808E-2,1.15763746E-1],"categories":[],"categories_nodes":[],"categories_segments":[],"categories_sizes":[],"default_left":[0,0,0,0,0,0,0,0,0,0,0,0,0,0,0,0,0,0,0,0,0,0,0,0,0,0,0,0,0,0,0,0,0],"id":0,"left_children":[1,3,-1,5,7,9,11,13,15,17,19,21,23,25,27,29,31,-1,-1,-1,-1,-1,-1,-1,-1,-1,-1,-1,-1,-1,-1,-1,-1],"loss_changes":[8.0281787E3,6.1839355E3,0E0,1.3242549E3,3.9851758E2,2.4962952E2,3.8226544E2,1.3063965E2,1.3249805E2,2.5498755E2,2.1499577E1,9.422296E1,5.1232886E2,7.334717E1,2.4199966E1,2.7676758E1,2.5921753E1,0E0,0E0,0E0,0E0,0E0,0E0,0E0,0E0,0E0,0E0,0E0,0E0,0E0,0E0,0E0,0E0],"parents":[2147483647,0,0,1,1,3,3,4,4,5,5,6,6,7,7,8,8,9,9,10,10,11,11,12,12,13,13,14,14,15,15,16,16],"right_children":[2,4,-1,6,8,10,12,14,16,18,20,22,24,26,28,30,32,-1,-1,-1,-1,-1,-1,-1,-1,-1,-1,-1,-1,-1,-1,-1,-1],"split_conditions":[1E0,1.5203229E-1,6.0660964E-1,2.0618556E-2,2.0837666E-1,1E0,4.047619E-1,5.425039E-1,5.425039E-1,1E0,2.6870257E-1,5.5641425E-1,5.952381E-1,2.1428572E-1,1.6727704E-1,1E0,1E0,5.33411E-2,-7.6140985E-2,-7.4299924E-2,-1.9863833E-2,-6.452035E-2,-1.284844E-2,-2.9393402E-3,-5.0890118E-2,-1.014295E-1,-7.0852995E-2,-1.3282433E-2,-4.7010418E-2,-1.0506753E-1,-9.4911866E-2,-7.494808E-2,1.15763746E-1],"split_indices":[5,3,0,8,3,22,2,13,13,30,4,13,2,2,3,33,32,0,0,0,0,0,0,0,0,0,0,0,0,0,0,0,0],"split_type":[0,0,0,0,0,0,0,0,0,0,0,0,0,0,0,0,0,0,0,0,0,0,0,0,0,0,0,0,0,0,0,0,0],"sum_hessian":[4.055509E4,4.0371824E4,1.832684E2,1.7824738E4,2.2547086E4,4.0952334E3,1.3729504E4,6.9655703E3,1.5581516E4,3.639187E3,4.5604636E2,2.990003E3,1.0739501E4,5.8725396E3,1.0930309E3,1.3618885E4,1.9626306E3,3.4810032E3,1.581838E2,8.992078E1,3.6612558E2,2.5805618E3,4.094411E2,7.5854204E3,3.1540808E3,9.406042E2,4.931935E3,2.907347E2,8.022962E2,9.7161045E3,3.902781E3,1.9563252E3,6.30542E0],"tree_param":{"num_deleted":"0","num_feature":"38","num_nodes":"33","size_leaf_vector":"1"}},{"base_weights":[-4.8675677E-1,-4.8463367E-2,-7.9664636E-1,-6.538993E-2,3.7278435E-1,-8.3460754E-1,3.760136E-1,3.6950678E-1,-2.076384E-1,-5.879622E-1,-9.398283E-1,4.3919432E-1,-2.4058336E-1,-4.788292E-1,-1.11318156E-1,-6.5115374E-1,-2.506175E-1,-9.779743E-1,-6.865401E-1,4.8488062E-2,-6.968404E-2,-5.5195715E-2,-6.72399E-3,-7.240036E-2,-3.7098803E-2,6.084851E-3,-3.9804846E-2,-1.0094794E-1,-6.039117E-2,3.483633E-2,-2.9798565E-2,-8.8340215E-2,-1.00998655E-1,-6.9385976E-2,1.1733996E-1],"categories":[],"categories_nodes":[],"categories_segments":[],"categories_sizes":[],"default_left":[0,0,0,0,0,0,0,0,0,0,0,0,0,0,0,0,0,0,0,0,0,0,0,0,0,0,0,0,0,0,0,0,0,0,0],"id":1,"left_children":[1,3,5,7,-1,9,-1,11,13,15,17,19,21,23,25,27,29,31,33,-1,-1,-1,-1,-1,-1,-1,-1,-1,-1,-1,-1,-1,-1,-1,-1],"loss_changes":[5.3191533E3,1.0371415E3,3.9716426E3,9.992004E2,0E0,5.899414E2,0E0,1.6935889E2,3.1785455E2,1.4493677E2,1.5341016E2,1.8579108E2,2.2024559E1,8.405896E1,4.434289E2,9.6423584E1,3.0618607E1,4.1060547E1,2.9277039E1,0E0,0E0,0E0,0E0,0E0,0E0,0E0,0E0,0E0,0E0,0E0,0E0,0E0,0E0,0E0,0E0],"parents":[2147483647,0,0,1,1,2,2,3,3,5,5,7,7,8,8,9,9,10,10,11,11,12,12,13,13,14,14,15,15,16,16,17,17,18,18],"right_children":[2,4,6,8,-1,10,-1,12,14,16,18,20,22,24,26,28,30,32,34,-1,-1,-1,-1,-1,-1,-1,-1,-1,-1,-1,-1,-1,-1,-1,-1],"split_conditions":[1.3869849E-1,1E0,1E0,2.0618556E-2,3.7278435E-1,1.9654329E-1,3.760136E-1,1E0,4.2857143E-1,5.425039E-1,5.425039E-1,1E0,1.0309278E-2,1.6809131E-1,5.714286E-1,2.1626413E-1,2.0618556E-2,2.3417053E-1,1E0,4.8488062E-2,-6.968404E-2,-5.5195715E-2,-6.72399E-3,-7.240036E-2,-3.7098803E-2,6.084851E-3,-3.9804846E-2,-1.0094794E-1,-6.039117E-2,3.483633E-2,-2.9798565E-2,-8.8340215E-2,-1.00998655E-1,-6.9385976E-2,1.1733996E-1],"split_indices":[3,5,5,8,0,3,0,22,2,13,13,30,8,4,2,4,8,3,35,0,0,0,0,0,0,0,0,0,0,0,0,0,0,0,0],"split_type":[0,0,0,0,0,0,0,0,0,0,0,0,0,0,0,0,0,0,0,0,0,0,0,0,0,0,0,0,0,0,0,0,0,0,0],"sum_hessian":[3.9161805E4,1.622089E4,2.2940912E4,1.6149486E4,7.140399E1,2.275219E4,1.8872444E2,3.9799546E3,1.2169531E4,6.8057056E3,1.5946482E4,3.5722014E3,4.0775308E2,3.188445E3,8.981087E3,5.731201E3,1.0745044E3,1.3856747E4,2.0897356E3,3.4346492E3,1.3755222E2,1.4503654E2,2.6271652E2,9.7227576E2,2.2161692E3,5.6120977E3,3.3689888E3,6.6521735E2,5.065984E3,7.827855E1,9.962259E2,3.5115051E3,1.0345242E4,2.082169E3,7.566686E0],"tree_param":{"num_deleted":"0","num_feature":"38","num_nodes":"35","size_leaf_vector":"1"}},{"base_weights":[-4.554939E-1,-7.493425E-2,-7.8830415E-1,3.119304E-1,-1.9994114E-1,-8.27821E-1,2.8952023E-1,3.7600997E-1,-2.5139686E-1,-2.165529E-1,2.8740072E-1,-6.2604916E-1,-9.218848E-1,4.1716364E-1,-6.902522E-1,-6.7893046E-1,-1.4103161E-1,4.204849E-3,-3.194853E-1,-6.847876E-1,-3.2586962E-1,-9.597133E-1,-6.6964185E-1,-4.0052045E-2,4.520103E-2,5.694598E-2,-8.367985E-2,-7.2878554E-2,4.7459103E-2,7.924671E-3,-5.208385E-2,6.00698E-3,-7.542871E-2,-6.9874644E-2,-2.6330888E-2,-9.53972E-2,-6.352507E-2,1.8392911E-2,-3.6421068E-2,-9.3123935E-2,-1.0547862E-1,-6.767031E-2,1.0875509E-1],"categories":[],"categories_nodes":[],"categories_segments":[],"categories_sizes":[],"default_left":[0,0,0,0,0,0,0,0,0,0,0,0,0,0,0,0,0,0,0,0,0,0,0,0,0,0,0,0,0,0,0,0,0,0,0,0,0,0,0,0,0,0,0],"id":2,"left_children":[1,3,5,7,9,11,-1,13,15,17,-1,19,21,23,25,27,29,31,33,35,37,39,41,-1,-1,-1,-1,-1,-1,-1,-1,-1,-1,-1,-1,-1,-1,-1,-1,-1,-1,-1,-1],"loss_changes":[4.791016E3,8.535864E2,2.939796E3,1.5569678E2,6.8178546E2,3.7837305E2,0E0,1.701372E2,2.0705061E1,3.0150958E2,0E0,1.11768555E2,1.2927734E2,1.0639081E2,2.7100533E1,5.5328293E0,2.9463076E1,1.7887645E2,1.9261646E2,7.0216064E1,2.0422356E1,3.10625E1,2.2808899E1,0E0,0E0,0E0,0E0,0E0,0E0,0E0,0E0,0E0,0E0,0E0,0E0,0E0,0E0,0E0,0E0,0E0,0E0,0E0,0E0],"parents":[2147483647,0,0,1,1,2,2,3,3,4,4,5,5,7,7,8,8,9,9,11,11,12,12,13,13,14,14,15,15,16,16,17,17,18,18,19,19,20,20,21,21,22,22],"right_children":[2,4,6,8,10,12,-1,14,16,18,-1,20,22,24,26,28,30,32,34,36,38,40,42,-1,-1,-1,-1,-1,-1,-1,-1,-1,-1,-1,-1,-1,-1,-1,-1,-1,-1,-1,-1],"split_conditions":[1.5203229E-1,2.0618556E-2,1E0,1E0,1E0,2.0837666E-1,2.8952023E-1,1E0,4.047619E-1,5.9402395E-2,2.8740072E-1,5.425039E-1,5.425039E-1,3.2142857E-1,3.328887E-2,1E0,6.431629E-1,1E0,2.2114207E-1,2.1428572E-1,2.0618556E-2,3.2423812E-1,1E0,-4.0052045E-2,4.520103E-2,5.694598E-2,-8.367985E-2,-7.2878554E-2,4.7459103E-2,7.924671E-3,-5.208385E-2,6.00698E-3,-7.542871E-2,-6.9874644E-2,-2.6330888E-2,-9.53972E-2,-6.352507E-2,1.8392911E-2,-3.6421068E-2,-9.3123935E-2,-1.0547862E-1,-6.767031E-2,1.0875509E-1],"split_indices":[3,8,5,22,5,3,0,30,2,3,0,13,13,2,3,33,4,36,4,2,8,3,32,0,0,0,0,0,0,0,0,0,0,0,0,0,0,0,0,0,0,0,0],"split_type":[0,0,0,0,0,0,0,0,0,0,0,0,0,0,0,0,0,0,0,0,0,0,0,0,0,0,0,0,0,0,0,0,0,0,0,0,0,0,0,0,0,0,0],"sum_hessian":[3.7827027E4,1.7648111E4,2.0178916E4,4.3095728E3,1.3338538E4,1.99655E4,2.1341542E2,3.8697188E3,4.3985385E2,1.3267768E4,7.0769714E1,6.350661E3,1.3614839E4,3.7264998E3,1.4321912E2,8.918966E1,3.5066418E2,4.219408E3,9.048359E3,5.3102744E3,1.0403868E3,1.1836874E4,1.7779657E3,1.5188818E2,3.5746116E3,1.4623429E1,1.2859569E2,8.584838E1,3.3412795E0,2.2244214E2,1.2822205E2,3.9308154E3,2.885929E2,1.1658634E3,7.882496E3,8.22502E2,4.4877725E3,7.25051E1,9.678817E2,9.11714E3,2.719734E3,1.7714625E3,6.503118E0],"tree_param":{"num_deleted":"0","num_feature":"38","num_nodes":"43","size_leaf_vector":"1"}},{"base_weights":[-4.257459E-1,-8.6760804E-2,-7.73723E-1,2.2476068E-1,-2.1655674E-1,-8.141166E-1,2.4181877E-1,3.17064E-1,-8.9942105E-2,-2.3131502E-1,2.4029116E-1,-6.672018E-1,-9.1627103E-1,-7.5105004E-2,3.7298673E-1,-1.0989011E-1,2.3958567E-1,-1.1183916E-1,-4.219044E-1,-7.241536E-1,-3.8361868E-1,-9.5035475E-1,-6.7878574E-1,3.5865426E-3,-5.485451E-2,-3.067722E-2,4.0790144E-2,-6.0571164E-2,-2.240032E-3,-4.1926906E-2,-4.3951976E-3,-4.9971938E-2,-2.0781825E-3,-9.2425846E-2,-6.7795254E-2,8.331647E-3,-4.1714508E-2,-9.8718494E-2,-8.690431E-2,-6.8761386E-2,9.3825884E-2],"categories":[],"categories_nodes":[],"categories_segments":[],"categories_sizes":[],"default_left":[0,0,0,0,0,0,0,0,0,0,0,0,0,0,0,0,0,0,0,0,0,0,0,0,0,0,0,0,0,0,0,0,0,0,0,0,0,0,0,0,0],"id":3,"left_children":[1,3,5,7,9,11,-1,13,15,17,-1,19,21,23,25,27,-1,29,31,33,35,37,39,-1,-1,-1,-1,-1,-1,-1,-1,-1,-1,-1,-1,-1,-1,-1,-1,-1,-1],"loss_changes":[4.313706E3,7.491137E2,2.3286348E3,1.5831287E2,5.061142E2,2.6684277E2,0E0,9.243506E1,6.1577034E1,2.9609003E2,0E0,1.17826904E2,8.4416016E1,2.7690935E1,8.765015E1,5.3240597E1,0E0,1.6684735E2,1.5639423E2,5.5661865E1,1.9214188E1,2.6654297E1,1.9523499E1,0E0,0E0,0E0,0E0,0E0,0E0,0E0,0E0,0E0,0E0,0E0,0E0,0E0,0E0,0E0,0E0,0E0,0E0],"parents":[2147483647,0,0,1,1,2,2,3,3,4,4,5,5,7,7,8,8,9,9,11,11,12,12,13,13,14,14,15,15,17,17,18,18,19,19,20,20,21,21,22,22],"right_children":[2,4,6,8,10,12,-1,14,16,18,-1,20,22,24,26,28,-1,30,32,34,36,38,40,-1,-1,-1,-1,-1,-1,-1,-1,-1,-1,-1,-1,-1,-1,-1,-1,-1,-1],"split_conditions":[1.6063693E-1,2.5773196E-2,1E0,1.07143775E-1,1E0,2.3110025E-1,2.4181877E-1,2.236068E-2,1E0,1.0346023E-1,2.4029116E-1,5.425039E-1,5.425039E-1,1E0,1.279194E-1,2.6514617E-1,2.3958567E-1,2.7443725E-1,5.425039E-1,2.1428572E-1,2.0618556E-2,1E0,1E0,3.5865426E-3,-5.485451E-2,-3.067722E-2,4.0790144E-2,-6.0571164E-2,-2.240032E-3,-4.1926906E-2,-4.3951976E-3,-4.9971938E-2,-2.0781825E-3,-9.2425846E-2,-6.7795254E-2,8.331647E-3,-4.1714508E-2,-9.8718494E-2,-8.690431E-2,-6.8761386E-2,9.3825884E-2],"split_indices":[3,8,5,3,5,3,0,9,5,3,0,13,13,30,4,4,0,4,13,2,8,33,35,0,0,0,0,0,0,0,0,0,0,0,0,0,0,0,0,0,0],"split_type":[0,0,0,0,0,0,0,0,0,0,0,0,0,0,0,0,0,0,0,0,0,0,0,0,0,0,0,0,0,0,0,0,0,0,0,0,0,0,0,0,0],"sum_hessian":[3.6569105E4,1.8524521E4,1.8044584E4,5.4480327E3,1.3076489E4,1.781982E4,2.2476456E2,4.212491E3,1.2355414E3,1.3004135E4,7.235417E1,7.3117974E3,1.0508022E4,5.256822E2,3.686809E3,1.2266539E3,8.887443E0,7.994297E3,5.009838E3,6.0876606E3,1.2241367E3,9.186566E3,1.3214562E3,4.2661038E2,9.907181E1,1.7973372E2,3.5070752E3,1.8309344E2,1.0435605E3,1.445066E3,6.549231E3,4.1956606E3,8.14177E2,1.1383298E3,4.949331E3,8.1904625E1,1.142232E3,6.3150176E3,2.8715486E3,1.3148533E3,6.6029215E0],"tree_param":{"num_deleted":"0","num_feature":"38","num_nodes":"41","size_leaf_vector":"1"}},{"base_weights":[-3.9741138E-1,-9.048629E-2,-7.554189E-1,2.2974974E-1,-1.9494815E-1,-7.965493E-1,2.1128285E-1,2.597896E-1,-6.8424827E-1,-2.0829447E-1,2.1160336E-1,-6.556455E-1,-8.8698393E-1,3.2002157E-1,-2.50642E-1,2.7722657E-1,-8.7816674E-1,-6.753689E-2,-3.6199796E-1,-7.1106005E-1,-3.8253564E-1,-9.226517E-1,-6.438853E-1,3.097028E-2,2.4859469E-1,-6.891696E-2,-1.5142821E-2,1.9744976E-1,3.2940356E-3,-8.920872E-2,4.0436484E-2,-1.11131575E-2,5.136285E-2,-4.3393422E-2,1.5229089E-3,-6.621749E-2,-9.442424E-2,-7.500637E-3,-4.563422E-2,-9.613218E-2,-8.380679E-2,-6.526937E-2,8.088569E-2],"categories":[],"categories_nodes":[],"categories_segments":[],"categories_sizes":[],"default_left":[0,0,0,0,0,0,0,0,0,0,0,0,0,0,0,0,0,0,0,0,0,0,0,0,0,0,0,0,0,0,0,0,0,0,0,0,0,0,0,0,0,0,0],"id":4,"left_children":[1,3,5,7,9,11,-1,13,15,17,-1,19,21,23,25,27,29,31,33,35,37,39,41,-1,-1,-1,-1,-1,-1,-1,-1,-1,-1,-1,-1,-1,-1,-1,-1,-1,-1,-1,-1],"loss_changes":[3.8890605E3,6.375686E2,1.9290244E3,1.2889302E2,4.4367273E2,2.0466211E2,0E0,1.3964594E2,2.8108559E1,3.091167E2,0E0,9.507861E1,8.4444824E1,8.9986694E1,2.0765465E1,1.0647739E1,2.585884E0,1.8905705E2,1.8535223E2,5.9064697E1,2.4135956E1,2.7159668E1,1.6628113E1,0E0,0E0,0E0,0E0,0E0,0E0,0E0,0E0,0E0,0E0,0E0,0E0,0E0,0E0,0E0,0E0,0E0,0E0,0E0,0E0],"parents":[2147483647,0,0,1,1,2,2,3,3,4,4,5,5,7,7,8,8,9,9,11,11,12,12,13,13,14,14,15,15,16,16,17,17,18,18,19,19,20,20,21,21,22,22],"right_children":[2,4,6,8,10,12,-1,14,16,18,-1,20,22,24,26,28,30,32,34,36,38,40,42,-1,-1,-1,-1,-1,-1,-1,-1,-1,-1,-1,-1,-1,-1,-1,-1,-1,-1,-1,-1],"split_conditions":[1.6727704E-1,2.0618556E-2,1E0,1E0,1E0,2.3110025E-1,2.1128285E-1,1E0,3.998837E-2,9.0698764E-2,2.1160336E-1,1E0,5.425039E-1,1E0,2.6870257E-1,2.120273E-2,1.0309278E-2,9.226603E-2,5.425039E-1,8.095238E-1,1.8270549E-1,1E0,1E0,3.097028E-2,2.4859469E-1,-6.891696E-2,-1.5142821E-2,1.9744976E-1,3.2940356E-3,-8.920872E-2,4.0436484E-2,-1.11131575E-2,5.136285E-2,-4.3393422E-2,1.5229089E-3,-6.621749E-2,-9.442424E-2,-7.500637E-3,-4.563422E-2,-9.613218E-2,-8.380679E-2,-6.526937E-2,8.088569E-2],"split_indices":[3,8,5,30,5,3,0,22,3,3,0,33,13,5,4,3,8,12,13,2,3,33,35,0,0,0,0,0,0,0,0,0,0,0,0,0,0,0,0,0,0,0,0],"split_type":[0,0,0,0,0,0,0,0,0,0,0,0,0,0,0,0,0,0,0,0,0,0,0,0,0,0,0,0,0,0,0,0,0,0,0,0,0,0,0,0,0,0,0],"sum_hessian":[3.539287E4,1.9056613E4,1.6336259E4,4.6870093E3,1.4369604E4,1.6106022E4,2.3023633E2,4.53856E3,1.4844943E2,1.4287998E4,8.1605354E1,6.299384E3,9.806639E3,4.0598628E3,4.7869727E2,2.4842432E1,1.23607E2,7.458838E3,6.8291597E3,5.2354863E3,1.0638976E3,8.549452E3,1.2571862E3,4.0417507E3,1.8112097E1,8.7221146E1,3.914761E2,2.234007E0,2.2608425E1,1.2258172E2,1.0252802E0,6.939127E3,5.19711E2,5.735304E3,1.0938556E3,4.331301E3,9.041855E2,2.0630753E2,8.5759E2,5.859997E3,2.6894556E3,1.2501575E3,7.0287194E0],"tree_param":{"num_deleted":"0","num_feature":"38","num_nodes":"43","size_leaf_vector":"1"}},{"base_weights":[-3.7047273E-1,-8.238302E-2,-7.245703E-1,1.7269787E-1,-1.9236836E-1,-7.6460975E-1,1.9000688E-1,2.2260694E-1,-2.7764663E-1,-2.0448706E-1,1.8889089E-1,-6.2163883E-1,-8.5816497E-1,-1.7704105E-1,3.0106378E-1,-3.8381237E-1,6.446497E-1,4.1640922E-2,-2.8460804E-1,-6.791537E-1,-3.4609008E-1,-8.954697E-1,-6.0977167E-1,-4.9820982E-2,2.7238358E-2,-6.8034097E-3,3.5660792E-2,-1.6807145E-2,-5.9758402E-2,1.0341161E-1,-1.0745933E-2,1.0436329E-2,-7.1933955E-2,-2.3904853E-2,-7.038893E-2,-7.206122E-2,-4.1657574E-2,-2.3996824E-2,-4.7208164E-2,-7.7357784E-2,-9.247917E-2,-6.185214E-2,7.033942E-2],"categories":[],"categories_nodes":[],"categories_segments":[],"categories_sizes":[],"default_left":[0,0,0,0,0,0,0,0,0,0,0,0,0,0,0,0,0,0,0,0,0,0,0,0,0,0,0,0,0,0,0,0,0,0,0,0,0,0,0,0,0,0,0],"id":5,"left_children":[1,3,5,7,9,11,-1,13,15,17,-1,19,21,23,25,27,29,31,33,35,37,39,41,-1,-1,-1,-1,-1,-1,-1,-1,-1,-1,-1,-1,-1,-1,-1,-1,-1,-1,-1,-1],"loss_changes":[3.4985503E3,5.3060583E2,1.6182832E3,1.2813533E2,3.3368796E2,2.0217188E2,0E0,1.6091238E2,5.595516E1,2.591134E2,0E0,9.482056E1,8.431152E1,1.2174288E2,8.794891E1,2.3458054E1,1.7424294E1,1.5412822E2,1.8918036E2,5.37063E1,1.3761826E1,2.773291E1,1.4210358E1,0E0,0E0,0E0,0E0,0E0,0E0,0E0,0E0,0E0,0E0,0E0,0E0,0E0,0E0,0E0,0E0,0E0,0E0,0E0,0E0],"parents":[2147483647,0,0,1,1,2,2,3,3,4,4,5,5,7,7,8,8,9,9,11,11,12,12,13,13,14,14,15,15,16,16,17,17,18,18,19,19,20,20,21,21,22,22],"right_children":[2,4,6,8,10,12,-1,14,16,18,-1,20,22,24,26,28,30,32,34,36,38,40,42,-1,-1,-1,-1,-1,-1,-1,-1,-1,-1,-1,-1,-1,-1,-1,-1,-1,-1,-1,-1],"split_conditions":[1.6727704E-1,2.5773196E-2,1E0,6.4285713E-1,1E0,2.3110025E-1,1.9000688E-1,4.047619E-1,5.425039E-1,5.4669693E-2,1.8889089E-1,5.425039E-1,5.425039E-1,4.7619048E-1,2.5E-2,6.0714287E-1,6.0714287E-1,1E0,7.951672E-1,1E0,1E0,2.5773196E-2,1E0,-4.9820982E-2,2.7238358E-2,-6.8034097E-3,3.5660792E-2,-1.6807145E-2,-5.9758402E-2,1.0341161E-1,-1.0745933E-2,1.0436329E-2,-7.1933955E-2,-2.3904853E-2,-7.038893E-2,-7.206122E-2,-4.1657574E-2,-2.3996824E-2,-4.7208164E-2,-7.7357784E-2,-9.247917E-2,-6.185214E-2,7.033942E-2],"split_indices":[3,8,5,2,5,3,0,2,13,3,0,13,13,7,9,7,7,36,4,33,37,8,35,0,0,0,0,0,0,0,0,0,0,0,0,0,0,0,0,0,0,0,0],"split_type":[0,0,0,0,0,0,0,0,0,0,0,0,0,0,0,0,0,0,0,0,0,0,0,0,0,0,0,0,0,0,0,0,0,0,0,0,0,0,0,0,0,0,0],"sum_hessian":[3.429511E4,1.8910764E4,1.5384344E4,5.6971665E3,1.3213597E4,1.5153877E4,2.3046681E2,5.1292314E3,5.6793506E2,1.3138E4,7.559669E1,5.9969697E3,9.156907E3,8.414967E2,4.287735E3,5.0983304E2,5.8102047E1,3.2265757E3,9.911425E3,4.960173E3,1.036797E3,7.9589834E3,1.1979242E3,4.9071478E2,3.5078192E2,5.608138E2,3.726921E3,2.5463908E2,2.5519395E2,3.8033463E1,2.0068583E1,2.9816807E3,2.4489513E2,8.941414E3,9.700104E2,4.2822925E3,6.778804E2,5.643562E2,4.7244083E2,1.5486465E3,6.410337E3,1.1905215E3,7.402787E0],"tree_param":{"num_deleted":"0","num_feature":"38","num_nodes":"43","size_leaf_vector":"1"}},{"base_weights":[-3.4485325E-1,-8.2943626E-2,-7.0520705E-1,3.1620357E-2,-3.0514067E-1,-7.449707E-1,1.7433195E-1,2.5369683E-1,-6.207359E-2,-8.1509584E-1,-2.5167733E-1,-7.9335207E-1,-4.696699E-1,1.3044854E0,2.3564024E-1,-7.374212E-2,1.7513637E-1,-8.5759807E-1,-2.3045184E-1,-1.8939994E-1,-7.0119923E-1,-6.6730225E-1,-8.7136376E-1,-3.687781E-1,-6.23196E-1,1.5817946E-1,-3.2462165E-2,8.853844E-3,3.469806E-2,-3.6646325E-2,-1.0381908E-3,-9.009441E-2,-6.605626E-2,1.2577425E-1,-3.3079375E-2,-2.0198774E-2,1.7791335E-1,-2.09207E-2,-7.909932E-2,-5.3718247E-2,-7.491013E-2,-9.154143E-2,-7.7728055E-2,7.324736E-3,-3.9932236E-2,-6.344015E-2,7.0370756E-2],"categories":[],"categories_nodes":[],"categories_segments":[],"categories_sizes":[],"default_left":[0,0,0,0,0,0,0,0,0,0,0,0,0,0,0,0,0,0,0,0,0,0,0,0,0,0,0,0,0,0,0,0,0,0,0,0,0,0,0,0,0,0,0,0,0,0,0],"id":6,"left_children":[1,3,5,7,9,11,-1,13,15,17,19,21,23,25,27,29,-1,31,33,35,37,39,41,43,45,-1,-1,-1,-1,-1,-1,-1,-1,-1,-1,-1,-1,-1,-1,-1,-1,-1,-1,-1,-1,-1,-1],"loss_changes":[3.1410383E3,4.9065515E2,1.3651431E3,2.646481E2,1.7856677E2,1.8323193E2,0E0,7.1296036E1,1.8941298E2,1.5251282E1,1.6605524E2,1.14691895E2,3.1722382E1,2.9216988E1,6.0755127E1,1.6486163E2,0E0,4.350525E0,6.911879E0,1.295922E2,3.1729248E1,4.7342285E1,2.928418E1,1.6869598E1,1.2588135E1,0E0,0E0,0E0,0E0,0E0,0E0,0E0,0E0,0E0,0E0,0E0,0E0,0E0,0E0,0E0,0E0,0E0,0E0,0E0,0E0,0E0,0E0],"parents":[2147483647,0,0,1,1,2,2,3,3,4,4,5,5,7,7,8,8,9,9,10,10,11,11,12,12,13,13,14,14,15,15,17,17,18,18,19,19,20,20,21,21,22,22,23,23,24,24],"right_children":[2,4,6,8,10,12,-1,14,16,18,20,22,24,26,28,30,-1,32,34,36,38,40,42,44,46,-1,-1,-1,-1,-1,-1,-1,-1,-1,-1,-1,-1,-1,-1,-1,-1,-1,-1,-1,-1,-1,-1],"split_conditions":[1.7248961E-1,1.085098E-1,1E0,2.0618556E-2,1.9440012E-1,5.425039E-1,1.7433195E-1,2.120273E-2,1E0,6.228748E-1,7.852233E-1,2.3417053E-1,2.5658736E-1,1E0,1.0309278E-2,2.7443725E-1,1.7513637E-1,2.5E-1,6.275116E-1,1E0,1E0,1E0,1E0,2.0618556E-2,1E0,1.5817946E-1,-3.2462165E-2,8.853844E-3,3.469806E-2,-3.6646325E-2,-1.0381908E-3,-9.009441E-2,-6.605626E-2,1.2577425E-1,-3.3079375E-2,-2.0198774E-2,1.7791335E-1,-2.09207E-2,-7.909932E-2,-5.3718247E-2,-7.491013E-2,-9.154143E-2,-7.7728055E-2,7.324736E-3,-3.9932236E-2,-6.344015E-2,7.0370756E-2],"split_indices":[3,3,5,8,4,13,0,3,5,13,4,3,3,36,8,4,0,2,13,5,15,37,33,8,35,0,0,0,0,0,0,0,0,0,0,0,0,0,0,0,0,0,0,0,0,0,0],"split_type":[0,0,0,0,0,0,0,0,0,0,0,0,0,0,0,0,0,0,0,0,0,0,0,0,0,0,0,0,0,0,0,0,0,0,0,0,0,0,0,0,0,0,0,0,0,0,0],"sum_hessian":[3.3280344E4,1.9273416E4,1.4006928E4,1.2717284E4,6.556132E3,1.3783777E4,2.2315016E2,3.7729104E3,8.944374E3,6.2076404E2,5.9353677E3,1.1721888E4,2.0618904E3,6.2533405E1,3.710377E3,8.888144E3,5.6230743E1,5.782575E2,4.250652E1,5.2143833E3,7.209845E2,4.484875E3,7.237012E3,1.2462853E3,8.156051E2,5.3462578E1,9.0708275E0,1.5992576E3,2.1111194E3,1.5806798E3,7.3074634E3,4.710528E2,1.0720473E2,1.9557528E0,4.0550766E1,5.182144E3,3.2239304E1,1.1179375E2,6.091908E2,1.7340515E3,2.7508237E3,4.923192E3,2.3138203E3,8.046043E1,1.1658248E3,8.092934E2,6.3116903E0],"tree_param":{"num_deleted":"0","num_feature":"38","num_nodes":"47","size_leaf_vector":"1"}},{"base_weights":[-3.2051837E-1,-7.54673E-2,-6.755466E-1,2.1817362E-2,-2.9623866E-1,-7.139137E-1,1.6234507E-1,2.2250088E-1,-6.288617E-2,-7.590614E-1,-2.4087912E-1,-7.6355267E-1,-4.3914703E-1,-3.5842392E-1,2.500629E-1,-7.366686E-2,1.6290289E-1,-8.169567E-1,-2.0785119E-1,-1.6712496E-1,-6.326358E-1,-5.793619E-1,-8.2040054E-1,-3.4185532E-1,-5.9027576E-1,1.6801143E-3,-6.30293E-2,3.2698773E-2,-1.9119775E-3,-3.2105636E-2,-4.1323883E-4,-8.233907E-2,1.2463106E-1,-3.2135304E-2,1.2538408E-1,-1.7838165E-2,1.6370237E-1,-7.0865266E-2,-2.1566136E-2,-3.4227625E-2,-6.5147005E-2,-7.833167E-2,-9.480907E-2,-3.4864027E-2,1.6326563E-1,-6.0139485E-2,6.1877973E-2],"categories":[],"categories_nodes":[],"categories_segments":[],"categories_sizes":[],"default_left":[0,0,0,0,0,0,0,0,0,0,0,0,0,0,0,0,0,0,0,0,0,0,0,0,0,0,0,0,0,0,0,0,0,0,0,0,0,0,0,0,0,0,0,0,0,0,0],"id":7,"left_children":[1,3,5,7,9,11,-1,13,15,17,19,21,23,25,27,29,-1,31,33,35,37,39,41,43,45,-1,-1,-1,-1,-1,-1,-1,-1,-1,-1,-1,-1,-1,-1,-1,-1,-1,-1,-1,-1,-1,-1],"loss_changes":[2.8136135E3,4.109859E2,1.1660728E3,2.2580971E2,1.497799E2,1.768457E2,0E0,6.321797E1,1.7050728E2,1.9769196E1,1.5098346E2,1.1471875E2,2.9059296E1,1.8271164E1,7.796161E1,1.5969046E2,0E0,8.527557E0,1.0477905E1,8.9690384E1,2.6095642E1,4.419214E1,3.9053223E1,1.6819595E1,1.0831696E1,0E0,0E0,0E0,0E0,0E0,0E0,0E0,0E0,0E0,0E0,0E0,0E0,0E0,0E0,0E0,0E0,0E0,0E0,0E0,0E0,0E0,0E0],"parents":[2147483647,0,0,1,1,2,2,3,3,4,4,5,5,7,7,8,8,9,9,10,10,11,11,12,12,13,13,14,14,15,15,17,17,18,18,19,19,20,20,21,21,22,22,23,23,24,24],"right_children":[2,4,6,8,10,12,-1,14,16,18,20,22,24,26,28,30,-1,32,34,36,38,40,42,44,46,-1,-1,-1,-1,-1,-1,-1,-1,-1,-1,-1,-1,-1,-1,-1,-1,-1,-1,-1,-1,-1,-1],"split_conditions":[1.7248961E-1,1.14288166E-1,1E0,2.0618556E-2,2.1626413E-1,5.425039E-1,1.6234507E-1,1.279194E-1,1E0,5.935085E-1,7.555838E-1,2.0837666E-1,2.5658736E-1,3.1560284E-1,5.714286E-1,4.2857143E-1,1.6290289E-1,1E0,7.4803695E-2,1E0,5.425039E-1,3.0927835E-2,3.2423812E-1,1E0,1E0,1.6801143E-3,-6.30293E-2,3.2698773E-2,-1.9119775E-3,-3.2105636E-2,-4.1323883E-4,-8.233907E-2,1.2463106E-1,-3.2135304E-2,1.2538408E-1,-1.7838165E-2,1.6370237E-1,-7.0865266E-2,-2.1566136E-2,-3.4227625E-2,-6.5147005E-2,-7.833167E-2,-9.480907E-2,-3.4864027E-2,1.6326563E-1,-6.0139485E-2,6.1877973E-2],"split_indices":[3,3,5,8,4,13,0,4,5,13,4,3,3,11,2,2,0,35,12,5,13,8,3,32,35,0,0,0,0,0,0,0,0,0,0,0,0,0,0,0,0,0,0,0,0,0,0],"split_type":[0,0,0,0,0,0,0,0,0,0,0,0,0,0,0,0,0,0,0,0,0,0,0,0,0,0,0,0,0,0,0,0,0,0,0,0,0,0,0,0,0,0,0,0,0,0,0],"sum_hessian":[3.233996E4,1.9134188E4,1.3205773E4,1.3282184E4,5.852004E3,1.2989684E4,2.1609009E2,3.9417034E3,9.34048E3,6.238338E2,5.22817E3,1.1000556E4,1.9891279E3,1.7799803E2,3.7637053E3,9.282292E3,5.8188694E1,5.6410065E2,5.9733124E1,4.4010366E3,8.271331E2,2.597073E3,8.403482E3,1.2120918E3,7.7703613E2,7.517642E1,1.0282161E2,2.9270315E3,8.366739E2,2.035778E3,7.246514E3,5.629466E2,1.1540697E0,5.615358E1,3.5795472E0,4.3746436E3,2.6393188E1,6.989995E2,1.2813365E2,6.07016E2,1.990057E3,6.517742E3,1.8857401E3,1.2087621E3,3.3296764E0,7.7045404E2,6.5820622E0],"tree_param":{"num_deleted":"0","num_feature":"38","num_nodes":"47","size_leaf_vector":"1"}},{"base_weights":[-2.9744223E-1,-6.8628214E-2,-6.461934E-1,3.2305904E-2,-2.4783401E-1,-6.83044E-1,1.5290253E-1,9.374912E-2,-2.3802295E-1,-7.312162E-1,-2.0112458E-1,-7.338269E-1,-4.0972865E-1,-1.757394E-1,1.983014E-1,-3.0469543E-1,1.7262615E-1,-7.7698225E-1,-1.4994715E-1,-1.4973255E-1,-6.652032E-1,-6.013995E-1,-8.1861335E-1,-2.4738282E-1,-4.9566594E-1,-2.3296451E-2,3.1359922E-2,1.4230198E-2,4.7739677E-2,-1.5087524E-2,-5.091796E-2,-4.5445263E-3,4.083457E-2,-8.324065E-2,-4.6898685E-2,1.11321844E-1,-2.3872327E-2,-1.606154E-2,1.5747665E-1,-1.8496031E-2,-7.528747E-2,-6.4678974E-2,-3.3715405E-2,-6.70295E-2,-8.548841E-2,-2.1211479E-2,-6.8579525E-2,-5.040275E-2,6.51934E-2],"categories":[],"categories_nodes":[],"categories_segments":[],"categories_sizes":[],"default_left":[0,0,0,0,0,0,0,0,0,0,0,0,0,0,0,0,0,0,0,0,0,0,0,0,0,0,0,0,0,0,0,0,0,0,0,0,0,0,0,0,0,0,0,0,0,0,0,0,0],"id":8,"left_children":[1,3,5,7,9,11,-1,13,15,17,19,21,23,25,27,29,31,33,35,37,39,41,43,45,47,-1,-1,-1,-1,-1,-1,-1,-1,-1,-1,-1,-1,-1,-1,-1,-1,-1,-1,-1,-1,-1,-1,-1,-1],"loss_changes":[2.5114104E3,3.4376996E2,1.0004741E3,2.0197147E2,1.5446039E2,1.6988037E2,0E0,2.7918253E2,6.1709625E1,1.5923828E1,1.4885666E2,1.1559033E2,2.6712067E1,7.763582E1,1.1150116E2,6.0873184E1,1.6221024E1,9.146332E0,5.339445E0,1.0580365E2,2.6064636E1,4.822986E1,3.3318848E1,1.0178581E1,1.2387512E1,0E0,0E0,0E0,0E0,0E0,0E0,0E0,0E0,0E0,0E0,0E0,0E0,0E0,0E0,0E0,0E0,0E0,0E0,0E0,0E0,0E0,0E0,0E0,0E0],"parents":[2147483647,0,0,1,1,2,2,3,3,4,4,5,5,7,7,8,8,9,9,10,10,11,11,12,12,13,13,14,14,15,15,16,16,17,17,18,18,19,19,20,20,21,21,22,22,23,23,24,24],"right_children":[2,4,6,8,10,12,-1,14,16,18,20,22,24,26,28,30,32,34,36,38,40,42,44,46,48,-1,-1,-1,-1,-1,-1,-1,-1,-1,-1,-1,-1,-1,-1,-1,-1,-1,-1,-1,-1,-1,-1,-1,-1],"split_conditions":[1.7248961E-1,1.0346023E-1,1E0,5.833333E-1,1.9440012E-1,5.425039E-1,1.5290253E-1,4.4047618E-1,5.425039E-1,6.228748E-1,8.0256844E-1,2.3417053E-1,2.1606232E-1,1E0,8.7268434E-2,7.951672E-1,6.2245417E-1,2.6190478E-1,4.272002E-2,1E0,1E0,1E0,2.5773196E-2,8.452381E-1,1E0,-2.3296451E-2,3.1359922E-2,1.4230198E-2,4.7739677E-2,-1.5087524E-2,-5.091796E-2,-4.5445263E-3,4.083457E-2,-8.324065E-2,-4.6898685E-2,1.11321844E-1,-2.3872327E-2,-1.606154E-2,1.5747665E-1,-1.8496031E-2,-7.528747E-2,-6.4678974E-2,-3.3715405E-2,-6.70295E-2,-8.548841E-2,-2.1211479E-2,-6.8579525E-2,-5.040275E-2,6.51934E-2],"split_indices":[3,3,5,2,4,13,0,2,13,13,4,3,3,34,12,4,11,2,9,5,15,33,8,2,35,0,0,0,0,0,0,0,0,0,0,0,0,0,0,0,0,0,0,0,0,0,0,0,0],"split_type":[0,0,0,0,0,0,0,0,0,0,0,0,0,0,0,0,0,0,0,0,0,0,0,0,0,0,0,0,0,0,0,0,0,0,0,0,0,0,0,0,0,0,0,0,0,0,0,0,0],"sum_hessian":[3.1471209E4,1.9003982E4,1.2467225E4,1.2157389E4,6.846594E3,1.226021E4,2.070153E2,9.906411E3,2.2509775E3,6.0199976E2,6.2445947E3,1.0337737E4,1.9224728E3,2.768858E3,7.137553E3,1.936784E3,3.1419342E2,5.577472E2,4.4252525E1,5.623206E3,6.213888E2,4.0383584E3,6.2993784E3,6.667647E2,1.2557081E3,2.4794297E3,2.8942807E2,5.9460205E3,1.1915331E3,1.1063165E3,8.304675E2,1.6362335E2,1.5057007E2,4.7124075E2,8.650645E1,2.1473742E0,4.2105152E1,5.5888438E3,3.4362267E1,9.6408356E1,5.249804E2,3.4451267E3,5.932315E2,1.2416256E3,5.057753E3,6.18496E2,4.8268745E1,1.2471826E3,8.525465E0],"tree_param":{"num_deleted":"0","num_feature":"38","num_nodes":"49","size_leaf_vector":"1"}},{"base_weights":[-2.7556026E-1,-6.2420096E-2,-6.171359E-1,1.2992257E-1,-1.495066E-1,-6.5237844E-1,1.4529659E-1,1.212209E-1,1.9076136E-1,-1.09048225E-1,-5.182123E-1,-7.0414644E-1,-3.8159707E-1,7.316905E-2,4.3178782E-1,-3.994105E-1,-3.598614E-2,-5.971253E-1,-5.764243E-2,-5.697947E-1,-7.918868E-1,-2.9029587E-1,-5.324538E-1,1.1480198E-2,-3.1398106E-2,3.2830436E-2,9.2681214E-2,-4.8393045E-2,2.5903825E-3,-4.570748E-3,1.485113E-1,-4.0184464E-2,-7.0354596E-2,5.8514886E-3,-5.7462897E-2,-5.16992E-2,-8.125622E-2,-8.4502704E-2,-6.801394E-2,1.2543005E-2,-3.201901E-2,-4.749195E-2,-7.568901E-2],"categories":[],"categories_nodes":[],"categories_segments":[],"categories_sizes":[],"default_left":[0,0,0,0,0,0,0,0,0,0,0,0,0,0,0,0,0,0,0,0,0,0,0,0,0,0,0,0,0,0,0,0,0,0,0,0,0,0,0,0,0,0,0],"id":9,"left_children":[1,3,5,7,9,11,-1,13,-1,15,17,19,21,23,25,27,29,31,33,35,37,39,41,-1,-1,-1,-1,-1,-1,-1,-1,-1,-1,-1,-1,-1,-1,-1,-1,-1,-1,-1,-1],"loss_changes":[2.2337153E3,3.1650354E2,8.610161E2,9.08634E1,1.9395691E2,1.62229E2,0E0,8.7439606E1,0E0,2.486455E2,4.669638E1,1.1425195E2,2.5500397E1,8.1871765E1,3.991635E1,8.471677E1,1.3856175E2,2.2526123E1,1.1395078E1,4.8901978E1,3.436328E1,1.4489044E1,8.692398E0,0E0,0E0,0E0,0E0,0E0,0E0,0E0,0E0,0E0,0E0,0E0,0E0,0E0,0E0,0E0,0E0,0E0,0E0,0E0,0E0],"parents":[2147483647,0,0,1,1,2,2,3,3,4,4,5,5,7,7,9,9,10,10,11,11,12,12,13,13,14,14,15,15,16,16,17,17,18,18,19,19,20,20,21,21,22,22],"right_children":[2,4,6,8,10,12,-1,14,-1,16,18,20,22,24,26,28,30,32,34,36,38,40,42,-1,-1,-1,-1,-1,-1,-1,-1,-1,-1,-1,-1,-1,-1,-1,-1,-1,-1,-1,-1],"split_conditions":[1.7248961E-1,2.5773196E-2,1E0,1E0,7.8958344E-1,5.425039E-1,1.4529659E-1,5.425039E-1,1.9076136E-1,3.809524E-1,5.4868627E-1,2.3417053E-1,2.5792503E-1,6.4285713E-1,6.174638E-1,5.5641425E-1,1E0,6.541924E-2,7.9761904E-1,8.095238E-1,1E0,2.0618556E-2,7.7380955E-1,1.1480198E-2,-3.1398106E-2,3.2830436E-2,9.2681214E-2,-4.8393045E-2,2.5903825E-3,-4.570748E-3,1.485113E-1,-4.0184464E-2,-7.0354596E-2,5.8514886E-3,-5.7462897E-2,-5.16992E-2,-8.125622E-2,-8.4502704E-2,-6.801394E-2,1.2543005E-2,-3.201901E-2,-4.749195E-2,-7.568901E-2],"split_indices":[3,8,5,5,4,13,0,13,0,2,13,3,3,2,11,13,5,3,2,2,33,8,2,0,0,0,0,0,0,0,0,0,0,0,0,0,0,0,0,0,0,0,0],"split_type":[0,0,0,0,0,0,0,0,0,0,0,0,0,0,0,0,0,0,0,0,0,0,0,0,0,0,0,0,0,0,0,0,0,0,0,0,0,0,0,0,0,0,0],"sum_hessian":[3.0680982E4,1.8893062E4,1.1787919E4,5.888029E3,1.3005034E4,1.1591268E4,1.966509E2,5.8604116E3,2.7617544E1,1.1720259E4,1.2847753E3,9.729563E3,1.8617041E3,5.0762393E3,7.841722E2,2.3553162E3,9.364943E3,1.0965895E3,1.8818575E2,3.8467559E3,5.882808E3,1.1616086E3,7.000955E2,4.5839966E3,4.922428E2,6.499642E2,1.3420802E2,1.9647405E3,3.905756E2,9.306437E3,5.8506783E1,3.8849365E2,7.080958E2,1.543835E2,3.380224E1,3.1621182E3,6.8463776E2,3.982437E3,1.900371E3,7.770941E1,1.0838992E3,5.597293E2,1.4036621E2],"tree_param":{"num_deleted":"0","num_feature":"38","num_nodes":"43","size_leaf_vector":"1"}},{"base_weights":[-2.549251E-1,-6.8770945E-2,-6.122842E-1,2.0448731E-2,-2.520373E-1,-6.485335E-1,1.3904439E-1,1.239159E-2,1.5686035E-1,-6.963571E-1,-2.0355664E-1,-7.0020777E-1,-3.8258022E-1,-2.628927E-1,5.4367162E-2,-3.2754847E-1,-7.6539135E-1,-1.4463122E-1,-5.95319E-1,-5.9574306E-1,-7.798457E-1,-3.8983703E-1,1.2549438E0,-3.385299E-2,2.1809539E-2,1.39571605E-2,-1.7912067E-2,1.1617071E-3,-5.5269092E-2,-7.738166E-2,1.4170401E-1,-2.2546334E-2,4.112784E-3,-6.7178E-2,-3.289678E-3,-6.480844E-2,-3.436547E-2,-6.148482E-2,-8.21512E-2,-3.1223092E-2,-5.164374E-2,1.9327463E-1,-1.3212905E-3],"categories":[],"categories_nodes":[],"categories_segments":[],"categories_sizes":[],"default_left":[0,0,0,0,0,0,0,0,0,0,0,0,0,0,0,0,0,0,0,0,0,0,0,0,0,0,0,0,0,0,0,0,0,0,0,0,0,0,0,0,0,0,0],"id":10,"left_children":[1,3,5,7,9,11,-1,13,-1,15,17,19,21,23,25,27,29,31,33,35,37,39,41,-1,-1,-1,-1,-1,-1,-1,-1,-1,-1,-1,-1,-1,-1,-1,-1,-1,-1,-1,-1],"loss_changes":[1.9922014E3,3.2198465E2,7.455383E2,1.6519368E2,1.3874716E2,1.381958E2,0E0,1.5228264E2,0E0,1.5887512E1,1.34147E2,6.970801E1,1.9992935E1,6.350844E1,2.2751195E2,7.772564E0,1.09001465E1,7.592508E1,3.2657166E1,4.797644E1,3.2375732E1,1.5900482E1,6.4553337E0,0E0,0E0,0E0,0E0,0E0,0E0,0E0,0E0,0E0,0E0,0E0,0E0,0E0,0E0,0E0,0E0,0E0,0E0,0E0,0E0],"parents":[2147483647,0,0,1,1,2,2,3,3,4,4,5,5,7,7,9,9,10,10,11,11,12,12,13,13,14,14,15,15,16,16,17,17,18,18,19,19,20,20,21,21,22,22],"right_children":[2,4,6,8,10,12,-1,14,-1,16,18,20,22,24,26,28,30,32,34,36,38,40,42,-1,-1,-1,-1,-1,-1,-1,-1,-1,-1,-1,-1,-1,-1,-1,-1,-1,-1,-1,-1],"split_conditions":[1.843423E-1,1.14288166E-1,1E0,1E0,2.1626413E-1,5.425039E-1,1.3904439E-1,2.3435801E-1,1.5686035E-1,1E0,7.619048E-1,2.5050876E-1,1E0,5.425039E-1,5.714286E-1,1E0,1E0,4.603177E-2,1E0,1E0,2.5773196E-2,1E0,2.285279E-1,-3.385299E-2,2.1809539E-2,1.39571605E-2,-1.7912067E-2,1.1617071E-3,-5.5269092E-2,-7.738166E-2,1.4170401E-1,-2.2546334E-2,4.112784E-3,-6.7178E-2,-3.289678E-3,-6.480844E-2,-3.436547E-2,-6.148482E-2,-8.21512E-2,-3.1223092E-2,-5.164374E-2,1.9327463E-1,-1.3212905E-3],"split_indices":[3,3,5,5,4,13,0,4,0,15,2,3,32,13,2,37,35,12,33,33,8,37,9,0,0,0,0,0,0,0,0,0,0,0,0,0,0,0,0,0,0,0,0],"split_type":[0,0,0,0,0,0,0,0,0,0,0,0,0,0,0,0,0,0,0,0,0,0,0,0,0,0,0,0,0,0,0,0,0,0,0,0,0,0,0,0,0,0,0],"sum_hessian":[2.9946807E4,1.9690764E4,1.0256043E4,1.3244041E4,6.4467227E3,1.0074374E4,1.816695E2,1.3176475E4,6.756635E1,6.3289777E2,5.8138247E3,8.434022E3,1.6403513E3,1.7426351E3,1.143384E4,1.00696495E2,5.322013E2,5.0548853E3,7.589395E2,3.6520078E3,4.7820146E3,1.6338732E3,6.478104E0,1.5060944E3,2.3654079E2,8.377227E3,3.056613E3,4.0551582E1,6.0144913E1,5.3079803E2,1.4032481E0,3.5220671E3,1.5328182E3,6.679375E2,9.100201E1,3.022805E3,6.29203E2,9.67302E2,3.8147126E3,1.015094E3,6.1877924E2,3.880689E0,2.5974152E0],"tree_param":{"num_deleted":"0","num_feature":"38","num_nodes":"43","size_leaf_vector":"1"}},{"base_weights":[-2.3543634E-1,-6.250014E-2,-5.8398247E-1,1.1464944E-1,-1.4237802E-1,-6.184763E-1,1.3385664E-1,1.3526538E-1,-6.672336E-1,-1.9577222E-1,1.1853592E-1,-6.710498E-1,-3.5560834E-1,1.7774002E-1,-1.9388244E-1,1.7805916E-1,-8.402676E-1,-5.810975E-1,-1.5498026E-1,2.6066637E-1,-3.646579E-2,-5.971101E-1,-7.893797E-1,-2.6970384E-1,-4.791229E-1,-4.2960864E-2,1.9650724E-2,-5.3321637E-2,-7.831479E-3,-4.9077384E-3,1.7734496E-1,-8.656222E-2,3.400184E-2,-7.779991E-2,-4.5156885E-2,-8.928348E-3,-5.0091933E-2,1.13264754E-1,2.1785935E-2,-5.6155812E-2,-8.518469E-4,-6.017814E-2,1.4074257E-1,-7.368511E-2,-9.062981E-2,-2.7756145E-2,1.3173814E-1,5.950577E-3,-5.0450396E-2],"categories":[],"categories_nodes":[],"categories_segments":[],"categories_sizes":[],"default_left":[0,0,0,0,0,0,0,0,0,0,0,0,0,0,0,0,0,0,0,0,0,0,0,0,0,0,0,0,0,0,0,0,0,0,0,0,0,0,0,0,0,0,0,0,0,0,0,0,0],"id":11,"left_children":[1,3,5,7,9,11,-1,13,15,17,19,21,23,25,27,29,31,33,35,37,39,41,43,45,47,-1,-1,-1,-1,-1,-1,-1,-1,-1,-1,-1,-1,-1,-1,-1,-1,-1,-1,-1,-1,-1,-1,-1,-1],"loss_changes":[1.7648422E3,2.769534E2,6.447412E2,9.813931E1,1.8794669E2,1.3159302E2,0E0,8.290108E1,2.303064E1,1.7592346E2,5.050714E1,6.906958E1,1.676207E1,5.9929367E1,2.6543758E1,1.0019549E1,4.185974E0,2.6978638E1,2.301236E2,4.4389435E1,1.6097572E1,4.6688965E1,1.8083862E1,1.2102783E1,8.940613E0,0E0,0E0,0E0,0E0,0E0,0E0,0E0,0E0,0E0,0E0,0E0,0E0,0E0,0E0,0E0,0E0,0E0,0E0,0E0,0E0,0E0,0E0,0E0,0E0],"parents":[2147483647,0,0,1,1,2,2,3,3,4,4,5,5,7,7,8,8,9,9,10,10,11,11,12,12,13,13,14,14,15,15,16,16,17,17,18,18,19,19,20,20,21,21,22,22,23,23,24,24],"right_children":[2,4,6,8,10,12,-1,14,16,18,20,22,24,26,28,30,32,34,36,38,40,42,44,46,48,-1,-1,-1,-1,-1,-1,-1,-1,-1,-1,-1,-1,-1,-1,-1,-1,-1,-1,-1,-1,-1,-1,-1,-1],"split_conditions":[1.843423E-1,2.5773196E-2,1E0,1E0,5.425039E-1,5.425039E-1,1.3385664E-1,1E0,3.998837E-2,3.0952382E-1,1E0,2.8396314E-1,2.5792503E-1,1.080002E-1,1.0309278E-2,8.553846E-1,1.0309278E-2,1.6809131E-1,6.547619E-1,3.2923084E-2,2.5E-1,1E0,3.510692E-1,1E0,5.4868627E-1,-4.2960864E-2,1.9650724E-2,-5.3321637E-2,-7.831479E-3,-4.9077384E-3,1.7734496E-1,-8.656222E-2,3.400184E-2,-7.779991E-2,-4.5156885E-2,-8.928348E-3,-5.0091933E-2,1.13264754E-1,2.1785935E-2,-5.6155812E-2,-8.518469E-4,-6.017814E-2,1.4074257E-1,-7.368511E-2,-9.062981E-2,-2.7756145E-2,1.3173814E-1,5.950577E-3,-5.0450396E-2],"split_indices":[3,8,5,30,13,13,0,22,3,2,37,3,3,4,8,17,8,4,2,3,2,32,3,32,13,0,0,0,0,0,0,0,0,0,0,0,0,0,0,0,0,0,0,0,0,0,0,0,0],"split_type":[0,0,0,0,0,0,0,0,0,0,0,0,0,0,0,0,0,0,0,0,0,0,0,0,0,0,0,0,0,0,0,0,0,0,0,0,0,0,0,0,0,0,0,0,0,0,0,0,0],"sum_hessian":[2.9278852E4,1.9570064E4,9.708787E3,6.0817607E3,1.3488305E4,9.538332E3,1.7045502E2,5.926329E3,1.5543152E2,1.1197142E4,2.2911624E3,7.947315E3,1.5910173E3,5.2493887E3,6.769404E2,2.6404995E1,1.2902652E2,1.0706257E3,1.0126517E4,1.1948535E3,1.0963088E3,4.894802E3,3.052513E3,9.402584E2,6.5075885E2,1.5668752E2,5.092701E3,1.7105626E2,5.058842E2,2.3962109E1,2.4428864E0,1.2657492E2,2.451597E0,4.228382E2,6.477875E2,8.511392E3,1.6151246E3,5.4720104E1,1.1401334E3,5.4434223E1,1.0418746E3,4.8841206E3,1.068138E1,2.111277E3,9.41236E2,9.364479E2,3.8105927E0,2.9222563E1,6.215363E2],"tree_param":{"num_deleted":"0","num_feature":"38","num_nodes":"49","size_leaf_vector":"1"}},{"base_weights":[-2.1710369E-1,-5.6821577E-2,-5.558669E-1,1.5845368E-2,-2.2631556E-1,-5.88567E-1,1.2948832E-1,8.420417E-3,1.4893451E-1,-7.2150534E-1,-1.8658626E-1,-6.41807E-1,-3.2993636E-1,-3.9077695E-2,2.1555844E-1,-7.297473E-1,1.3398303E-1,-1.3437752E-1,-5.396722E-1,-5.275017E-1,-7.233372E-1,-2.9361373E-1,-6.342147E-1,-8.678311E-3,1.9215144E-2,2.5392283E-2,-2.231303E-2,-3.920081E-2,-7.8707434E-2,-1.8744832E-2,1.15498295E-2,-6.173368E-2,-1.2384597E-3,-5.8271524E-2,-2.5960246E-2,-5.5076104E-2,-7.674626E-2,-7.139197E-2,-2.6261428E-2,-6.54546E-2,1.1955915E-1],"categories":[],"categories_nodes":[],"categories_segments":[],"categories_sizes":[],"default_left":[0,0,0,0,0,0,0,0,0,0,0,0,0,0,0,0,0,0,0,0,0,0,0,0,0,0,0,0,0,0,0,0,0,0,0,0,0,0,0,0,0],"id":12,"left_children":[1,3,5,7,9,11,-1,13,-1,15,17,19,21,23,25,27,-1,29,31,33,35,37,39,-1,-1,-1,-1,-1,-1,-1,-1,-1,-1,-1,-1,-1,-1,-1,-1,-1,-1],"loss_changes":[1.5568516E3,2.3974754E2,5.5808984E2,1.490523E2,1.1477945E2,1.24399414E2,0E0,1.3339804E2,0E0,8.341614E0,9.963016E1,6.9548096E1,1.691034E1,1.2168235E2,4.2621742E1,8.06218E0,0E0,6.252437E1,2.8509872E1,4.6111755E1,3.290796E1,1.784233E1,6.887268E0,0E0,0E0,0E0,0E0,0E0,0E0,0E0,0E0,0E0,0E0,0E0,0E0,0E0,0E0,0E0,0E0,0E0,0E0],"parents":[2147483647,0,0,1,1,2,2,3,3,4,4,5,5,7,7,9,9,10,10,11,11,12,12,13,13,14,14,15,15,17,17,18,18,19,19,20,20,21,21,22,22],"right_children":[2,4,6,8,10,12,-1,14,-1,16,18,20,22,24,26,28,-1,30,32,34,36,38,40,-1,-1,-1,-1,-1,-1,-1,-1,-1,-1,-1,-1,-1,-1,-1,-1,-1,-1],"split_conditions":[1.843423E-1,1.18444994E-1,1E0,1E0,1.9440012E-1,5.425039E-1,1.2948832E-1,7.999002E-2,1.4893451E-1,1E0,7.619048E-1,2.4607688E-1,8.333333E-1,5.425039E-1,8.0256844E-1,1E0,1.3398303E-1,5.4868627E-1,1E0,1E0,2.5773196E-2,1.5476191E-1,1E0,-8.678311E-3,1.9215144E-2,2.5392283E-2,-2.231303E-2,-3.920081E-2,-7.8707434E-2,-1.8744832E-2,1.15498295E-2,-6.173368E-2,-1.2384597E-3,-5.8271524E-2,-2.5960246E-2,-5.5076104E-2,-7.674626E-2,-7.139197E-2,-2.6261428E-2,-6.54546E-2,1.1955915E-1],"split_indices":[3,3,5,5,4,13,0,12,0,35,2,3,2,13,4,15,0,13,33,33,8,2,35,0,0,0,0,0,0,0,0,0,0,0,0,0,0,0,0,0,0],"split_type":[0,0,0,0,0,0,0,0,0,0,0,0,0,0,0,0,0,0,0,0,0,0,0,0,0,0,0,0,0,0,0,0,0,0,0,0,0,0,0,0,0],"sum_hessian":[2.867212E4,1.9464076E4,9.208044E3,1.3623982E4,5.840093E3,9.048847E3,1.591976E2,1.3556677E4,6.730558E1,4.3247662E2,5.407616E3,7.5028687E3,1.5459778E3,1.1028562E4,2.5281152E3,4.3139822E2,1.0784031E0,4.71223E3,6.9538617E2,3.1267068E3,4.3761616E3,1.3828689E3,1.631089E2,9.142898E3,1.8856633E3,2.3251948E3,2.0292036E2,6.3738983E1,3.6765924E2,3.8869417E3,8.2528827E2,6.05961E2,8.942513E1,2.591438E3,5.3526886E2,8.9383624E2,3.4823254E3,9.347171E1,1.2893971E3,1.6195226E2,1.1566472E0],"tree_param":{"num_deleted":"0","num_feature":"38","num_nodes":"41","size_leaf_vector":"1"}},{"base_weights":[-1.9989252E-1,-5.1566437E-2,-5.2804524E-1,9.066475E-2,-1.3048926E-1,-5.589346E-1,1.257721E-1,1.23605385E-1,-5.619555E-1,-5.773365E-1,-1.01513766E-1,-6.126321E-1,-3.0553544E-1,1.2679534E0,1.0418277E-1,-5.815071E-1,1.5662018E0,-4.4623008E-1,-7.425077E-1,-6.555441E-2,-5.2527595E-1,-5.6667393E-1,-8.298003E-1,-2.2377388E-1,-4.4239256E-1,-7.7673504E-3,1.3624536E-1,1.4792651E-2,-1.2107106E-2,1.0674673E-1,-6.0494162E-2,-1.4570959E-2,2.4360755E-1,-4.893493E-2,4.200324E-2,6.604951E-2,-7.501506E-2,-7.3908167E-3,1.4232671E-1,-5.928793E-2,-4.7296677E-3,-5.7258625E-2,1.4490311E-1,-8.485084E-2,-1.1340187E-2,-2.3447582E-2,1.0472655E-1,-3.6941417E-2,-6.825688E-2],"categories":[],"categories_nodes":[],"categories_segments":[],"categories_sizes":[],"default_left":[0,0,0,0,0,0,0,0,0,0,0,0,0,0,0,0,0,0,0,0,0,0,0,0,0,0,0,0,0,0,0,0,0,0,0,0,0,0,0,0,0,0,0,0,0,0,0,0,0],"id":13,"left_children":[1,3,5,7,9,11,-1,13,15,17,19,21,23,25,27,29,31,33,35,37,39,41,43,45,47,-1,-1,-1,-1,-1,-1,-1,-1,-1,-1,-1,-1,-1,-1,-1,-1,-1,-1,-1,-1,-1,-1,-1,-1],"loss_changes":[1.3683383E3,2.173638E2,4.8343994E2,1.4862946E2,1.6117989E2,1.1687598E2,0E0,1.4609944E2,1.47332E1,1.6084732E1,1.7819203E2,7.037036E1,1.6755615E1,1.4058533E1,6.377546E1,1.3394691E1,5.2634993E0,1.6086296E1,4.076721E0,1.3420648E2,2.9528687E1,7.068103E1,1.6489563E1,1.309922E1,9.60305E0,0E0,0E0,0E0,0E0,0E0,0E0,0E0,0E0,0E0,0E0,0E0,0E0,0E0,0E0,0E0,0E0,0E0,0E0,0E0,0E0,0E0,0E0,0E0,0E0],"parents":[2147483647,0,0,1,1,2,2,3,3,4,4,5,5,7,7,8,8,9,9,10,10,11,11,12,12,13,13,14,14,15,15,16,16,17,17,18,18,19,19,20,20,21,21,22,22,23,23,24,24],"right_children":[2,4,6,8,10,12,-1,14,16,18,20,22,24,26,28,30,32,34,36,38,40,42,44,46,48,-1,-1,-1,-1,-1,-1,-1,-1,-1,-1,-1,-1,-1,-1,-1,-1,-1,-1,-1,-1,-1,-1,-1,-1],"split_conditions":[1.843423E-1,6.216599E-2,1E0,1E0,1.6809131E-1,5.425039E-1,1.257721E-1,2.120273E-2,2.844461E-1,1.1707508E-1,8.072491E-1,3.2423812E-1,1E0,8.475066E-2,5.714286E-1,5.285935E-1,3.4673366E-1,8.953846E-1,4.040404E-2,1E0,5.61051E-1,1E0,1.8032673E-1,1E0,2.624881E-1,-7.7673504E-3,1.3624536E-1,1.4792651E-2,-1.2107106E-2,1.0674673E-1,-6.0494162E-2,-1.4570959E-2,2.4360755E-1,-4.893493E-2,4.200324E-2,6.604951E-2,-7.501506E-2,-7.3908167E-3,1.4232671E-1,-5.928793E-2,-4.7296677E-3,-5.7258625E-2,1.4490311E-1,-8.485084E-2,-1.1340187E-2,-2.3447582E-2,1.0472655E-1,-3.6941417E-2,-6.825688E-2],"split_indices":[3,3,5,36,4,13,0,3,12,3,4,3,37,4,2,13,6,17,1,5,13,32,12,32,9,0,0,0,0,0,0,0,0,0,0,0,0,0,0,0,0,0,0,0,0,0,0,0,0],"split_type":[0,0,0,0,0,0,0,0,0,0,0,0,0,0,0,0,0,0,0,0,0,0,0,0,0,0,0,0,0,0,0,0,0,0,0,0,0,0,0,0,0,0,0,0,0,0,0,0,0],"sum_hessian":[2.8112104E4,1.9361709E4,8.750395E3,6.9095195E3,1.2452189E4,8.602283E3,1.4811084E2,6.578296E3,3.3122354E2,7.571285E2,1.1695061E4,7.096956E3,1.5053274E3,1.0871399E2,6.469582E3,3.2892886E2,2.2946723E0,4.2415695E2,3.3297153E2,1.0781341E4,9.137195E2,5.860371E3,1.2365846E3,9.4400165E2,5.6132574E2,7.1447225E0,1.0156927E2,5.417805E3,1.0517769E3,3.984227E0,3.2494464E2,1.05324E0,1.2414324E0,4.0446072E2,1.9696228E1,1.3405223E0,3.31631E2,1.0722131E4,5.9210667E1,8.0028766E2,1.1343179E2,5.843947E3,1.6424444E1,1.204933E3,3.1651598E1,9.369292E2,7.0724797E0,4.324627E2,1.2886307E2],"tree_param":{"num_deleted":"0","num_feature":"38","num_nodes":"49","size_leaf_vector":"1"}},{"base_weights":[-1.8379197E-1,-4.680142E-2,-5.00487E-1,8.955168E-2,-1.2458536E-1,-5.295637E-1,1.2258245E-1,-1.2290347E-1,1.4252774E-1,9.5732294E-2,-1.7724025E-1,-3.0117685E-1,-5.880727E-1,-1.856867E-1,6.329916E-1,1.7380366E-1,-2.2546366E-1,1.55489E-1,-5.9020084E-1,-2.2748625E-1,5.120203E-2,-1.9946805E-1,-4.4096774E-1,-5.420044E-1,-8.09283E-1,-1.2774256E-2,-6.324268E-2,1.5185009E-1,2.7526254E-2,-2.2416664E-2,2.0910995E-2,-3.0098583E-3,-5.2038666E-2,1.304298E-1,1.3173624E-2,-6.316187E-2,3.1164307E-2,-2.3585506E-2,1.3395482E-1,-1.3102702E-3,3.2927193E-2,1.1981298E-2,-2.5550455E-2,-4.5402735E-2,6.756269E-2,-5.4814287E-2,1.2222673E-1,-6.1638486E-2,-8.85216E-2],"categories":[],"categories_nodes":[],"categories_segments":[],"categories_sizes":[],"default_left":[0,0,0,0,0,0,0,0,0,0,0,0,0,0,0,0,0,0,0,0,0,0,0,0,0,0,0,0,0,0,0,0,0,0,0,0,0,0,0,0,0,0,0,0,0,0,0,0,0],"id":14,"left_children":[1,3,5,7,9,11,-1,13,15,17,19,21,23,25,27,29,31,33,35,37,39,41,43,45,47,-1,-1,-1,-1,-1,-1,-1,-1,-1,-1,-1,-1,-1,-1,-1,-1,-1,-1,-1,-1,-1,-1,-1,-1],"loss_changes":[1.197419E3,2.0436798E2,4.1897632E2,7.879738E1,1.423516E2,1.09351074E2,0E0,6.644046E1,6.45254E1,9.7126434E1,1.13681915E2,2.3707458E1,6.604443E1,3.3340622E1,3.3601627E1,7.2614655E1,2.529712E1,5.9270195E1,7.291008E0,1.0677286E2,3.1945408E1,1.7396503E1,1.0573074E1,5.9178345E1,1.5893738E1,0E0,0E0,0E0,0E0,0E0,0E0,0E0,0E0,0E0,0E0,0E0,0E0,0E0,0E0,0E0,0E0,0E0,0E0,0E0,0E0,0E0,0E0,0E0,0E0],"parents":[2147483647,0,0,1,1,2,2,3,3,4,4,5,5,7,7,8,8,9,9,10,10,11,11,12,12,13,13,14,14,15,15,16,16,17,17,18,18,19,19,20,20,21,21,22,22,23,23,24,24],"right_children":[2,4,6,8,10,12,-1,14,16,18,20,22,24,26,28,30,32,34,36,38,40,42,44,46,48,-1,-1,-1,-1,-1,-1,-1,-1,-1,-1,-1,-1,-1,-1,-1,-1,-1,-1,-1,-1,-1,-1,-1,-1],"split_conditions":[1.843423E-1,3.0927835E-2,1E0,2.0403914E-2,5.0040066E-2,1E0,1.2258245E-1,1E0,8.0256844E-1,1E0,5.425039E-1,2.5658736E-1,3.2423812E-1,1E0,2.4700684E-3,1.8716705E-1,6.0714287E-1,2.120273E-2,7.727894E-2,1E0,1E0,3.0927835E-2,1E0,1E0,3.5858586E-1,-1.2774256E-2,-6.324268E-2,1.5185009E-1,2.7526254E-2,-2.2416664E-2,2.0910995E-2,-3.0098583E-3,-5.2038666E-2,1.304298E-1,1.3173624E-2,-6.316187E-2,3.1164307E-2,-2.3585506E-2,1.3395482E-1,-1.3102702E-3,3.2927193E-2,1.1981298E-2,-2.5550455E-2,-4.5402735E-2,6.756269E-2,-5.4814287E-2,1.2222673E-1,-6.1638486E-2,-8.85216E-2],"split_indices":[3,8,5,12,3,15,0,23,4,36,13,3,3,30,12,4,7,3,12,5,34,8,35,32,1,0,0,0,0,0,0,0,0,0,0,0,0,0,0,0,0,0,0,0,0,0,0,0,0],"split_type":[0,0,0,0,0,0,0,0,0,0,0,0,0,0,0,0,0,0,0,0,0,0,0,0,0,0,0,0,0,0,0,0,0,0,0,0,0,0,0,0,0,0,0,0,0,0,0,0,0],"sum_hessian":[2.7599879E4,1.9266889E4,8.33299E3,6.998517E3,1.2268371E4,8.195643E3,1.3734727E2,1.3965311E3,5.601986E3,2.3663394E3,9.902032E3,1.6726613E3,6.5229814E3,1.290131E3,1.0640016E2,5.163653E3,4.3833298E2,2.1774226E3,1.8891658E2,8.116756E3,1.7852761E3,9.6962054E2,7.0304065E2,5.4015356E3,1.121446E3,1.1431478E3,1.4698308E2,2.9681082E1,7.671908E1,4.2033102E2,4.743322E3,2.643354E2,1.7399759E2,4.301543E1,2.1344072E3,1.8090895E2,8.007638E0,8.074484E3,4.2271988E1,1.4507369E3,3.345392E2,1.4459586E2,8.2502466E2,6.955004E2,7.5402575E0,5.3834946E3,1.8040962E1,3.193382E2,8.021078E2],"tree_param":{"num_deleted":"0","num_feature":"38","num_nodes":"49","size_leaf_vector":"1"}},{"base_weights":[-1.6878262E-1,-5.1089283E-2,-4.9717796E-1,-3.8229334E-1,-1.9214122E-2,-5.2716684E-1,1.19798385E-1,-4.7191554E-1,-1.6017279E-2,2.8735079E-2,-3.007034E-1,-5.8199656E-1,-2.7640036E-1,-6.9344354E-1,-3.5269678E-1,5.0063616E-1,-1.0567038E-1,2.2250863E-2,1.3615826E-1,-3.824549E-1,3.0498093E-2,-4.7280374E-1,-6.7746574E-1,-2.0024344E-1,-4.1387245E-1,-7.073172E-2,1.20790266E-1,-3.9941248E-2,9.071092E-3,2.128298E-4,8.029177E-2,7.466825E-3,-2.6870236E-2,-1.9398032E-3,2.058366E-2,-2.8354684E-2,-5.9346624E-2,3.9125063E-2,-6.3495794E-3,-3.2784756E-2,-5.6459676E-2,-6.1549503E-2,-8.123609E-2,-2.4191974E-2,2.428697E-2,-3.437799E-2,-6.362997E-2],"categories":[],"categories_nodes":[],"categories_segments":[],"categories_sizes":[],"default_left":[0,0,0,0,0,0,0,0,0,0,0,0,0,0,0,0,0,0,0,0,0,0,0,0,0,0,0,0,0,0,0,0,0,0,0,0,0,0,0,0,0,0,0,0,0,0,0],"id":15,"left_children":[1,3,5,7,9,11,-1,13,15,17,19,21,23,25,27,29,31,33,-1,35,37,39,41,43,45,-1,-1,-1,-1,-1,-1,-1,-1,-1,-1,-1,-1,-1,-1,-1,-1,-1,-1,-1,-1,-1,-1],"loss_changes":[1.0486135E3,2.1086743E2,3.6452283E2,5.755429E1,2.4595508E2,9.655762E1,0E0,3.6960724E1,1.6067678E1,1.3453815E2,7.182558E1,5.9842773E1,1.315004E1,1.3828415E1,1.905046E1,7.7276335E0,8.706929E0,1.1849178E2,0E0,4.422885E1,1.7860703E1,3.568042E1,2.5219849E1,1.5116005E1,6.790825E0,0E0,0E0,0E0,0E0,0E0,0E0,0E0,0E0,0E0,0E0,0E0,0E0,0E0,0E0,0E0,0E0,0E0,0E0,0E0,0E0,0E0,0E0],"parents":[2147483647,0,0,1,1,2,2,3,3,4,4,5,5,7,7,8,8,9,9,10,10,11,11,12,12,13,13,14,14,15,15,16,16,17,17,19,19,20,20,21,21,22,22,23,23,24,24],"right_children":[2,4,6,8,10,12,-1,14,16,18,20,22,24,26,28,30,32,34,-1,36,38,40,42,44,46,-1,-1,-1,-1,-1,-1,-1,-1,-1,-1,-1,-1,-1,-1,-1,-1,-1,-1,-1,-1,-1,-1],"split_conditions":[1.9654329E-1,3.0952382E-1,1E0,5.425039E-1,6.547619E-1,5.425039E-1,1.19798385E-1,1.6809131E-1,3.0927835E-2,1E0,5.425039E-1,1E0,1E0,1E0,1E0,4.7619048E-1,1E0,7.999002E-2,1.3615826E-1,8.221923E-1,3.6082473E-2,2.5792503E-1,2.972564E-1,5.506972E-2,2.624881E-1,-7.073172E-2,1.20790266E-1,-3.9941248E-2,9.071092E-3,2.128298E-4,8.029177E-2,7.466825E-3,-2.6870236E-2,-1.9398032E-3,2.058366E-2,-2.8354684E-2,-5.9346624E-2,3.9125063E-2,-6.3495794E-3,-3.2784756E-2,-5.6459676E-2,-6.1549503E-2,-8.123609E-2,-2.4191974E-2,2.428697E-2,-3.437799E-2,-6.362997E-2],"split_indices":[3,2,5,13,2,13,0,4,8,5,13,37,37,32,33,7,37,12,0,4,8,3,3,12,9,0,0,0,0,0,0,0,0,0,0,0,0,0,0,0,0,0,0,0,0,0,0],"split_type":[0,0,0,0,0,0,0,0,0,0,0,0,0,0,0,0,0,0,0,0,0,0,0,0,0,0,0,0,0,0,0,0,0,0,0,0,0,0,0,0,0,0,0,0,0,0,0],"sum_hessian":[2.7130719E4,1.9973566E4,7.1571514E3,1.7525354E3,1.8221031E4,7.0334136E3,1.2373765E2,1.4077816E3,3.4475385E2,1.5569756E4,2.6512754E3,5.7704E3,1.263014E3,4.9085944E2,9.169222E2,5.029843E1,2.944554E2,1.549539E4,7.4366615E1,2.126286E3,5.249895E2,2.6945127E3,3.075887E3,8.143458E2,4.4866818E2,4.8792767E2,2.9317663E0,8.2961835E2,8.730384E1,1.9368011E1,3.093042E1,1.4006152E2,1.5439389E2,1.263081E4,2.8645803E3,1.4492993E3,6.769867E2,1.0786132E2,4.171282E2,1.0465005E3,1.6480123E3,2.1114568E3,9.6443024E2,7.447553E2,6.959046E1,3.430989E2,1.0556929E2],"tree_param":{"num_deleted":"0","num_feature":"38","num_nodes":"47","size_leaf_vector":"1"}},{"base_weights":[-1.548132E-1,-4.6367586E-2,-4.7036397E-1,-2.3905504E-1,2.6004415E-3,-4.984922E-1,1.1739347E-1,-3.0807042E-1,4.9136277E-2,7.64546E-2,-2.2317094E-1,-3.8305113E-1,-6.1572343E-1,-3.5790092E-1,1.6919874E-1,2.8808266E-1,-1.0248892E-1,9.068979E-2,-4.8821834E-1,-1.4703403E-1,-4.553939E-1,-2.4112807E-1,-4.8757088E-1,-5.495845E-1,-7.669241E-1,-6.2393546E-2,-2.8192649E-2,8.915874E-2,9.445287E-3,-1.1398772E-2,4.2036667E-2,-1.274126E-2,1.1717063E-1,6.1207354E-2,7.165114E-3,-5.094074E-2,1.5209441E-1,-2.0350182E-2,8.166405E-3,-5.2605875E-2,3.1438905E-3,-2.4265097E-3,-3.193019E-2,-5.3593E-2,-2.8784452E-2,-7.7255115E-2,-5.0337147E-2,-5.8877088E-2,-8.0702476E-2],"categories":[],"categories_nodes":[],"categories_segments":[],"categories_sizes":[],"default_left":[0,0,0,0,0,0,0,0,0,0,0,0,0,0,0,0,0,0,0,0,0,0,0,0,0,0,0,0,0,0,0,0,0,0,0,0,0,0,0,0,0,0,0,0,0,0,0,0,0],"id":16,"left_children":[1,3,5,7,9,11,-1,13,15,17,19,21,23,25,27,29,31,33,35,37,39,41,43,45,47,-1,-1,-1,-1,-1,-1,-1,-1,-1,-1,-1,-1,-1,-1,-1,-1,-1,-1,-1,-1,-1,-1,-1,-1],"loss_changes":[9.136931E2,1.8751202E2,3.1644507E2,8.011038E1,2.6425095E2,9.06405E1,0E0,7.733188E1,2.8249674E1,9.603311E1,6.899927E1,5.0109222E1,3.287854E1,5.9291046E1,1.6536503E1,1.6145233E1,1.5304848E1,1.1558659E2,1.3281296E1,3.8026745E1,3.3181503E1,2.437104E1,1.8669312E1,2.3517334E1,6.744995E0,0E0,0E0,0E0,0E0,0E0,0E0,0E0,0E0,0E0,0E0,0E0,0E0,0E0,0E0,0E0,0E0,0E0,0E0,0E0,0E0,0E0,0E0,0E0,0E0],"parents":[2147483647,0,0,1,1,2,2,3,3,4,4,5,5,7,7,8,8,9,9,10,10,11,11,12,12,13,13,14,14,15,15,16,16,17,17,18,18,19,19,20,20,21,21,22,22,23,23,24,24],"right_children":[2,4,6,8,10,12,-1,14,16,18,20,22,24,26,28,30,32,34,36,38,40,42,44,46,48,-1,-1,-1,-1,-1,-1,-1,-1,-1,-1,-1,-1,-1,-1,-1,-1,-1,-1,-1,-1,-1,-1,-1,-1],"split_conditions":[1.9654329E-1,4.047619E-1,1E0,1E0,6.0714287E-1,1E0,1.1739347E-1,1E0,1.2561652E-1,1E0,8.221923E-1,2.5792503E-1,2.9478538E-1,2.6190478E-1,1.0189899E-1,1.6809131E-1,4.072264E-1,2.6942112E-2,2.844461E-1,1E0,5.61051E-1,3.6082473E-2,5.425039E-1,1.6666667E-1,2.5773196E-2,-6.2393546E-2,-2.8192649E-2,8.915874E-2,9.445287E-3,-1.1398772E-2,4.2036667E-2,-1.274126E-2,1.1717063E-1,6.1207354E-2,7.165114E-3,-5.094074E-2,1.5209441E-1,-2.0350182E-2,8.166405E-3,-5.2605875E-2,3.1438905E-3,-2.4265097E-3,-3.193019E-2,-5.3593E-2,-2.8784452E-2,-7.7255115E-2,-5.0337147E-2,-5.8877088E-2,-8.0702476E-2],"split_indices":[3,2,5,34,2,37,0,33,3,36,4,3,3,2,3,4,4,3,12,34,13,8,13,2,8,0,0,0,0,0,0,0,0,0,0,0,0,0,0,0,0,0,0,0,0,0,0,0,0],"split_type":[0,0,0,0,0,0,0,0,0,0,0,0,0,0,0,0,0,0,0,0,0,0,0,0,0,0,0,0,0,0,0,0,0,0,0,0,0,0,0,0,0,0,0,0,0,0,0,0,0],"sum_hessian":[2.6700133E4,1.9871893E4,6.8282407E3,4.0259722E3,1.584592E4,6.7140835E3,1.1415714E2,3.2480671E3,7.7790515E2,1.194059E4,3.9053306E3,3.3850244E3,3.329059E3,2.9412324E3,3.0683456E2,3.0164655E2,4.762586E2,1.1647794E4,2.9279535E2,2.9423015E3,9.6302905E2,1.4370414E3,1.947983E3,2.319218E3,1.0098412E3,6.517652E2,2.2894673E3,2.7745344E1,2.7908923E2,7.470757E1,2.2693898E2,4.6800507E2,8.253543E0,4.0924344E2,1.1238551E4,2.9047885E2,2.3164942E0,2.3597668E3,5.825348E2,8.408931E2,1.2213595E2,3.8111343E2,1.055928E3,1.566905E3,3.81078E2,3.954635E2,1.9237544E3,1.8842784E2,8.214133E2],"tree_param":{"num_deleted":"0","num_feature":"38","num_nodes":"49","size_leaf_vector":"1"}},{"base_weights":[-1.4181858E-1,-4.2109814E-2,-4.4393426E-1,8.0327265E-2,-1.1195202E-1,-4.7023314E-1,1.152843E-1,9.4828896E-2,-6.0972804E-1,-3.897582E-1,-7.775568E-2,-5.262941E-1,-2.2502682E-1,5.4849792E-2,3.0820662E-1,1.926921E-1,-7.829319E-1,-4.4988802E-1,-2.527337E-2,-3.553374E-2,-3.4986457E-1,-3.1696174E-1,-5.7903856E-1,-1.8873432E-1,-5.279851E-1,2.7139788E-2,9.3719125E-4,-1.0824631E-2,4.308655E-2,-2.007689E-3,1.5458079E-1,-8.142133E-2,1.8450351E-2,-6.457653E-2,-3.4201846E-2,-1.4318234E-2,5.494513E-2,1.9112058E-2,-8.399437E-3,-2.6557086E-2,-6.2405523E-2,-6.502957E-2,-2.1817107E-2,-5.3754132E-2,-8.689743E-2,-5.3280722E-2,-1.4910864E-2,-5.7332683E-2,6.320318E-2],"categories":[],"categories_nodes":[],"categories_segments":[],"categories_sizes":[],"default_left":[0,0,0,0,0,0,0,0,0,0,0,0,0,0,0,0,0,0,0,0,0,0,0,0,0,0,0,0,0,0,0,0,0,0,0,0,0,0,0,0,0,0,0,0,0,0,0,0,0],"id":17,"left_children":[1,3,5,7,9,11,-1,13,15,17,19,21,23,25,27,29,31,33,35,37,39,41,43,45,47,-1,-1,-1,-1,-1,-1,-1,-1,-1,-1,-1,-1,-1,-1,-1,-1,-1,-1,-1,-1,-1,-1,-1,-1],"loss_changes":[7.927805E2,1.6922792E2,2.7477954E2,7.199207E1,1.1968033E2,8.820764E1,0E0,6.0050514E1,2.073352E1,3.0252014E1,1.2890894E2,5.754956E1,1.3065323E1,5.841158E1,5.6793404E1,7.832469E0,3.8428802E0,2.4821976E1,1.3401472E1,1.0672565E2,3.466797E1,3.4584778E1,4.976819E1,1.4520321E1,7.070442E0,0E0,0E0,0E0,0E0,0E0,0E0,0E0,0E0,0E0,0E0,0E0,0E0,0E0,0E0,0E0,0E0,0E0,0E0,0E0,0E0,0E0,0E0,0E0,0E0],"parents":[2147483647,0,0,1,1,2,2,3,3,4,4,5,5,7,7,8,8,9,9,10,10,11,11,12,12,13,13,14,14,15,15,16,16,17,17,18,18,19,19,20,20,21,21,22,22,23,23,24,24],"right_children":[2,4,6,8,10,12,-1,14,16,18,20,22,24,26,28,30,32,34,36,38,40,42,44,46,48,-1,-1,-1,-1,-1,-1,-1,-1,-1,-1,-1,-1,-1,-1,-1,-1,-1,-1,-1,-1,-1,-1,-1,-1],"split_conditions":[1.9654329E-1,3.0927835E-2,1E0,1E0,2.2556275E-1,5.425039E-1,1.152843E-1,1E0,3.998837E-2,5.703246E-1,7.555838E-1,2.5773196E-2,8.333333E-1,1E0,1.0309278E-2,8.553846E-1,1.0309278E-2,2.7380952E-1,1E0,5.0040066E-2,7.9761904E-1,1.0309278E-2,3.510692E-1,1.7857143E-1,5.917136E-1,2.7139788E-2,9.3719125E-4,-1.0824631E-2,4.308655E-2,-2.007689E-3,1.5458079E-1,-8.142133E-2,1.8450351E-2,-6.457653E-2,-3.4201846E-2,-1.4318234E-2,5.494513E-2,1.9112058E-2,-8.399437E-3,-2.6557086E-2,-6.2405523E-2,-6.502957E-2,-2.1817107E-2,-5.3754132E-2,-8.689743E-2,-5.3280722E-2,-1.4910864E-2,-5.7332683E-2,6.320318E-2],"split_indices":[3,8,5,30,4,13,0,20,3,13,4,8,2,15,8,17,8,2,34,3,2,8,3,2,9,0,0,0,0,0,0,0,0,0,0,0,0,0,0,0,0,0,0,0,0,0,0,0,0],"split_type":[0,0,0,0,0,0,0,0,0,0,0,0,0,0,0,0,0,0,0,0,0,0,0,0,0,0,0,0,0,0,0,0,0,0,0,0,0,0,0,0,0,0,0,0,0,0,0,0,0],"sum_hessian":[2.6317234E4,1.9787732E4,6.529503E3,7.1875E3,1.2600231E4,6.4243994E3,1.0510351E2,7.0404087E3,1.4709131E2,1.3798773E3,1.12203545E4,5.227987E3,1.1964128E3,5.9305117E3,1.109897E3,2.609232E1,1.20998985E2,1.1842689E3,1.9560841E2,9.714182E3,1.5061729E3,1.0535771E3,4.1744097E3,1.0698749E3,1.2653799E2,1.0284484E3,4.9020635E3,2.525489E2,8.57348E2,2.3397614E1,2.6947052E0,1.17363525E2,3.6354554E0,4.1879507E2,7.654738E2,1.6293393E2,3.267448E1,1.7106E3,8.0035815E3,1.1535211E3,3.5265173E2,2.3958621E2,8.139909E2,3.65425E3,5.201595E2,1.0920123E2,9.606737E2,1.22265594E2,4.2723904E0],"tree_param":{"num_deleted":"0","num_feature":"38","num_nodes":"49","size_leaf_vector":"1"}},{"base_weights":[-1.2976462E-1,-3.822537E-2,-4.1803795E-1,-4.418627E-2,1.3514091E-1,-4.425563E-1,1.134231E-1,-1.8981205E-1,6.0745003E-3,-3.2651475E-1,-5.6354445E-1,-2.4721524E-1,7.177745E-2,9.4376035E-2,-1.6617724E-1,-1.8789668E-1,-4.3160185E-1,-4.8311692E-1,-6.983825E-1,-2.8622715E-2,1.9338368E-2,2.9915882E-2,-8.7244585E-3,1.0546068E-2,-4.6025317E-2,-1.3272467E-2,-5.6917258E-2,-5.2933544E-2,-1.3894761E-2,-3.7574574E-2,-6.3044734E-2,-4.1880794E-2,-6.9173925E-2,-5.2539207E-2,-7.399462E-2],"categories":[],"categories_nodes":[],"categories_segments":[],"categories_sizes":[],"default_left":[0,0,0,0,0,0,0,0,0,0,0,0,0,0,0,0,0,0,0,0,0,0,0,0,0,0,0,0,0,0,0,0,0,0,0],"id":18,"left_children":[1,3,5,7,-1,9,-1,11,13,15,17,19,21,23,25,27,29,31,33,-1,-1,-1,-1,-1,-1,-1,-1,-1,-1,-1,-1,-1,-1,-1,-1],"loss_changes":[6.852407E2,1.6333113E2,2.3869531E2,1.4365977E2,0E0,8.632654E1,0E0,7.563985E1,2.2196704E2,4.577002E1,3.236133E1,7.104515E1,3.2822895E1,5.9360695E1,6.6598114E1,2.2639877E1,1.963861E1,2.5092377E1,7.6939697E0,0E0,0E0,0E0,0E0,0E0,0E0,0E0,0E0,0E0,0E0,0E0,0E0,0E0,0E0,0E0,0E0],"parents":[2147483647,0,0,1,1,2,2,3,3,5,5,7,7,8,8,9,9,10,10,11,11,12,12,13,13,14,14,15,15,16,16,17,17,18,18],"right_children":[2,4,6,8,-1,10,-1,12,14,16,18,20,22,24,26,28,30,32,34,-1,-1,-1,-1,-1,-1,-1,-1,-1,-1,-1,-1,-1,-1,-1,-1],"split_conditions":[1.9654329E-1,1E0,1E0,4.2857143E-1,1.3514091E-1,1E0,1.134231E-1,1E0,5.833333E-1,2.5792503E-1,2.8137755E-1,1E0,1.2202608E-1,1E0,8.095238E-1,2.8110746E-1,8.095238E-1,7.8571427E-1,2.5773196E-2,-2.8622715E-2,1.9338368E-2,2.9915882E-2,-8.7244585E-3,1.0546068E-2,-4.6025317E-2,-1.3272467E-2,-5.6917258E-2,-5.2933544E-2,-1.3894761E-2,-3.7574574E-2,-6.3044734E-2,-4.1880794E-2,-6.9173925E-2,-5.2539207E-2,-7.399462E-2],"split_indices":[3,5,5,2,0,37,0,34,2,3,3,33,3,36,2,4,2,2,8,0,0,0,0,0,0,0,0,0,0,0,0,0,0,0,0],"split_type":[0,0,0,0,0,0,0,0,0,0,0,0,0,0,0,0,0,0,0,0,0,0,0,0,0,0,0,0,0,0,0,0,0,0,0],"sum_hessian":[2.5967197E4,1.9709662E4,6.2575337E3,1.9626443E4,8.32196E1,6.160936E3,9.659753E1,5.0350654E3,1.4591378E4,3.146647E3,3.0142893E3,4.1290464E3,9.060191E2,9.646661E3,4.944717E3,1.3580588E3,1.788588E3,1.8909657E3,1.1233236E3,3.7935107E3,3.3553568E2,3.725067E2,5.335124E2,9.458439E3,1.8822165E2,4.5669473E3,3.7776974E2,1.6904813E2,1.1890107E3,1.3986101E3,3.899779E2,1.4477125E3,4.4325314E2,2.2025891E2,9.030647E2],"tree_param":{"num_deleted":"0","num_feature":"38","num_nodes":"35","size_leaf_vector":"1"}},{"base_weights":[-1.18614726E-1,-4.0309533E-2,-4.134962E-1,-3.1411207E-1,-1.3273242E-2,-4.3857408E-1,1.1173248E-1,-5.8220524E-1,-2.067985E-1,2.1769475E-2,-2.5995225E-1,-5.2973837E-1,-2.6871052E-1,-5.9591985E-1,1.0778755E0,-2.9122728E-1,5.8560148E-2,1.6471656E-2,1.2667164E-1,-3.3082017E-1,7.976408E-2,-5.40368E-1,5.363889E-1,-7.068235E-2,-3.665111E-1,-2.2034325E-2,-6.604703E-2,2.1578722E-1,-1.2207019E-2,-4.3886766E-2,-1.4953958E-2,1.004565E-1,2.0387624E-3,-2.646743E-3,1.5386668E-2,-2.462537E-2,-5.3144503E-2,2.0843532E-2,-2.37496E-2,-3.1214101E-2,-5.843913E-2,2.5253963E-1,1.1931615E-3,4.0311974E-2,-1.3846713E-2,-6.3304685E-2,-3.138258E-2],"categories":[],"categories_nodes":[],"categories_segments":[],"categories_sizes":[],"default_left":[0,0,0,0,0,0,0,0,0,0,0,0,0,0,0,0,0,0,0,0,0,0,0,0,0,0,0,0,0,0,0,0,0,0,0,0,0,0,0,0,0,0,0,0,0,0,0],"id":19,"left_children":[1,3,5,7,9,11,-1,13,15,17,19,21,23,25,27,29,31,33,-1,35,37,39,41,43,45,-1,-1,-1,-1,-1,-1,-1,-1,-1,-1,-1,-1,-1,-1,-1,-1,-1,-1,-1,-1,-1,-1],"loss_changes":[5.920199E2,1.49978E2,2.0701855E2,5.2262787E1,1.594154E2,8.1833984E1,0E0,1.2479324E1,2.9183765E1,1.0648255E2,5.5252563E1,3.93183E1,3.5820587E1,1.2371017E1,6.2469916E0,2.059716E1,1.135571E1,9.487396E1,0E0,3.2073044E1,1.624524E1,3.4082153E1,3.5954967E1,1.9747774E1,1.7195633E1,0E0,0E0,0E0,0E0,0E0,0E0,0E0,0E0,0E0,0E0,0E0,0E0,0E0,0E0,0E0,0E0,0E0,0E0,0E0,0E0,0E0,0E0],"parents":[2147483647,0,0,1,1,2,2,3,3,4,4,5,5,7,7,8,8,9,9,10,10,11,11,12,12,13,13,14,14,15,15,16,16,17,17,19,19,20,20,21,21,22,22,23,23,24,24],"right_children":[2,4,6,8,10,12,-1,14,16,18,20,22,24,26,28,30,32,34,-1,36,38,40,42,44,46,-1,-1,-1,-1,-1,-1,-1,-1,-1,-1,-1,-1,-1,-1,-1,-1,-1,-1,-1,-1,-1,-1],"split_conditions":[2.0837666E-1,3.0952382E-1,1E0,1.6809131E-1,7.555838E-1,1E0,1.1173248E-1,1E0,5.4868627E-1,1E0,5.425039E-1,1E0,2.5792503E-1,1E0,4.5666668E-1,2.6006157E-2,5.9166666E-2,6.51869E-2,1.2667164E-1,7.619048E-1,1.3613917E-1,1E0,3.0927835E-2,2.0618556E-2,1.904762E-1,-2.2034325E-2,-6.604703E-2,2.1578722E-1,-1.2207019E-2,-4.3886766E-2,-1.4953958E-2,1.004565E-1,2.0387624E-3,-2.646743E-3,1.5386668E-2,-2.462537E-2,-5.3144503E-2,2.0843532E-2,-2.37496E-2,-3.1214101E-2,-5.843913E-2,2.5253963E-1,1.1931615E-3,4.0311974E-2,-1.3846713E-2,-6.3304685E-2,-3.138258E-2],"split_indices":[3,2,5,4,4,33,0,32,13,5,13,32,3,15,16,12,16,12,0,2,3,15,8,8,2,0,0,0,0,0,0,0,0,0,0,0,0,0,0,0,0,0,0,0,0,0,0],"split_type":[0,0,0,0,0,0,0,0,0,0,0,0,0,0,0,0,0,0,0,0,0,0,0,0,0,0,0,0,0,0,0,0,0,0,0,0,0,0,0,0,0,0,0,0,0,0,0],"sum_hessian":[2.5638574E4,2.0259771E4,5.3788022E3,1.8197817E3,1.843999E4,5.2928096E3,8.599253E1,5.1893414E2,1.3008475E3,1.6147076E4,2.292913E3,3.442907E3,1.8499027E3,5.1531854E2,3.6156116E0,9.8678864E2,3.1405887E2,1.6079664E4,6.7412315E1,1.8971743E3,3.9573874E2,3.409408E3,3.3499023E1,6.1214813E2,1.2377545E3,7.622785E1,4.390907E2,1.4832E0,2.1324115E0,4.822126E2,5.0457605E2,1.1198212E1,3.0286066E2,1.2251569E4,3.8280952E3,1.3361844E3,5.609899E2,2.817966E2,1.1394213E2,5.526181E2,2.8567898E3,6.19339E0,2.7305632E1,7.59952E1,5.3615295E2,2.0246204E2,1.0352925E3],"tree_param":{"num_deleted":"0","num_feature":"38","num_nodes":"47","size_leaf_vector":"1"}},{"base_weights":[-1.08290635E-1,-1.0592555E-2,-3.1565613E-1,-1.5553859E-2,1.2899281E-1,-3.3185852E-1,1.1175658E-1,-5.1447783E-2,1.6491243E-1,-6.189558E-1,-2.7816886E-1,-2.5852695E-1,-1.2927649E-2,1.2548596E-1,4.0379E-1,-6.265644E-1,6.252074E-1,-1.9843875E-1,-5.7651144E-1,-4.1085135E-2,-1.339079E-2,4.463159E-3,-2.105241E-2,1.1249097E-1,1.1544036E-2,5.4494448E-2,1.2796079E-2,-7.100554E-2,-5.0748833E-2,1.954079E-1,-8.239187E-2,8.463021E-5,-2.6179476E-2,-6.589443E-2,-3.6425512E-2],"categories":[],"categories_nodes":[],"categories_segments":[],"categories_sizes":[],"default_left":[0,0,0,0,0,0,0,0,0,0,0,0,0,0,0,0,0,0,0,0,0,0,0,0,0,0,0,0,0,0,0,0,0,0,0],"id":20,"left_children":[1,3,5,7,-1,9,-1,11,13,15,17,19,21,23,25,27,29,31,33,-1,-1,-1,-1,-1,-1,-1,-1,-1,-1,-1,-1,-1,-1,-1,-1],"loss_changes":[5.134109E2,1.1117433E2,1.8883545E2,1.11183205E2,0E0,1.2354089E2,0E0,1.141936E2,2.6767128E1,1.235376E1,1.6076398E2,4.256656E1,1.373103E2,2.4422127E1,1.5618134E1,1.2129974E1,1.7364347E1,6.740497E1,2.4705414E1,0E0,0E0,0E0,0E0,0E0,0E0,0E0,0E0,0E0,0E0,0E0,0E0,0E0,0E0,0E0,0E0],"parents":[2147483647,0,0,1,1,2,2,3,3,5,5,7,7,8,8,9,9,10,10,11,11,12,12,13,13,14,14,15,15,16,16,17,17,18,18],"right_children":[2,4,6,8,-1,10,-1,12,14,16,18,20,22,24,26,28,30,32,34,-1,-1,-1,-1,-1,-1,-1,-1,-1,-1,-1,-1,-1,-1,-1,-1],"split_conditions":[1.6206999E-1,1E0,1E0,5.425039E-1,1.2899281E-1,1.904762E-1,1.1175658E-1,2.719177E-1,1E0,1E0,8.095238E-1,4.4047618E-1,5.952381E-1,2.120273E-2,1.2721638E-1,1.4285715E-1,2.646701E-1,3.0927835E-2,1E0,-4.1085135E-2,-1.339079E-2,4.463159E-3,-2.105241E-2,1.1249097E-1,1.1544036E-2,5.4494448E-2,1.2796079E-2,-7.100554E-2,-5.0748833E-2,1.954079E-1,-8.239187E-2,8.463021E-5,-2.6179476E-2,-6.589443E-2,-3.6425512E-2],"split_indices":[3,5,5,13,0,2,0,4,34,32,2,7,2,3,3,2,3,8,33,0,0,0,0,0,0,0,0,0,0,0,0,0,0,0,0],"split_type":[0,0,0,0,0,0,0,0,0,0,0,0,0,0,0,0,0,0,0,0,0,0,0,0,0,0,0,0,0,0,0,0,0,0,0],"sum_hessian":[2.534128E4,1.722633E4,8.114949E3,1.716185E4,6.4481255E1,8.024997E3,8.995236E1,1.4315318E4,2.846531E3,1.2626449E3,6.762352E3,2.2443345E3,1.2070984E4,2.4445845E3,4.019465E2,1.2554645E3,7.1805034E0,5.337585E3,1.4247667E3,1.00886865E3,1.235466E3,9.34855E3,2.7224343E3,2.3221586E1,2.421363E3,2.6523453E2,1.3671196E2,7.350842E2,5.203802E2,3.5642588E0,3.6162446E0,1.2878018E3,4.0497834E3,1.0247E3,4.000668E2],"tree_param":{"num_deleted":"0","num_feature":"38","num_nodes":"35","size_leaf_vector":"1"}},{"base_weights":[-9.877542E-2,-3.312933E-2,-3.7460804E-1,8.551548E-2,-8.774041E-2,-3.9678496E-1,1.088921E-1,-6.704567E-2,1.631932E-1,-4.3153927E-1,-6.806674E-2,-2.8133062E-1,-5.283573E-1,-1.1914695E-1,7.416586E-1,2.9697463E-1,5.8100402E-2,-4.5657688E-1,6.695565E-1,-4.5115348E-2,-3.9866272E-1,-2.2831038E-1,-5.06374E-1,-4.7917497E-1,-7.4331415E-1,-4.35743E-2,-5.4917033E-3,9.2398115E-2,-9.340436E-3,3.3006016E-2,-1.4972748E-2,1.6956164E-2,-2.6097862E-2,-3.4893647E-2,-6.8062745E-2,1.1398174E-1,-2.2830011E-2,2.5908997E-2,-6.8088747E-3,-2.9849095E-2,-6.449196E-2,-2.4109436E-2,1.1711695E-1,-5.5883538E-2,1.7333597E-2,-7.170383E-2,-4.3646988E-2,-7.6891355E-2,3.293457E-2],"categories":[],"categories_nodes":[],"categories_segments":[],"categories_sizes":[],"default_left":[0,0,0,0,0,0,0,0,0,0,0,0,0,0,0,0,0,0,0,0,0,0,0,0,0,0,0,0,0,0,0,0,0,0,0,0,0,0,0,0,0,0,0,0,0,0,0,0,0],"id":21,"left_children":[1,3,5,7,9,11,-1,13,15,17,19,21,23,25,27,29,31,33,35,37,39,41,43,45,47,-1,-1,-1,-1,-1,-1,-1,-1,-1,-1,-1,-1,-1,-1,-1,-1,-1,-1,-1,-1,-1,-1,-1,-1],"loss_changes":[4.5394147E2,1.3122528E2,1.5685303E2,7.566478E1,9.377586E1,7.197864E1,0E0,9.08673E1,5.946016E1,2.0995544E1,9.952634E1,3.0084991E1,2.3092041E1,4.1153313E1,1.9962257E1,2.755307E1,8.435102E1,1.7472855E1,7.477131E0,8.575951E1,2.0812408E1,3.696398E1,1.7277748E1,1.8050232E1,1.1544479E1,0E0,0E0,0E0,0E0,0E0,0E0,0E0,0E0,0E0,0E0,0E0,0E0,0E0,0E0,0E0,0E0,0E0,0E0,0E0,0E0,0E0,0E0,0E0,0E0],"parents":[2147483647,0,0,1,1,2,2,3,3,4,4,5,5,7,7,8,8,9,9,10,10,11,11,12,12,13,13,14,14,15,15,16,16,17,17,18,18,19,19,20,20,21,21,22,22,23,23,24,24],"right_children":[2,4,6,8,10,12,-1,14,16,18,20,22,24,26,28,30,32,34,36,38,40,42,44,46,48,-1,-1,-1,-1,-1,-1,-1,-1,-1,-1,-1,-1,-1,-1,-1,-1,-1,-1,-1,-1,-1,-1,-1,-1],"split_conditions":[2.1222115E-1,2.5773196E-2,1E0,1.0309278E-2,1.6141447E-1,1E0,1.088921E-1,1E0,1.54639175E-2,1E0,8.221923E-1,3.1494126E-1,3.290207E-1,2.9761904E-1,9.9245116E-2,3.0413812E-1,1E0,1.1707508E-1,5.853846E-1,3.8409866E-2,7.9761904E-1,1E0,7.6082677E-1,1.5476191E-1,6.888396E-1,-4.35743E-2,-5.4917033E-3,9.2398115E-2,-9.340436E-3,3.3006016E-2,-1.4972748E-2,1.6956164E-2,-2.6097862E-2,-3.4893647E-2,-6.8062745E-2,1.1398174E-1,-2.2830011E-2,2.5908997E-2,-6.8088747E-3,-2.9849095E-2,-6.449196E-2,-2.4109436E-2,1.1711695E-1,-5.5883538E-2,1.7333597E-2,-7.170383E-2,-4.3646988E-2,-7.6891355E-2,3.293457E-2],"split_indices":[3,8,5,8,4,37,0,23,8,35,4,3,3,7,3,9,29,3,17,3,2,32,3,2,9,0,0,0,0,0,0,0,0,0,0,0,0,0,0,0,0,0,0,0,0,0,0,0,0],"split_type":[0,0,0,0,0,0,0,0,0,0,0,0,0,0,0,0,0,0,0,0,0,0,0,0,0,0,0,0,0,0,0,0,0,0,0,0,0,0,0,0,0,0,0,0,0,0,0,0,0],"sum_hessian":[2.5069193E4,2.0250783E4,4.81841E3,6.3829585E3,1.3867824E4,4.747205E3,7.12051E1,2.153517E3,4.2294414E3,7.494875E2,1.3118337E4,2.5301514E3,2.2170537E3,2.023975E3,1.2954196E2,1.8599366E3,2.3695046E3,7.3339716E2,1.6090336E1,1.2267793E4,8.505433E2,2.0493445E3,4.808068E2,1.8068729E3,4.101809E2,3.4038446E2,1.6835906E3,1.0624073E2,2.3301235E1,1.7319231E3,1.2801352E2,1.7564205E3,6.130841E2,4.9712546E2,2.3627168E2,1.0383503E1,5.7068315E0,8.606787E2,1.1407114E4,6.061793E2,2.4436397E2,2.0316145E3,1.7729965E1,4.465226E2,3.428418E1,2.726158E2,1.5342571E3,4.0089743E2,9.283464E0],"tree_param":{"num_deleted":"0","num_feature":"38","num_nodes":"49","size_leaf_vector":"1"}},{"base_weights":[-9.003699E-2,-3.006777E-2,-3.5062662E-1,-3.4638394E-2,1.2461241E-1,-3.7115848E-1,1.0769216E-1,-4.490168E-1,-2.1535464E-2,-4.621862E-1,-2.1287468E-1,-5.261175E-1,5.321588E-4,4.3504415E-3,-2.245538E-1,-5.0394166E-1,-2.0619342E-1,-3.2682505E-2,-2.9851857E-1,-6.847664E-2,-4.074896E-2,-1.1108965E-2,9.5886774E-2,-1.1660903E-2,4.7937636E-3,-2.903263E-2,7.358356E-3,-2.8280422E-2,-5.5884656E-2,-2.299764E-2,9.568581E-2,4.007151E-2,-9.949512E-3,-2.6507754E-2,-7.709312E-2],"categories":[],"categories_nodes":[],"categories_segments":[],"categories_sizes":[],"default_left":[0,0,0,0,0,0,0,0,0,0,0,0,0,0,0,0,0,0,0,0,0,0,0,0,0,0,0,0,0,0,0,0,0,0,0],"id":22,"left_children":[1,3,5,7,-1,9,-1,11,13,15,17,19,21,23,25,27,29,31,33,-1,-1,-1,-1,-1,-1,-1,-1,-1,-1,-1,-1,-1,-1,-1,-1],"loss_changes":[3.880453E2,1.1779537E2,1.3655585E2,1.0921333E2,0E0,6.5894165E1,0E0,2.1370575E1,1.0248435E2,3.096936E1,2.5826508E1,9.62468E0,9.86937E0,9.119791E1,4.326586E1,3.0179016E1,1.1543016E1,1.5690372E1,1.7720375E1,0E0,0E0,0E0,0E0,0E0,0E0,0E0,0E0,0E0,0E0,0E0,0E0,0E0,0E0,0E0,0E0],"parents":[2147483647,0,0,1,1,2,2,3,3,5,5,7,7,8,8,9,9,10,10,11,11,12,12,13,13,14,14,15,15,16,16,17,17,18,18],"right_children":[2,4,6,8,-1,10,-1,12,14,16,18,20,22,24,26,28,30,32,34,-1,-1,-1,-1,-1,-1,-1,-1,-1,-1,-1,-1,-1,-1,-1,-1],"split_conditions":[2.1222115E-1,1E0,1E0,2.2619048E-1,1.2461241E-1,1E0,1.0769216E-1,1E0,7.555838E-1,5.425039E-1,2.5792503E-1,1.6141447E-1,6.7542505E-1,4.2857143E-1,5.425039E-1,2.5773196E-2,1E0,2.0618556E-2,3.7553778E-1,-6.847664E-2,-4.074896E-2,-1.1108965E-2,9.5886774E-2,-1.1660903E-2,4.7937636E-3,-2.903263E-2,7.358356E-3,-2.8280422E-2,-5.5884656E-2,-2.299764E-2,9.568581E-2,4.007151E-2,-9.949512E-3,-2.6507754E-2,-7.709312E-2],"split_indices":[3,5,5,2,0,33,0,33,4,13,3,4,13,2,13,8,35,8,3,0,0,0,0,0,0,0,0,0,0,0,0,0,0,0,0],"split_type":[0,0,0,0,0,0,0,0,0,0,0,0,0,0,0,0,0,0,0,0,0,0,0,0,0,0,0,0,0,0,0,0,0,0,0],"sum_hessian":[2.4830852E4,2.0186479E4,4.6443735E3,2.011541E4,7.106878E1,4.5792524E3,6.512083E1,6.155446E2,1.9499865E4,2.9060696E3,1.673183E3,5.252864E2,9.025828E1,1.7295562E4,2.2043018E3,2.4976934E3,4.083762E2,5.3949493E2,1.133688E3,2.2268903E2,3.0259735E2,8.1633125E1,8.625153E0,4.5810166E3,1.2714547E4,1.8059238E3,3.983779E2,4.9801862E2,1.9996748E3,4.0097977E2,7.396423E0,7.139033E1,4.6810464E2,1.0602019E3,7.3486115E1],"tree_param":{"num_deleted":"0","num_feature":"38","num_nodes":"35","size_leaf_vector":"1"}},{"base_weights":[-8.196341E-2,7.788119E-3,-2.3176336E-1,-2.005639E-2,2.2731625E-1,-2.429634E-1,1.10243104E-1,3.0863926E-1,-4.0989995E-2,1.5867423E-1,3.8473323E-1,-5.2927E-1,-1.9598815E-1,4.1824985E-1,-3.346184E-1,-4.5145437E-2,1.2000221E-1,9.036354E-2,4.086763E-1,1.5016893E-1,6.525943E-1,-4.9807832E-1,-9.151197E-1,-1.3123967E-1,-5.0819665E-1,-5.8910022E-3,5.0557654E-2,2.4901805E-2,-4.4547357E-2,-2.1903379E-2,-1.6484751E-3,-2.877448E-2,1.279358E-2,3.4683026E-2,8.580124E-2,1.936505E-2,-7.0277914E-2,4.7273543E-2,1.02845445E-1,-5.0533783E-2,2.2165537E-1,-9.239076E-2,-2.2282703E-2,3.7281539E-3,-1.8847995E-2,-5.9021987E-2,-2.953116E-2],"categories":[],"categories_nodes":[],"categories_segments":[],"categories_sizes":[],"default_left":[0,0,0,0,0,0,0,0,0,0,0,0,0,0,0,0,0,0,0,0,0,0,0,0,0,0,0,0,0,0,0,0,0,0,0,0,0,0,0,0,0,0,0,0,0,0,0],"id":23,"left_children":[1,3,5,7,9,11,-1,13,15,17,19,21,23,25,27,29,-1,31,33,35,37,39,41,43,45,-1,-1,-1,-1,-1,-1,-1,-1,-1,-1,-1,-1,-1,-1,-1,-1,-1,-1,-1,-1,-1,-1],"loss_changes":[3.3083325E2,9.40686E1,1.3803116E2,9.39844E1,1.8655739E1,1.22867676E2,0E0,5.780275E1,6.627009E1,2.0591562E1,3.290458E1,1.50460205E1,1.587464E2,2.9164993E1,7.8505077E0,6.3780586E1,0E0,1.3532734E1,6.897068E0,1.0569939E1,1.6070099E1,2.4648346E1,3.7182617E-1,6.278602E1,2.3381897E1,0E0,0E0,0E0,0E0,0E0,0E0,0E0,0E0,0E0,0E0,0E0,0E0,0E0,0E0,0E0,0E0,0E0,0E0,0E0,0E0,0E0,0E0],"parents":[2147483647,0,0,1,1,2,2,3,3,4,4,5,5,7,7,8,8,9,9,10,10,11,11,12,12,13,13,14,14,15,15,17,17,18,18,19,19,20,20,21,21,22,22,23,23,24,24],"right_children":[2,4,6,8,10,12,-1,14,16,18,20,22,24,26,28,30,-1,32,34,36,38,40,42,44,46,-1,-1,-1,-1,-1,-1,-1,-1,-1,-1,-1,-1,-1,-1,-1,-1,-1,-1,-1,-1,-1,-1],"split_conditions":[1.4169174E-1,1E0,1E0,3.1804096E-2,5.225952E-2,2.0238096E-1,1.10243104E-1,1E0,1E0,5.61051E-1,4.7333333E-1,3.7553778E-1,8.095238E-1,4.5238096E-1,7.1589105E-2,4.047619E-1,1.2000221E-1,3.354102E-2,8.9416665E-1,8.221923E-1,5.482884E-1,1E0,6.4577496E-1,3.0927835E-2,1E0,-5.8910022E-3,5.0557654E-2,2.4901805E-2,-4.4547357E-2,-2.1903379E-2,-1.6484751E-3,-2.877448E-2,1.279358E-2,3.4683026E-2,8.580124E-2,1.936505E-2,-7.0277914E-2,4.7273543E-2,1.02845445E-1,-5.0533783E-2,2.2165537E-1,-9.239076E-2,-2.2282703E-2,3.7281539E-3,-1.8847995E-2,-5.9021987E-2,-2.953116E-2],"split_indices":[3,34,5,3,12,2,0,36,5,13,17,3,2,2,9,2,0,9,16,4,11,35,11,8,33,0,0,0,0,0,0,0,0,0,0,0,0,0,0,0,0,0,0,0,0,0,0],"split_type":[0,0,0,0,0,0,0,0,0,0,0,0,0,0,0,0,0,0,0,0,0,0,0,0,0,0,0,0,0,0,0,0,0,0,0,0,0,0,0,0,0,0,0,0,0,0,0],"sum_hessian":[2.4605676E4,1.5387383E4,9.218294E3,1.3656166E4,1.7312167E3,9.142366E3,7.5927925E1,8.1681976E2,1.2839346E4,1.2069414E3,5.242752E2,1.2871439E3,7.855222E3,6.981986E2,1.1862115E2,1.2797459E4,4.1886967E1,9.4900134E2,2.5794012E2,2.80344E2,2.4393118E2,1.1929967E3,9.414716E1,6.507139E3,1.3480831E3,1.08060646E2,5.9013794E2,1.8733997E1,9.988715E1,1.8098955E3,1.0987563E4,8.517344E1,8.6382794E2,2.2829234E2,2.9647764E1,2.6748242E2,1.2861583E1,1.6651147E2,7.74197E1,1.190627E3,2.3697753E0,9.2635254E1,1.5119128E0,1.6499249E3,4.8572144E3,9.71856E2,3.7622705E2],"tree_param":{"num_deleted":"0","num_feature":"38","num_nodes":"47","size_leaf_vector":"1"}},{"base_weights":[-7.4584164E-2,-2.3449099E-2,-3.0919203E-1,-5.576313E-2,1.286424E-1,-3.2658073E-1,1.05566256E-1,-1.4810236E-1,2.2027552E-2,6.4717814E-2,2.2173415E-1,-2.1829805E-1,-4.5609388E-1,-4.659582E-1,-1.2219211E-1,3.3234865E-3,4.3663505E-1,3.9864564E-1,3.6175866E-2,7.1062006E-2,2.979021E-1,-1.6534016E-1,-4.3502757E-1,-4.062901E-1,-6.948896E-1,-6.811458E-2,-3.8218163E-2,-9.078515E-3,-3.43326E-2,6.740894E-3,-1.1033013E-2,3.6635302E-2,1.1811938E-1,5.8010835E-3,7.736747E-2,1.2390002E-2,-6.3664312E-3,2.4901176E-2,-4.827295E-3,3.9859194E-2,1.12825595E-2,-3.178897E-2,-1.7162176E-3,-3.456051E-2,-6.547884E-2,-4.13133E-2,1.2068492E-1,-7.23733E-2,5.4602798E-2],"categories":[],"categories_nodes":[],"categories_segments":[],"categories_sizes":[],"default_left":[0,0,0,0,0,0,0,0,0,0,0,0,0,0,0,0,0,0,0,0,0,0,0,0,0,0,0,0,0,0,0,0,0,0,0,0,0,0,0,0,0,0,0,0,0,0,0,0,0],"id":24,"left_children":[1,3,5,7,9,11,-1,13,15,17,19,21,23,25,27,29,31,33,35,37,39,41,43,45,47,-1,-1,-1,-1,-1,-1,-1,-1,-1,-1,-1,-1,-1,-1,-1,-1,-1,-1,-1,-1,-1,-1,-1,-1],"loss_changes":[2.9272076E2,9.847396E1,1.0397565E2,1.18705185E2,2.0879612E1,6.037671E1,0E0,6.2172485E1,6.955882E1,1.9839073E1,1.637867E1,2.6906784E1,2.305957E1,9.999229E0,4.8500717E1,6.2527775E1,1.982663E1,2.0895626E1,1.682558E1,1.02299E1,1.7637215E1,4.2731358E1,8.831459E0,1.8451569E1,1.2468216E1,0E0,0E0,0E0,0E0,0E0,0E0,0E0,0E0,0E0,0E0,0E0,0E0,0E0,0E0,0E0,0E0,0E0,0E0,0E0,0E0,0E0,0E0,0E0,0E0],"parents":[2147483647,0,0,1,1,2,2,3,3,4,4,5,5,7,7,8,8,9,9,10,10,11,11,12,12,13,13,14,14,15,15,16,16,17,17,18,18,19,19,20,20,21,21,22,22,23,23,24,24],"right_children":[2,4,6,8,10,12,-1,14,16,18,20,22,24,26,28,30,32,34,36,38,40,42,44,46,48,-1,-1,-1,-1,-1,-1,-1,-1,-1,-1,-1,-1,-1,-1,-1,-1,-1,-1,-1,-1,-1,-1,-1,-1],"split_conditions":[2.1222115E-1,5.425039E-1,1E0,2.6280716E-2,1.71143E-2,1E0,1.05566256E-1,2.9761904E-1,8.992308E-1,5E-1,3.3307692E-1,8.095238E-1,3.3199105E-1,1.6141447E-1,6.666667E-1,4.1237112E-2,1E0,1E0,1E0,1.5572411E-1,5.952381E-1,3.9285713E-1,1E0,9.551282E-1,2.069731E-1,-6.811458E-2,-3.8218163E-2,-9.078515E-3,-3.43326E-2,6.740894E-3,-1.1033013E-2,3.6635302E-2,1.1811938E-1,5.8010835E-3,7.736747E-2,1.2390002E-2,-6.3664312E-3,2.4901176E-2,-4.827295E-3,3.9859194E-2,1.12825595E-2,-3.178897E-2,-1.7162176E-3,-3.456051E-2,-6.547884E-2,-4.13133E-2,1.2068492E-1,-7.23733E-2,5.4602798E-2],"split_indices":[3,13,5,12,12,37,0,2,17,15,17,2,3,4,2,8,5,14,37,9,7,2,34,17,12,0,0,0,0,0,0,0,0,0,0,0,0,0,0,0,0,0,0,0,0,0,0,0,0],"split_type":[0,0,0,0,0,0,0,0,0,0,0,0,0,0,0,0,0,0,0,0,0,0,0,0,0,0,0,0,0,0,0,0,0,0,0,0,0,0,0,0,0,0,0,0,0,0,0,0,0],"sum_hessian":[2.4399762E4,2.0034215E4,4.365548E3,1.6524076E4,3.5101382E3,4.3113804E3,5.416701E1,7.555108E3,8.968969E3,2.0821003E3,1.4280381E3,2.3496177E3,1.9617631E3,5.681587E2,6.986949E3,8.582786E3,3.8618225E2,1.6292697E2,1.9191732E3,4.801574E2,9.478806E2,1.8896489E3,4.599686E2,1.6254594E3,3.3630374E2,1.5720958E2,4.1094913E2,6.119264E3,8.6768506E2,5.4884497E3,3.0943364E3,3.5423764E2,3.194461E1,8.598505E1,7.6941925E1,1.02144977E3,8.977235E2,1.9231023E2,2.878472E2,6.13144E2,3.3473663E2,9.305222E2,9.591268E2,3.2876755E2,1.3120103E2,1.6193346E3,6.124677E0,3.2907248E2,7.231252E0],"tree_param":{"num_deleted":"0","num_feature":"38","num_nodes":"49","size_leaf_vector":"1"}},{"base_weights":[-6.78232E-2,-2.5625506E-2,-3.1480882E-1,-2.9236317E-2,1.1806259E-1,-3.3365825E-1,1.0456195E-1,1.0043416E-1,-6.2966846E-2,-4.3295297E-1,-1.8280305E-1,2.4688417E-1,6.85919E-2,-2.9915917E-1,-3.637349E-2,-4.396484E-1,1.5018113E0,-1.5526958E-1,-7.3140395E-1,6.596207E-2,1.5193912E-2,3.4791217E-3,3.0018002E-2,-5.1430594E-2,-2.2699913E-2,-4.0399685E-4,-2.7528076E-2,-2.2433436E-2,-4.9168646E-2,2.6875684E-2,2.1995614E-1,-8.03592E-3,-3.2984164E-2,-7.835298E-2,5.3540558E-2],"categories":[],"categories_nodes":[],"categories_segments":[],"categories_sizes":[],"default_left":[0,0,0,0,0,0,0,0,0,0,0,0,0,0,0,0,0,0,0,0,0,0,0,0,0,0,0,0,0,0,0,0,0,0,0],"id":25,"left_children":[1,3,5,7,-1,9,-1,11,13,15,17,19,21,23,25,27,29,31,33,-1,-1,-1,-1,-1,-1,-1,-1,-1,-1,-1,-1,-1,-1,-1,-1],"loss_changes":[2.5237997E2,9.012255E1,9.096033E1,9.020846E1,0E0,5.2138E1,0E0,1.9836979E1,1.0278913E2,2.788272E1,2.0813137E1,2.9680943E1,2.7375381E1,2.5593658E1,1.136398E2,2.3363342E1,5.836254E0,1.7242168E1,4.7740707E0,0E0,0E0,0E0,0E0,0E0,0E0,0E0,0E0,0E0,0E0,0E0,0E0,0E0,0E0,0E0,0E0],"parents":[2147483647,0,0,1,1,2,2,3,3,5,5,7,7,8,8,9,9,10,10,11,11,12,12,13,13,14,14,15,15,16,16,17,17,18,18],"right_children":[2,4,6,8,-1,10,-1,12,14,16,18,20,22,24,26,28,30,32,34,-1,-1,-1,-1,-1,-1,-1,-1,-1,-1,-1,-1,-1,-1,-1,-1],"split_conditions":[2.2943039E-1,1E0,1E0,1E0,1.1806259E-1,1E0,1.0456195E-1,1.54639175E-2,3.2142857E-1,9.551282E-1,3.7553778E-1,3.9259946E-1,1E0,1.6809131E-1,6.785714E-1,2.5773196E-2,4.9646756E-1,6.2111896E-1,6.0827625E-1,6.596207E-2,1.5193912E-2,3.4791217E-3,3.0018002E-2,-5.1430594E-2,-2.2699913E-2,-4.0399685E-4,-2.7528076E-2,-2.2433436E-2,-4.9168646E-2,2.6875684E-2,2.1995614E-1,-8.03592E-3,-3.2984164E-2,-7.835298E-2,5.3540558E-2],"split_indices":[3,5,5,15,0,33,0,8,2,17,3,11,35,4,2,8,11,4,9,0,0,0,0,0,0,0,0,0,0,0,0,0,0,0,0],"split_type":[0,0,0,0,0,0,0,0,0,0,0,0,0,0,0,0,0,0,0,0,0,0,0,0,0,0,0,0,0,0,0,0,0,0,0],"sum_hessian":[2.4215363E4,2.0682799E4,3.5325652E3,2.0622045E4,6.0753716E1,3.485034E3,4.75314E1,4.256551E3,1.6365493E4,2.1005496E3,1.3844843E3,7.5899066E2,3.4975603E3,1.655112E3,1.4710381E4,2.0940762E3,6.47343E0,1.3195432E3,6.49411E1,1.4082985E2,6.1816077E2,3.0531084E3,4.444519E2,4.1415604E2,1.240956E3,1.2957715E4,1.752666E3,4.086336E2,1.6854425E3,2.8404448E0,3.6329854E0,9.243589E2,3.951843E2,6.2741734E1,2.1993701E0],"tree_param":{"num_deleted":"0","num_feature":"38","num_nodes":"35","size_leaf_vector":"1"}},{"base_weights":[-6.161689E-2,-2.3540897E-2,-2.9532313E-1,-3.3021662E-2,4.2277545E-1,-3.1291914E-1,1.03686534E-1,6.465795E-2,-7.888701E-2,2.9686508E-1,8.5295993E-1,-4.0783155E-1,-1.7322068E-1,-8.589008E-2,1.3955039E-1,5.757896E-2,-1.1917884E-1,2.4633497E-1,7.827359E-1,1.7052888E0,6.5009147E-1,-4.2035824E-1,5.0797105E-1,-1.4747995E-1,-7.0770603E-1,-1.3264461E-2,6.1366703E-2,8.595657E-3,3.7964344E-2,2.3267376E-3,2.807772E-2,-1.4287208E-2,1.3745609E-2,1.2051781E-1,2.197931E-2,1.3785009E-1,1.3432934E-2,8.8607684E-2,2.884657E-1,8.303159E-2,-1.2146934E-2,-4.2800266E-2,9.980791E-2,2.0913577E-1,-3.05544E-3,-7.831766E-3,-3.130637E-2,-7.505684E-2,7.6629974E-2],"categories":[],"categories_nodes":[],"categories_segments":[],"categories_sizes":[],"default_left":[0,0,0,0,0,0,0,0,0,0,0,0,0,0,0,0,0,0,0,0,0,0,0,0,0,0,0,0,0,0,0,0,0,0,0,0,0,0,0,0,0,0,0,0,0,0,0,0,0],"id":26,"left_children":[1,3,5,7,9,11,-1,13,15,17,19,21,23,25,27,29,31,33,35,37,39,41,43,45,47,-1,-1,-1,-1,-1,-1,-1,-1,-1,-1,-1,-1,-1,-1,-1,-1,-1,-1,-1,-1,-1,-1,-1,-1],"loss_changes":[2.1393787E2,8.74997E1,7.9278595E1,9.071045E1,2.3043274E1,4.4016296E1,0E0,7.295618E1,7.5762726E1,8.01293E0,1.5635971E1,2.2918365E1,1.8425598E1,7.039698E1,5.5564194E1,2.404991E1,6.470026E1,7.4765644E0,1.1799423E1,1.4834412E1,1.1204964E1,2.1603271E1,2.3223597E1,1.4705847E1,4.4683456E0,0E0,0E0,0E0,0E0,0E0,0E0,0E0,0E0,0E0,0E0,0E0,0E0,0E0,0E0,0E0,0E0,0E0,0E0,0E0,0E0,0E0,0E0,0E0,0E0],"parents":[2147483647,0,0,1,1,2,2,3,3,4,4,5,5,7,7,8,8,9,9,10,10,11,11,12,12,13,13,14,14,15,15,16,16,17,17,18,18,19,19,20,20,21,21,22,22,23,23,24,24],"right_children":[2,4,6,8,10,12,-1,14,16,18,20,22,24,26,28,30,32,34,36,38,40,42,44,46,48,-1,-1,-1,-1,-1,-1,-1,-1,-1,-1,-1,-1,-1,-1,-1,-1,-1,-1,-1,-1,-1,-1,-1,-1],"split_conditions":[2.3110025E-1,1E0,1E0,2.5773196E-2,6.4399116E-2,1E0,1.03686534E-1,1.0309278E-2,1E0,1E0,1E0,1E0,3.7553778E-1,1E0,1E0,1E0,8.8922456E-2,5.154639E-3,7.626263E-1,5.9736425E-1,2.075E-1,9.3871796E-1,3.0927835E-2,6.2111896E-1,1.9207951E-1,-1.3264461E-2,6.1366703E-2,8.595657E-3,3.7964344E-2,2.3267376E-3,2.807772E-2,-1.4287208E-2,1.3745609E-2,1.2051781E-1,2.197931E-2,1.3785009E-1,1.3432934E-2,8.8607684E-2,2.884657E-1,8.303159E-2,-1.2146934E-2,-4.2800266E-2,9.980791E-2,2.0913577E-1,-3.05544E-3,-7.831766E-3,-3.130637E-2,-7.505684E-2,7.6629974E-2],"split_indices":[3,0,5,8,12,33,0,8,15,33,10,32,3,23,20,35,12,8,1,4,16,17,8,4,12,0,0,0,0,0,0,0,0,0,0,0,0,0,0,0,0,0,0,0,0,0,0,0,0],"split_type":[0,0,0,0,0,0,0,0,0,0,0,0,0,0,0,0,0,0,0,0,0,0,0,0,0,0,0,0,0,0,0,0,0,0,0,0,0,0,0,0,0,0,0,0,0,0,0,0,0],"sum_hessian":[2.4041568E4,2.0674357E4,3.3672114E3,2.024523E4,4.2912607E2,3.324072E3,4.3139614E1,6.4685986E3,1.3776632E4,3.3327307E2,9.585301E1,1.9781633E3,1.3459086E3,2.1488474E3,4.3197515E3,3.1402708E3,1.063636E4,3.0324493E2,3.002814E1,1.7003584E1,7.8849434E1,1.9520051E3,2.6158203E1,1.2852871E3,6.0621433E1,2.0149885E3,1.338589E2,3.5325696E3,7.871818E2,2.7228103E3,4.1746057E2,9.737788E3,8.9857227E2,6.9709296E0,2.96274E2,1.5061707E1,1.4966433E1,1.10678215E1,5.935762E0,6.3858288E1,1.4991143E1,1.9422368E3,9.768374E0,5.9074197E0,2.0250784E1,9.0765137E2,3.7763574E2,5.9386032E1,1.2354003E0],"tree_param":{"num_deleted":"0","num_feature":"38","num_nodes":"49","size_leaf_vector":"1"}},{"base_weights":[-5.5913426E-2,-3.9706722E-1,-3.3098318E-2,-4.1014564E-1,1.0280056E-1,-4.501494E-3,-3.4034342E-1,-1.3828725E-1,-4.7203243E-1,-8.303494E-3,1.1177721E-1,-3.970701E-1,-1.2162979E-2,-4.2219704E-1,2.572552E-2,-4.4302285E-1,-8.743807E-1,-6.1727617E-2,6.399719E-2,-4.1048998E-1,1.0447828E-1,7.552861E-2,-4.3417048E-1,-1.5355244E-2,-7.8372076E-2,9.1165E-3,-9.894737E-2,-4.5135707E-2,2.2633581E-1,-3.7545193E-2,-8.933165E-2,-1.8332114E-2,-1.2428341E-3,1.0009199E-2,-9.0991E-3,-4.8365016E-2,-2.0307245E-2,8.35549E-2,-4.0486473E-5,-2.6713956E-2,-7.424457E-2],"categories":[],"categories_nodes":[],"categories_segments":[],"categories_sizes":[],"default_left":[0,0,0,0,0,0,0,0,0,0,0,0,0,0,0,0,0,0,0,0,0,0,0,0,0,0,0,0,0,0,0,0,0,0,0,0,0,0,0,0,0],"id":27,"left_children":[1,3,5,7,-1,9,11,13,15,17,-1,19,21,23,25,27,29,31,33,35,-1,37,39,-1,-1,-1,-1,-1,-1,-1,-1,-1,-1,-1,-1,-1,-1,-1,-1,-1,-1],"loss_changes":[1.8599118E2,2.8338425E1,1.9681448E2,2.4918274E1,0E0,8.745435E1,3.5503708E1,1.2899533E1,1.3725159E1,7.8901245E1,0E0,3.1895142E1,1.0474153E1,9.727489E0,1.180659E1,2.6505737E1,4.2190552E-1,7.041393E1,4.856773E1,2.4362183E1,0E0,1.353143E1,2.3078308E0,0E0,0E0,0E0,0E0,0E0,0E0,0E0,0E0,0E0,0E0,0E0,0E0,0E0,0E0,0E0,0E0,0E0,0E0],"parents":[2147483647,0,0,1,1,2,2,3,3,5,5,6,6,7,7,8,8,9,9,11,11,12,12,13,13,14,14,15,15,16,16,17,17,18,18,19,19,21,21,22,22],"right_children":[2,4,6,8,-1,10,12,14,16,18,-1,20,22,24,26,28,30,32,34,36,-1,38,40,-1,-1,-1,-1,-1,-1,-1,-1,-1,-1,-1,-1,-1,-1,-1,-1,-1,-1],"split_conditions":[2.2619048E-1,1E0,7.619048E-1,1E0,1.0280056E-1,1E0,5.795981E-1,1.6666667E-1,3.7553778E-1,3.300053E-2,1.1177721E-1,1E0,2.7261892E-1,7.1859294E-1,9.5E-1,1E0,3.8717948E-2,4.4047618E-1,1E0,1E0,1.0447828E-1,4.9038365E-1,7.2619045E-1,-1.5355244E-2,-7.8372076E-2,9.1165E-3,-9.894737E-2,-4.5135707E-2,2.2633581E-1,-3.7545193E-2,-8.933165E-2,-1.8332114E-2,-1.2428341E-3,1.0009199E-2,-9.0991E-3,-4.8365016E-2,-2.0307245E-2,8.35549E-2,-4.0486473E-5,-2.6713956E-2,-7.424457E-2],"split_indices":[2,5,2,15,0,5,13,2,3,12,0,5,3,6,16,35,17,2,22,33,0,11,7,0,0,0,0,0,0,0,0,0,0,0,0,0,0,0,0,0,0],"split_type":[0,0,0,0,0,0,0,0,0,0,0,0,0,0,0,0,0,0,0,0,0,0,0,0,0,0,0,0,0,0,0,0,0,0,0,0,0,0,0,0,0],"sum_hessian":[2.3896436E4,1.4968984E3,2.2399537E4,1.4839922E3,1.290626E1,2.0493156E4,1.9063817E3,2.757813E2,1.2082109E3,2.0424955E4,6.820146E1,1.6252421E3,2.8113962E2,1.0040679E2,1.7537451E2,1.1289187E3,7.9292244E1,1.174589E4,8.679064E3,1.6109642E3,1.4277837E1,2.3344855E2,4.7691082E1,5.8421707E1,4.1985085E1,1.6561047E2,9.764025E0,1.1262839E3,2.6347635E0,3.6628282E0,7.562942E1,3.3876726E3,8.358217E3,7.039917E3,1.639148E3,1.1899198E3,4.210444E2,2.02977E1,2.1315085E2,3.214432E1,1.554676E1],"tree_param":{"num_deleted":"0","num_feature":"38","num_nodes":"41","size_leaf_vector":"1"}},{"base_weights":[-5.07582E-2,-2.0785512E-2,-2.796987E-1,-3.787777E-2,2.1386525E-1,-2.9634908E-1,1.01937726E-1,1.2784994E-2,-1.4057131E-1,1.2937438E-1,4.5854115E-1,-2.4862015E-1,-5.596482E-1,-1.2228661E-2,2.3805408E-1,-1.9903387E-1,2.6115675E-2,4.279963E-1,7.8673564E-2,1.8809678E-1,5.728505E-1,-4.800906E-1,-1.9195628E-1,-6.266757E-1,7.333015E-1,2.6851267E-2,-3.2968817E-3,-2.2196474E-2,2.6772773E-2,-4.9089823E-2,-1.7074216E-2,5.4524215E-3,-3.7255112E-2,-2.2660738E-2,5.4973137E-2,5.6531574E-3,7.2987E-2,1.0692408E-1,8.530132E-3,7.137638E-2,6.81545E-3,-5.1915165E-2,-2.246488E-2,-8.60767E-3,-3.827362E-2,-2.3314882E-2,-7.143953E-2,-1.6846294E-3,2.5611582E-1],"categories":[],"categories_nodes":[],"categories_segments":[],"categories_sizes":[],"default_left":[0,0,0,0,0,0,0,0,0,0,0,0,0,0,0,0,0,0,0,0,0,0,0,0,0,0,0,0,0,0,0,0,0,0,0,0,0,0,0,0,0,0,0,0,0,0,0,0,0],"id":28,"left_children":[1,3,5,7,9,11,-1,13,15,17,19,21,23,25,27,29,31,33,35,37,39,41,43,45,47,-1,-1,-1,-1,-1,-1,-1,-1,-1,-1,-1,-1,-1,-1,-1,-1,-1,-1,-1,-1,-1,-1,-1,-1],"loss_changes":[1.6300081E2,8.4257935E1,5.9781937E1,1.0187609E2,2.9427467E1,3.3990326E1,0E0,7.38926E1,6.3043747E1,1.6039621E1,1.1197739E1,3.0085922E1,3.650804E1,6.873565E1,1.794963E1,3.9461945E1,1.9053488E1,1.2385746E1,1.3061611E1,9.884628E0,1.8198135E1,4.3908234E0,3.7337776E1,1.3502472E1,2.8786732E1,0E0,0E0,0E0,0E0,0E0,0E0,0E0,0E0,0E0,0E0,0E0,0E0,0E0,0E0,0E0,0E0,0E0,0E0,0E0,0E0,0E0,0E0,0E0,0E0],"parents":[2147483647,0,0,1,1,2,2,3,3,4,4,5,5,7,7,8,8,9,9,10,10,11,11,12,12,13,13,14,14,15,15,16,16,17,17,18,18,19,19,20,20,21,21,22,22,23,23,24,24],"right_children":[2,4,6,8,10,12,-1,14,16,18,20,22,24,26,28,30,32,34,36,38,40,42,44,46,48,-1,-1,-1,-1,-1,-1,-1,-1,-1,-1,-1,-1,-1,-1,-1,-1,-1,-1,-1,-1,-1,-1,-1,-1],"split_conditions":[2.4607688E-1,1E0,1E0,1.18444994E-1,4.603177E-2,3.4490559E-1,1.01937726E-1,1E0,1E0,1.1143474E-1,2.820513E-1,3.524164E-1,6.0827625E-1,3.1804096E-2,3.0413812E-2,2.294923E-1,8.095238E-1,3.8078867E-2,1E0,5.0833587E-2,2.1299478E-1,5.144771E-1,6.2314636E-1,2.5773196E-2,9.811014E-2,2.6851267E-2,-3.2968817E-3,-2.2196474E-2,2.6772773E-2,-4.9089823E-2,-1.7074216E-2,5.4524215E-3,-3.7255112E-2,-2.2660738E-2,5.4973137E-2,5.6531574E-3,7.2987E-2,1.0692408E-1,8.530132E-3,7.137638E-2,6.81545E-3,-5.1915165E-2,-2.246488E-2,-8.60767E-3,-3.827362E-2,-2.3314882E-2,-7.143953E-2,-1.6846294E-3,2.5611582E-1],"split_indices":[3,33,5,3,12,3,0,34,34,3,17,4,9,3,9,4,2,9,0,12,3,11,4,8,12,0,0,0,0,0,0,0,0,0,0,0,0,0,0,0,0,0,0,0,0,0,0,0,0],"split_type":[0,0,0,0,0,0,0,0,0,0,0,0,0,0,0,0,0,0,0,0,0,0,0,0,0,0,0,0,0,0,0,0,0,0,0,0,0,0,0,0,0,0,0,0,0,0,0,0,0],"sum_hessian":[2.375415E4,2.1005256E4,2.7488945E3,1.9579875E4,1.4253798E3,2.7148704E3,3.4024128E1,1.3112051E4,6.4678247E3,1.0606511E3,3.6472858E2,2.2999082E3,4.149623E2,1.1802459E4,1.309592E3,4.788243E3,1.6795812E3,1.5286032E2,9.0779083E2,1.0914852E2,2.5558005E2,4.5082196E2,1.8490862E3,3.9500125E2,1.9961071E1,8.111147E2,1.0991345E4,7.8962E1,1.2306301E3,4.21682E2,4.3665615E3,1.5686656E3,1.1091558E2,2.3833134E1,1.2902719E2,8.789917E2,2.8799145E1,1.0419876E1,9.8728645E1,1.9947073E2,5.6109314E1,3.9012888E2,6.0693073E1,1.1900728E3,6.590134E2,7.2667984E1,3.2233325E2,1.4854896E1,5.106176E0],"tree_param":{"num_deleted":"0","num_feature":"38","num_nodes":"49","size_leaf_vector":"1"}},{"base_weights":[-4.6063434E-2,-3.725634E-1,-2.776893E-2,-3.844126E-1,9.863787E-2,-8.732378E-3,-3.813117E-1,-5.077708E-1,-2.726912E-1,-1.2239835E-2,1.1110114E-1,-3.93254E-1,9.7688586E-2,-5.201417E-1,8.4260327E-1,-1.7244276E-1,-4.5860624E-1,-2.071732E-2,3.777929E-1,-4.7991094E-1,-1.8025754E-1,-5.292324E-2,8.489566E-2,1.9183269E-1,-7.0187785E-2,-2.1376202E-2,3.4546E-2,1.9201014E-2,-4.8292186E-2,8.838691E-3,-5.094288E-3,2.7076853E-2,7.38158E-2,-4.918828E-2,1.5045947E-1,8.142172E-3,-3.9773893E-2],"categories":[],"categories_nodes":[],"categories_segments":[],"categories_sizes":[],"default_left":[0,0,0,0,0,0,0,0,0,0,0,0,0,0,0,0,0,0,0,0,0,0,0,0,0,0,0,0,0,0,0,0,0,0,0,0,0],"id":29,"left_children":[1,3,5,7,-1,9,11,13,15,17,-1,19,-1,21,23,25,27,29,31,33,35,-1,-1,-1,-1,-1,-1,-1,-1,-1,-1,-1,-1,-1,-1,-1,-1],"loss_changes":[1.4117326E2,2.0571686E1,1.506417E2,1.7004227E1,0E0,8.343454E1,1.8933243E1,1.0294327E1,1.2126396E1,7.002389E1,0E0,2.0850662E1,0E0,7.733261E0,1.0879374E1,9.213212E0,3.7130241E0,6.835301E1,1.7174423E1,1.9881516E1,1.879351E1,0E0,0E0,0E0,0E0,0E0,0E0,0E0,0E0,0E0,0E0,0E0,0E0,0E0,0E0,0E0,0E0],"parents":[2147483647,0,0,1,1,2,2,3,3,5,5,6,6,7,7,8,8,9,9,11,11,13,13,14,14,15,15,16,16,17,17,18,18,19,19,20,20],"right_children":[2,4,6,8,-1,10,12,14,16,18,-1,20,-1,22,24,26,28,30,32,34,36,-1,-1,-1,-1,-1,-1,-1,-1,-1,-1,-1,-1,-1,-1,-1,-1],"split_conditions":[2.1428572E-1,1E0,8.095238E-1,1.5476191E-1,9.863787E-2,1E0,1E0,1E0,3.2867157E-1,1E0,1.1110114E-1,1E0,9.7688586E-2,1E0,2.646701E-1,8.286131E-2,5.394127E-1,1E0,6.4399116E-2,1E0,2.646701E-1,-5.292324E-2,8.489566E-2,1.9183269E-1,-7.0187785E-2,-2.1376202E-2,3.4546E-2,1.9201014E-2,-4.8292186E-2,8.838691E-3,-5.094288E-3,2.7076853E-2,7.38158E-2,-4.918828E-2,1.5045947E-1,8.142172E-3,-3.9773893E-2],"split_indices":[2,5,2,2,0,5,5,32,9,0,0,33,0,35,3,12,13,15,12,35,3,0,0,0,0,0,0,0,0,0,0,0,0,0,0,0,0],"split_type":[0,0,0,0,0,0,0,0,0,0,0,0,0,0,0,0,0,0,0,0,0,0,0,0,0,0,0,0,0,0,0,0,0,0,0,0,0],"sum_hessian":[2.3635422E4,1.2530453E3,2.2382377E4,1.2429255E3,1.0119742E1,2.1239748E4,1.1426292E3,5.8901044E2,6.539151E2,2.1174412E4,6.533623E1,1.1333748E3,9.254281E0,5.842734E2,4.737046E0,4.2609216E2,2.2782295E2,2.0724898E4,4.4951273E2,8.047195E2,3.2865536E2,5.810296E2,3.2437878E0,2.649958E0,2.0870879E0,3.9515512E2,3.0937038E1,7.957782E0,2.1986517E2,4.4955396E3,1.6229359E4,3.4793433E2,1.01578415E2,8.006421E2,4.077353E0,1.4945192E2,1.7920343E2],"tree_param":{"num_deleted":"0","num_feature":"38","num_nodes":"37","size_leaf_vector":"1"}},{"base_weights":[-4.172745E-2,-1.5800977E-2,-2.4792972E-1,-3.0784667E-1,-4.222735E-3,-2.618886E-1,1.0044634E-1,-3.305447E-1,1.2167598E0,1.7752204E-2,-1.8469667E-1,-1.6800778E-1,-3.9302453E-1,-4.7039945E-2,-3.8548812E-1,5.33174E-1,3.3964047E-1,5.515199E-1,1.07813245E-2,1.6411806E0,-1.922157E-1,-2.3134816E-1,6.894535E-2,-3.3598515E-1,-6.1126363E-1,1.1558419E-1,-8.432337E-3,-4.001898E-2,6.495833E-2,-8.069423E-3,1.7098758E-1,1.12564705E-1,4.385628E-2,-1.0863421E-3,1.855764E-2,-0E0,2.0568733E-1,-1.4942561E-2,-4.952945E-2,-2.9549614E-2,2.8127225E-3,9.055717E-5,1.8777786E-1,-5.6453653E-2,-2.7543802E-2,-6.570633E-2,6.421782E-2],"categories":[],"categories_nodes":[],"categories_segments":[],"categories_sizes":[],"default_left":[0,0,0,0,0,0,0,0,0,0,0,0,0,0,0,0,0,0,0,0,0,0,0,0,0,0,0,0,0,0,0,0,0,0,0,0,0,0,0,0,0,0,0,0,0,0,0],"id":30,"left_children":[1,3,5,7,9,11,-1,13,15,17,19,21,23,25,27,29,-1,31,33,35,37,39,41,43,45,-1,-1,-1,-1,-1,-1,-1,-1,-1,-1,-1,-1,-1,-1,-1,-1,-1,-1,-1,-1,-1,-1],"loss_changes":[1.25761314E2,7.066348E1,4.619458E1,2.7978806E1,7.9727684E1,3.193303E1,0E0,1.2224823E1,1.5920601E1,6.667558E1,3.0271957E1,2.2777458E1,1.3283722E1,5.8701363E0,1.027668E1,7.5420628E0,0E0,1.4486099E1,6.693531E1,6.1774445E0,2.812033E1,1.9930672E1,3.9459515E1,1.1763428E1,1.3242386E1,0E0,0E0,0E0,0E0,0E0,0E0,0E0,0E0,0E0,0E0,0E0,0E0,0E0,0E0,0E0,0E0,0E0,0E0,0E0,0E0,0E0,0E0],"parents":[2147483647,0,0,1,1,2,2,3,3,4,4,5,5,7,7,8,8,9,9,10,10,11,11,12,12,13,13,14,14,15,15,17,17,18,18,19,19,20,20,21,21,22,22,23,23,24,24],"right_children":[2,4,6,8,10,12,-1,14,16,18,20,22,24,26,28,30,-1,32,34,36,38,40,42,44,46,-1,-1,-1,-1,-1,-1,-1,-1,-1,-1,-1,-1,-1,-1,-1,-1,-1,-1,-1,-1,-1,-1],"split_conditions":[2.4607688E-1,1.4758362E-1,1E0,1E0,7.555838E-1,1E0,1.0044634E-1,1E0,1E0,2.4684506E-2,5.4761904E-1,5.3613067E-2,3.4490559E-1,1.1296353E-3,1E0,6.625641E-1,3.3964047E-1,7.070707E-2,1E0,1.356784E-1,8.5714287E-1,5.8423495E-1,5.8247787E-1,3.4345227E-1,6.888396E-1,1.1558419E-1,-8.432337E-3,-4.001898E-2,6.495833E-2,-8.069423E-3,1.7098758E-1,1.12564705E-1,4.385628E-2,-1.0863421E-3,1.855764E-2,-0E0,2.0568733E-1,-1.4942561E-2,-4.952945E-2,-2.9549614E-2,2.8127225E-3,9.055717E-5,1.8777786E-1,-5.6453653E-2,-2.7543802E-2,-6.570633E-2,6.421782E-2],"split_indices":[3,4,5,32,4,37,0,15,23,3,2,12,3,12,0,17,0,1,20,6,2,13,3,4,9,0,0,0,0,0,0,0,0,0,0,0,0,0,0,0,0,0,0,0,0,0,0],"split_type":[0,0,0,0,0,0,0,0,0,0,0,0,0,0,0,0,0,0,0,0,0,0,0,0,0,0,0,0,0,0,0,0,0,0,0,0,0,0,0,0,0,0,0,0,0,0,0],"sum_hessian":[2.352373E4,2.0897324E4,2.626406E3,7.9590906E2,2.0101416E4,2.5982383E3,2.8167627E1,7.8500586E2,1.090316E1,1.7920295E4,2.1811218E3,1.5155431E3,1.0826952E3,1.2774155E2,6.5726434E2,9.247888E0,1.6552725E0,2.3000885E2,1.7690285E4,8.053493E0,2.1730684E3,1.1958942E3,3.1964886E2,8.603711E2,2.2232416E2,2.9375796E0,1.2480396E2,6.4866534E2,8.598987E0,6.6889386E0,2.5589485E0,3.633825E1,1.936706E2,1.5741908E4,1.9483768E3,1.8294896E0,6.2240033E0,1.9055326E3,2.6753574E2,9.587382E2,2.3715596E2,3.0902582E2,1.0623041E1,1.7844443E2,6.819267E2,2.1494678E2,7.377371E0],"tree_param":{"num_deleted":"0","num_feature":"38","num_nodes":"47","size_leaf_vector":"1"}},{"base_weights":[-3.7788767E-2,-3.1868663E-1,-2.084598E-2,-7.7490605E-2,-3.771941E-1,3.942019E-4,-2.7040198E-1,9.807615E-2,-3.071862E-1,-3.8984022E-1,9.935148E-2,-7.396029E-2,4.484232E-2,-3.2394785E-1,2.7137844E-2,-6.5227067E-3,9.5511883E-1,-5.932732E-1,4.099585E-2,-3.607944E-1,-8.334057E-1,-1.1862504E-1,3.541065E-2,4.1188587E-2,1.08685985E-1,-3.3433172E-1,1.0112424E-1,7.5020766E-1,-1.7107338E-2,8.778169E-3,-8.361819E-2,-4.0423937E-2,1.376645E-1,-7.6261446E-2,-2.664539E-2,1.2537966E-2,-8.28127E-2,-3.696258E-2,1.8550615E-1,-8.7740414E-2,-4.721494E-2,-2.7818E-2,-6.486831E-3,3.7626483E-2,5.5012293E-4,1.8120427E-3,1.8961797E-2,-4.075377E-2,-1.38499215E-2,1.4482267E-1,6.443395E-3,5.288367E-3,-4.1166224E-2],"categories":[],"categories_nodes":[],"categories_segments":[],"categories_sizes":[],"default_left":[0,0,0,0,0,0,0,0,0,0,0,0,0,0,0,0,0,0,0,0,0,0,0,0,0,0,0,0,0,0,0,0,0,0,0,0,0,0,0,0,0,0,0,0,0,0,0,0,0,0,0,0,0],"id":31,"left_children":[1,3,5,7,9,11,13,15,17,19,-1,21,23,25,27,29,31,33,35,37,39,41,43,45,-1,47,-1,49,51,-1,-1,-1,-1,-1,-1,-1,-1,-1,-1,-1,-1,-1,-1,-1,-1,-1,-1,-1,-1,-1,-1,-1,-1],"loss_changes":[1.1148047E2,1.8774353E1,1.17113205E2,1.0571435E1,1.8970901E1,6.729871E1,2.761908E1,1.3356092E1,1.1329028E1,1.3393951E1,0E0,3.7221188E1,4.847622E1,2.0700974E1,8.498784E0,1.0535124E1,9.842817E0,3.2471943E0,3.9256475E0,2.0242844E1,6.1065674E-1,4.6381416E1,2.2526638E1,4.3485004E1,0E0,2.084761E1,0E0,7.2372437E0,6.9510603E0,0E0,0E0,0E0,0E0,0E0,0E0,0E0,0E0,0E0,0E0,0E0,0E0,0E0,0E0,0E0,0E0,0E0,0E0,0E0,0E0,0E0,0E0,0E0,0E0],"parents":[2147483647,0,0,1,1,2,2,3,3,4,4,5,5,6,6,7,7,8,8,9,9,11,11,12,12,13,13,14,14,15,15,16,16,17,17,18,18,19,19,20,20,21,21,22,22,23,23,25,25,27,27,28,28],"right_children":[2,4,6,8,10,12,14,16,18,20,-1,22,24,26,28,30,32,34,36,38,40,42,44,46,-1,48,-1,50,52,-1,-1,-1,-1,-1,-1,-1,-1,-1,-1,-1,-1,-1,-1,-1,-1,-1,-1,-1,-1,-1,-1,-1,-1],"split_conditions":[2.2619048E-1,1E0,7.619048E-1,6.934673E-1,1E0,1.71143E-2,5.8423495E-1,5.6585595E-2,1.904762E-1,3.7553778E-1,9.935148E-2,5.4868627E-1,1E0,1E0,4.6069798E-1,9.1083336E-1,4.7619048E-1,6.904762E-1,9.3916667E-1,1E0,1E0,4.2857143E-1,5E-1,1E0,1.08685985E-1,1E0,1.0112424E-1,4.9583334E-1,2.7261892E-1,8.778169E-3,-8.361819E-2,-4.0423937E-2,1.376645E-1,-7.6261446E-2,-2.664539E-2,1.2537966E-2,-8.28127E-2,-3.696258E-2,1.8550615E-1,-8.7740414E-2,-4.721494E-2,-2.7818E-2,-6.486831E-3,3.7626483E-2,5.5012293E-4,1.8120427E-3,1.8961797E-2,-4.075377E-2,-1.38499215E-2,1.4482267E-1,6.443395E-3,5.288367E-3,-4.1166224E-2],"split_indices":[2,15,2,6,5,12,13,12,2,3,0,13,5,5,11,16,7,7,16,35,29,2,15,20,0,33,0,16,3,0,0,0,0,0,0,0,0,0,0,0,0,0,0,0,0,0,0,0,0,0,0,0,0],"split_type":[0,0,0,0,0,0,0,0,0,0,0,0,0,0,0,0,0,0,0,0,0,0,0,0,0,0,0,0,0,0,0,0,0,0,0,0,0,0,0,0,0,0,0,0,0,0,0,0,0,0,0,0,0],"sum_hessian":[2.3424705E4,1.3315076E3,2.2093197E4,2.6039117E2,1.0711163E3,2.036121E4,1.7319865E3,1.4790747E2,1.1248372E2,1.0620344E3,9.081962E0,7.6175684E3,1.2743642E4,1.46776E3,2.6422638E2,1.327028E2,1.5204659E1,6.1363106E1,5.1120613E1,9.984678E2,6.3566624E1,5.408697E3,2.2088716E3,1.270015E4,4.349139E1,1.4571777E3,1.0582236E1,1.4317174E1,2.4990921E2,1.19960335E2,1.2742473E1,3.6080103E0,1.1596649E1,3.9539326E1,2.182378E1,4.737758E1,3.7430344E0,9.953345E2,3.1333022E0,5.5389107E1,8.177519E0,1.3619901E3,4.0467068E3,1.7725235E2,2.0316193E3,1.0992828E4,1.7073221E3,1.0598859E3,3.9729187E2,6.5435295E0,7.7736444E0,2.1298988E2,3.691934E1],"tree_param":{"num_deleted":"0","num_feature":"38","num_nodes":"53","size_leaf_vector":"1"}},{"base_weights":[-3.4250665E-2,-1.3518488E-2,-2.342171E-1,-2.9431973E-2,1.8412808E-1,-2.4761154E-1,9.9024184E-2,7.6766512E-3,-1.3159065E-1,7.208469E-2,3.290387E-1,-6.78029E-2,-3.1685624E-1,-1.7204098E-2,2.0199431E-1,-1.8387291E-1,9.093468E-3,3.2215677E-2,5.2559584E-1,5.392303E-1,2.2566183E-1,-1.0598763E-1,1.3516431E0,-2.5914684E-1,-6.395812E-1,1.3961223E-2,-4.635479E-3,1.0768346E-2,3.0889098E-2,-1.2553097E-3,-2.2727001E-2,3.3662019E-3,-4.1584592E-2,2.0559635E-2,-6.2180287E-3,1.8516384E-1,4.2541984E-2,-3.908364E-2,5.864477E-2,4.5450594E-2,1.17150275E-2,-1.2423365E-2,1.6240275E-1,-8.348002E-2,2.2350374E-1,-2.145919E-2,-5.0593715E-2,1.12867495E-2,-7.079672E-2],"categories":[],"categories_nodes":[],"categories_segments":[],"categories_sizes":[],"default_left":[0,0,0,0,0,0,0,0,0,0,0,0,0,0,0,0,0,0,0,0,0,0,0,0,0,0,0,0,0,0,0,0,0,0,0,0,0,0,0,0,0,0,0,0,0,0,0,0,0],"id":32,"left_children":[1,3,5,7,9,11,-1,13,15,17,19,21,23,25,27,29,31,33,35,37,39,41,43,45,47,-1,-1,-1,-1,-1,-1,-1,-1,-1,-1,-1,-1,-1,-1,-1,-1,-1,-1,-1,-1,-1,-1,-1,-1],"loss_changes":[9.671138E1,6.649043E1,3.618554E1,7.416781E1,2.5552238E1,2.6977646E1,0E0,6.939239E1,3.8345108E1,1.6068502E1,1.4796623E1,3.2889633E1,2.89861E1,5.817107E1,1.6390633E1,2.8253983E1,1.4769322E1,1.3414365E1,8.750967E0,1.0138222E1,1.1417799E1,1.8801634E1,3.257708E1,1.4510025E1,1.2263603E1,0E0,0E0,0E0,0E0,0E0,0E0,0E0,0E0,0E0,0E0,0E0,0E0,0E0,0E0,0E0,0E0,0E0,0E0,0E0,0E0,0E0,0E0,0E0,0E0],"parents":[2147483647,0,0,1,1,2,2,3,3,4,4,5,5,7,7,8,8,9,9,10,10,11,11,12,12,13,13,14,14,15,15,16,16,17,17,18,18,19,19,20,20,21,21,22,22,23,23,24,24],"right_children":[2,4,6,8,10,12,-1,14,16,18,20,22,24,26,28,30,32,34,36,38,40,42,44,46,48,-1,-1,-1,-1,-1,-1,-1,-1,-1,-1,-1,-1,-1,-1,-1,-1,-1,-1,-1,-1,-1,-1,-1,-1],"split_conditions":[2.5792503E-1,1E0,1E0,1.3464135E-1,2.5074445E-2,3.0927835E-2,9.9024184E-2,1E0,1E0,8.833333E-1,2.0618556E-2,8.367741E-1,3.604848E-1,3.8409866E-2,4.8794872E-1,1E0,8.484849E-1,1.6440396E-1,2.294923E-1,5.59017E-2,1.5833509E-1,1E0,5.394127E-1,7.020202E-1,1E0,1.3961223E-2,-4.635479E-3,1.0768346E-2,3.0889098E-2,-1.2553097E-3,-2.2727001E-2,3.3662019E-3,-4.1584592E-2,2.0559635E-2,-6.2180287E-3,1.8516384E-1,4.2541984E-2,-3.908364E-2,5.864477E-2,4.5450594E-2,1.17150275E-2,-1.2423365E-2,1.6240275E-1,-8.348002E-2,2.2350374E-1,-2.145919E-2,-5.0593715E-2,1.12867495E-2,-7.079672E-2],"split_indices":[3,33,5,3,12,8,0,34,34,17,8,3,3,3,17,15,1,3,4,9,3,32,13,1,15,0,0,0,0,0,0,0,0,0,0,0,0,0,0,0,0,0,0,0,0,0,0,0,0],"split_type":[0,0,0,0,0,0,0,0,0,0,0,0,0,0,0,0,0,0,0,0,0,0,0,0,0,0,0,0,0,0,0,0,0,0,0,0,0,0,0,0,0,0,0,0,0,0,0,0,0],"sum_hessian":[2.3327715E4,2.1137309E4,2.1904072E3,1.9563049E4,1.5742599E3,2.1674956E3,2.2911762E1,1.4351025E4,5.2120225E3,8.886609E2,6.8559894E2,6.0318665E2,1.564309E3,1.2722874E4,1.6281512E3,3.79966E3,1.4123623E3,8.178366E2,7.08243E1,